<?xml version="1.0"?>
<opencv_storage>
<cascade>
  <stageType>BOOST</stageType>
  <featureType>HAAR</featureType>
  <height>24</height>
  <width>24</width>
  <stageParams>
    <boostType>GAB</boostType>
    <minHitRate>9.9500000476837158e-01</minHitRate>
    <maxFalseAlarm>5.0000000000000000e-01</maxFalseAlarm>
    <weightTrimRate>9.4999999999999996e-01</weightTrimRate>
    <maxDepth>1</maxDepth>
    <maxWeakCount>100</maxWeakCount></stageParams>
  <featureParams>
    <maxCatCount>0</maxCatCount>
    <featSize>1</featSize>
    <mode>BASIC</mode></featureParams>
  <stageNum>10</stageNum>
  <stages>
    <!-- stage 0 -->
    <_>
      <maxWeakCount>6</maxWeakCount>
      <stageThreshold>-9.3662357330322266e-01</stageThreshold>
      <weakClassifiers>
        <_>
          <internalNodes>
            0 -1 41 3.7806056439876556e-02</internalNodes>
          <leafValues>
            -6.1718750000000000e-01 6.2903225421905518e-01</leafValues></_>
        <_>
          <internalNodes>
            0 -1 24 2.9760152101516724e-02</internalNodes>
          <leafValues>
            -4.1505458950996399e-01 6.4147001504898071e-01</leafValues></_>
        <_>
          <internalNodes>
            0 -1 53 2.2572260349988937e-02</internalNodes>
          <leafValues>
            -2.8903421759605408e-01 7.5832343101501465e-01</leafValues></_>
        <_>
          <internalNodes>
            0 -1 52 -5.5368692846968770e-04</internalNodes>
          <leafValues>
            5.1210039854049683e-01 -4.2354515194892883e-01</leafValues></_>
        <_>
          <internalNodes>
            0 -1 64 -1.4319092733785510e-03</internalNodes>
          <leafValues>
            -8.3846819400787354e-01 2.7874737977981567e-01</leafValues></_>
        <_>
          <internalNodes>
            0 -1 28 -1.9583761692047119e-02</internalNodes>
          <leafValues>
            7.3765742778778076e-01 -3.3633711934089661e-01</leafValues></_></weakClassifiers></_>
    <!-- stage 1 -->
    <_>
      <maxWeakCount>5</maxWeakCount>
      <stageThreshold>-7.3886340856552124e-01</stageThreshold>
      <weakClassifiers>
        <_>
          <internalNodes>
            0 -1 39 8.2475841045379639e-02</internalNodes>
          <leafValues>
            -5.7805907726287842e-01 3.9860141277313232e-01</leafValues></_>
        <_>
          <internalNodes>
            0 -1 61 1.6778187127783895e-03</internalNodes>
          <leafValues>
            1.6439400613307953e-01 -8.7364119291305542e-01</leafValues></_>
        <_>
          <internalNodes>
            0 -1 26 8.9652166934683919e-04</internalNodes>
          <leafValues>
            1.9987328350543976e-01 -8.5738635063171387e-01</leafValues></_>
        <_>
          <internalNodes>
            0 -1 50 -1.4433495700359344e-02</internalNodes>
          <leafValues>
            3.6817905306816101e-01 -5.1551467180252075e-01</leafValues></_>
        <_>
          <internalNodes>
            0 -1 65 1.3627610169351101e-03</internalNodes>
          <leafValues>
            2.3093110322952271e-01 -8.9325070381164551e-01</leafValues></_></weakClassifiers></_>
    <!-- stage 2 -->
    <_>
      <maxWeakCount>7</maxWeakCount>
      <stageThreshold>-7.5882428884506226e-01</stageThreshold>
      <weakClassifiers>
        <_>
          <internalNodes>
            0 -1 35 -6.6344566643238068e-02</internalNodes>
          <leafValues>
            5.7894736528396606e-01 -5.4887217283248901e-01</leafValues></_>
        <_>
          <internalNodes>
            0 -1 2 2.0899141207337379e-02</internalNodes>
          <leafValues>
            -2.7601951360702515e-01 7.7229124307632446e-01</leafValues></_>
        <_>
          <internalNodes>
            0 -1 63 1.3004441279917955e-03</internalNodes>
          <leafValues>
            1.9994914531707764e-01 -8.8103544712066650e-01</leafValues></_>
        <_>
          <internalNodes>
            0 -1 40 2.6893534231930971e-04</internalNodes>
          <leafValues>
            3.7585750222206116e-01 -4.7511306405067444e-01</leafValues></_>
        <_>
          <internalNodes>
            0 -1 55 -1.8840387463569641e-02</internalNodes>
          <leafValues>
            6.0451573133468628e-01 -3.1309872865676880e-01</leafValues></_>
        <_>
          <internalNodes>
            0 -1 49 -1.7639063298702240e-02</internalNodes>
          <leafValues>
            4.8527857661247253e-01 -4.0561768412590027e-01</leafValues></_>
        <_>
          <internalNodes>
            0 -1 19 3.6469008773565292e-04</internalNodes>
          <leafValues>
            2.6550087332725525e-01 -6.8191909790039062e-01</leafValues></_></weakClassifiers></_>
    <!-- stage 3 -->
    <_>
      <maxWeakCount>7</maxWeakCount>
      <stageThreshold>-7.9129296541213989e-01</stageThreshold>
      <weakClassifiers>
        <_>
          <internalNodes>
            0 -1 3 4.7992054373025894e-02</internalNodes>
          <leafValues>
            -4.6289753913879395e-01 5.2577316761016846e-01</leafValues></_>
        <_>
          <internalNodes>
            0 -1 66 4.9889797810465097e-04</internalNodes>
          <leafValues>
            2.2562871873378754e-01 -6.6819787025451660e-01</leafValues></_>
        <_>
          <internalNodes>
            0 -1 46 1.1367197148501873e-03</internalNodes>
          <leafValues>
            -5.5639797449111938e-01 2.6557028293609619e-01</leafValues></_>
        <_>
          <internalNodes>
            0 -1 9 -1.1662254109978676e-03</internalNodes>
          <leafValues>
            -9.8101031780242920e-01 1.7061814665794373e-01</leafValues></_>
        <_>
          <internalNodes>
            0 -1 25 -1.1327859014272690e-02</internalNodes>
          <leafValues>
            7.7464348077774048e-01 -2.6965555548667908e-01</leafValues></_>
        <_>
          <internalNodes>
            0 -1 51 -9.7274342551827431e-03</internalNodes>
          <leafValues>
            5.7242870330810547e-01 -3.5422936081886292e-01</leafValues></_>
        <_>
          <internalNodes>
            0 -1 30 1.1436300352215767e-02</internalNodes>
          <leafValues>
            -3.6632770299911499e-01 5.5559736490249634e-01</leafValues></_></weakClassifiers></_>
    <!-- stage 4 -->
    <_>
      <maxWeakCount>9</maxWeakCount>
      <stageThreshold>-9.4760066270828247e-01</stageThreshold>
      <weakClassifiers>
        <_>
          <internalNodes>
            0 -1 23 3.3081822097301483e-02</internalNodes>
          <leafValues>
            -3.6555892229080200e-01 8.3673471212387085e-01</leafValues></_>
        <_>
          <internalNodes>
            0 -1 8 -2.8456002473831177e-04</internalNodes>
          <leafValues>
            -6.6589742898941040e-01 2.5167620182037354e-01</leafValues></_>
        <_>
          <internalNodes>
            0 -1 44 1.3978606089949608e-02</internalNodes>
          <leafValues>
            -4.1906067728996277e-01 4.2609706521034241e-01</leafValues></_>
        <_>
          <internalNodes>
            0 -1 37 1.0126709938049316e-02</internalNodes>
          <leafValues>
            -2.5523611903190613e-01 7.0983725786209106e-01</leafValues></_>
        <_>
          <internalNodes>
            0 -1 15 -4.2781792581081390e-04</internalNodes>
          <leafValues>
            -6.6435074806213379e-01 3.4589770436286926e-01</leafValues></_>
        <_>
          <internalNodes>
            0 -1 43 1.6620593145489693e-02</internalNodes>
          <leafValues>
            -2.8452563285827637e-01 6.4661860466003418e-01</leafValues></_>
        <_>
          <internalNodes>
            0 -1 11 4.0571782737970352e-03</internalNodes>
          <leafValues>
            4.2014536261558533e-01 -4.9897491931915283e-01</leafValues></_>
        <_>
          <internalNodes>
            0 -1 60 1.9285085145384073e-03</internalNodes>
          <leafValues>
            2.5258907675743103e-01 -6.2813091278076172e-01</leafValues></_>
        <_>
          <internalNodes>
            0 -1 57 2.9827473917976022e-04</internalNodes>
          <leafValues>
            2.2170618176460266e-01 -7.7439010143280029e-01</leafValues></_></weakClassifiers></_>
    <!-- stage 5 -->
    <_>
      <maxWeakCount>5</maxWeakCount>
      <stageThreshold>-4.0231221914291382e-01</stageThreshold>
      <weakClassifiers>
        <_>
          <internalNodes>
            0 -1 45 -7.5072601437568665e-02</internalNodes>
          <leafValues>
            5.8208954334259033e-01 -3.8019168376922607e-01</leafValues></_>
        <_>
          <internalNodes>
            0 -1 62 -1.2850828934460878e-03</internalNodes>
          <leafValues>
            -7.0919412374496460e-01 2.2723726928234100e-01</leafValues></_>
        <_>
          <internalNodes>
            0 -1 27 6.1188137624412775e-04</internalNodes>
          <leafValues>
            1.8181113898754120e-01 -7.4431169033050537e-01</leafValues></_>
        <_>
          <internalNodes>
            0 -1 48 -1.6119673848152161e-02</internalNodes>
          <leafValues>
            6.8750780820846558e-01 -2.4889449775218964e-01</leafValues></_>
        <_>
          <internalNodes>
            0 -1 6 9.5357345417141914e-03</internalNodes>
          <leafValues>
            -1.8224534392356873e-01 8.3809059858322144e-01</leafValues></_></weakClassifiers></_>
    <!-- stage 6 -->
    <_>
      <maxWeakCount>6</maxWeakCount>
      <stageThreshold>-6.9453096389770508e-01</stageThreshold>
      <weakClassifiers>
        <_>
          <internalNodes>
            0 -1 36 4.2439214885234833e-02</internalNodes>
          <leafValues>
            -3.5329341888427734e-01 8.2608693838119507e-01</leafValues></_>
        <_>
          <internalNodes>
            0 -1 16 -2.7418826357461512e-04</internalNodes>
          <leafValues>
            -6.1335033178329468e-01 3.1602022051811218e-01</leafValues></_>
        <_>
          <internalNodes>
            0 -1 31 2.9260132461786270e-02</internalNodes>
          <leafValues>
            -3.1463843584060669e-01 7.2318983078002930e-01</leafValues></_>
        <_>
          <internalNodes>
            0 -1 34 -9.9213924258947372e-03</internalNodes>
          <leafValues>
            6.2657654285430908e-01 -2.2405511140823364e-01</leafValues></_>
        <_>
          <internalNodes>
            0 -1 0 -5.5210466962307692e-04</internalNodes>
          <leafValues>
            -6.9821059703826904e-01 2.3947644233703613e-01</leafValues></_>
        <_>
          <internalNodes>
            0 -1 33 -2.7427240274846554e-03</internalNodes>
          <leafValues>
            6.6903507709503174e-01 -2.7098527550697327e-01</leafValues></_></weakClassifiers></_>
    <!-- stage 7 -->
    <_>
      <maxWeakCount>7</maxWeakCount>
      <stageThreshold>-9.5648288726806641e-01</stageThreshold>
      <weakClassifiers>
        <_>
          <internalNodes>
            0 -1 1 7.2954982519149780e-02</internalNodes>
          <leafValues>
            -4.9818181991577148e-01 5.4285717010498047e-01</leafValues></_>
        <_>
          <internalNodes>
            0 -1 4 8.1331627443432808e-03</internalNodes>
          <leafValues>
            -2.2293859720230103e-01 7.7175205945968628e-01</leafValues></_>
        <_>
          <internalNodes>
            0 -1 56 1.6710812225937843e-02</internalNodes>
          <leafValues>
            -1.8345375359058380e-01 8.9477658271789551e-01</leafValues></_>
        <_>
          <internalNodes>
            0 -1 54 -1.8179269507527351e-02</internalNodes>
          <leafValues>
            7.1266311407089233e-01 -2.9476222395896912e-01</leafValues></_>
        <_>
          <internalNodes>
            0 -1 32 -1.8142731860280037e-02</internalNodes>
          <leafValues>
            8.5578650236129761e-01 -1.2230553478002548e-01</leafValues></_>
        <_>
          <internalNodes>
            0 -1 21 -6.3781696371734142e-03</internalNodes>
          <leafValues>
            7.3283517360687256e-01 -2.1777078509330750e-01</leafValues></_>
        <_>
          <internalNodes>
            0 -1 38 -8.9082438498735428e-03</internalNodes>
          <leafValues>
            5.8292984962463379e-01 -2.1825753152370453e-01</leafValues></_></weakClassifiers></_>
    <!-- stage 8 -->
    <_>
      <maxWeakCount>7</maxWeakCount>
      <stageThreshold>-7.8790384531021118e-01</stageThreshold>
      <weakClassifiers>
        <_>
          <internalNodes>
            0 -1 22 2.7078446000814438e-02</internalNodes>
          <leafValues>
            -3.7195122241973877e-01 8.0769228935241699e-01</leafValues></_>
        <_>
          <internalNodes>
            0 -1 18 4.3386369361542165e-04</internalNodes>
          <leafValues>
            2.4232527613639832e-01 -6.3609558343887329e-01</leafValues></_>
        <_>
          <internalNodes>
            0 -1 12 -1.2549741566181183e-01</internalNodes>
          <leafValues>
            -7.3127377033233643e-01 2.3843596875667572e-01</leafValues></_>
        <_>
          <internalNodes>
            0 -1 20 -3.0587732791900635e-02</internalNodes>
          <leafValues>
            9.7866922616958618e-01 -1.4509369432926178e-01</leafValues></_>
        <_>
          <internalNodes>
            0 -1 7 3.2275269040837884e-04</internalNodes>
          <leafValues>
            3.1703868508338928e-01 -5.4249477386474609e-01</leafValues></_>
        <_>
          <internalNodes>
            0 -1 42 1.4305692166090012e-03</internalNodes>
          <leafValues>
            2.3682712018489838e-01 -7.6652288436889648e-01</leafValues></_>
        <_>
          <internalNodes>
            0 -1 47 1.9109699875116348e-02</internalNodes>
          <leafValues>
            -3.0213594436645508e-01 6.3999074697494507e-01</leafValues></_></weakClassifiers></_>
    <!-- stage 9 -->
    <_>
      <maxWeakCount>9</maxWeakCount>
      <stageThreshold>-1.1583600044250488e+00</stageThreshold>
      <weakClassifiers>
        <_>
          <internalNodes>
            0 -1 13 2.6560079306364059e-02</internalNodes>
          <leafValues>
            -3.6809816956520081e-01 7.4074071645736694e-01</leafValues></_>
        <_>
          <internalNodes>
            0 -1 29 3.6888814065605402e-04</internalNodes>
          <leafValues>
            2.5050351023674011e-01 -6.1076945066452026e-01</leafValues></_>
        <_>
          <internalNodes>
            0 -1 14 -1.9808111712336540e-02</internalNodes>
          <leafValues>
            6.1161428689956665e-01 -3.0491805076599121e-01</leafValues></_>
        <_>
          <internalNodes>
            0 -1 17 -4.8591446829959750e-04</internalNodes>
          <leafValues>
            -7.0829522609710693e-01 2.7177873253822327e-01</leafValues></_>
        <_>
          <internalNodes>
            0 -1 58 3.4622870385646820e-02</internalNodes>
          <leafValues>
            -2.1060644090175629e-01 8.9690524339675903e-01</leafValues></_>
        <_>
          <internalNodes>
            0 -1 59 -3.6367406137287617e-03</internalNodes>
          <leafValues>
            5.7326793670654297e-01 -3.4513968229293823e-01</leafValues></_>
        <_>
          <internalNodes>
            0 -1 67 6.8459112662822008e-04</internalNodes>
          <leafValues>
            2.8341391682624817e-01 -7.2803336381912231e-01</leafValues></_>
        <_>
          <internalNodes>
            0 -1 5 -4.9996338784694672e-03</internalNodes>
          <leafValues>
            6.6622871160507202e-01 -2.9853007197380066e-01</leafValues></_>
        <_>
          <internalNodes>
            0 -1 10 5.7220377493649721e-04</internalNodes>
          <leafValues>
            2.9707151651382446e-01 -6.8112140893936157e-01</leafValues></_></weakClassifiers></_></stages>
  <features>
    <_>
      <rects>
        <_>
          0 1 3 1 -1.</_>
        <_>
          1 1 1 1 3.</_></rects>
      <tilted>0</tilted></_>
    <_>
      <rects>
        <_>
          0 1 8 23 -1.</_>
        <_>
          4 1 4 23 2.</_></rects>
      <tilted>0</tilted></_>
    <_>
      <rects>
        <_>
          0 4 4 11 -1.</_>
        <_>
          2 4 2 11 2.</_></rects>
      <tilted>0</tilted></_>
    <_>
      <rects>
        <_>
          0 4 6 19 -1.</_>
        <_>
          3 4 3 19 2.</_></rects>
      <tilted>0</tilted></_>
    <_>
      <rects>
        <_>
          0 7 2 8 -1.</_>
        <_>
          1 7 1 8 2.</_></rects>
      <tilted>0</tilted></_>
    <_>
      <rects>
        <_>
          0 8 2 10 -1.</_>
        <_>
          0 8 1 5 2.</_>
        <_>
          1 13 1 5 2.</_></rects>
      <tilted>0</tilted></_>
    <_>
      <rects>
        <_>
          0 9 6 2 -1.</_>
        <_>
          2 9 2 2 3.</_></rects>
      <tilted>0</tilted></_>
    <_>
      <rects>
        <_>
          0 20 3 1 -1.</_>
        <_>
          1 20 1 1 3.</_></rects>
      <tilted>0</tilted></_>
    <_>
      <rects>
        <_>
          0 22 2 1 -1.</_>
        <_>
          1 22 1 1 2.</_></rects>
      <tilted>0</tilted></_>
    <_>
      <rects>
        <_>
          1 1 3 1 -1.</_>
        <_>
          2 1 1 1 3.</_></rects>
      <tilted>0</tilted></_>
    <_>
      <rects>
        <_>
          1 4 1 3 -1.</_>
        <_>
          1 5 1 1 3.</_></rects>
      <tilted>0</tilted></_>
    <_>
      <rects>
        <_>
          1 5 2 18 -1.</_>
        <_>
          1 14 2 9 2.</_></rects>
      <tilted>0</tilted></_>
    <_>
      <rects>
        <_>
          1 6 20 13 -1.</_>
        <_>
          11 6 10 13 2.</_></rects>
      <tilted>0</tilted></_>
    <_>
      <rects>
        <_>
          1 8 6 6 -1.</_>
        <_>
          3 8 2 6 3.</_></rects>
      <tilted>0</tilted></_>
    <_>
      <rects>
        <_>
          1 8 6 13 -1.</_>
        <_>
          3 8 2 13 3.</_></rects>
      <tilted>0</tilted></_>
    <_>
      <rects>
        <_>
          1 19 1 3 -1.</_>
        <_>
          1 20 1 1 3.</_></rects>
      <tilted>0</tilted></_>
    <_>
      <rects>
        <_>
          1 21 2 2 -1.</_>
        <_>
          1 21 1 1 2.</_>
        <_>
          2 22 1 1 2.</_></rects>
      <tilted>0</tilted></_>
    <_>
      <rects>
        <_>
          1 22 2 2 -1.</_>
        <_>
          1 22 1 1 2.</_>
        <_>
          2 23 1 1 2.</_></rects>
      <tilted>0</tilted></_>
    <_>
      <rects>
        <_>
          2 0 3 1 -1.</_>
        <_>
          3 0 1 1 3.</_></rects>
      <tilted>0</tilted></_>
    <_>
      <rects>
        <_>
          2 0 1 3 -1.</_>
        <_>
          2 1 1 1 3.</_></rects>
      <tilted>0</tilted></_>
    <_>
      <rects>
        <_>
          2 0 4 14 -1.</_>
        <_>
          2 0 2 7 2.</_>
        <_>
          4 7 2 7 2.</_></rects>
      <tilted>0</tilted></_>
    <_>
      <rects>
        <_>
          2 3 6 4 -1.</_>
        <_>
          2 3 3 2 2.</_>
        <_>
          5 5 3 2 2.</_></rects>
      <tilted>0</tilted></_>
    <_>
      <rects>
        <_>
          2 6 6 7 -1.</_>
        <_>
          4 6 2 7 3.</_></rects>
      <tilted>0</tilted></_>
    <_>
      <rects>
        <_>
          2 7 6 8 -1.</_>
        <_>
          4 7 2 8 3.</_></rects>
      <tilted>0</tilted></_>
    <_>
      <rects>
        <_>
          2 8 12 10 -1.</_>
        <_>
          2 8 6 5 2.</_>
        <_>
          8 13 6 5 2.</_></rects>
      <tilted>0</tilted></_>
    <_>
      <rects>
        <_>
          2 10 6 4 -1.</_>
        <_>
          4 10 2 4 3.</_></rects>
      <tilted>0</tilted></_>
    <_>
      <rects>
        <_>
          2 23 3 1 -1.</_>
        <_>
          3 23 1 1 3.</_></rects>
      <tilted>0</tilted></_>
    <_>
      <rects>
        <_>
          3 0 3 1 -1.</_>
        <_>
          4 0 1 1 3.</_></rects>
      <tilted>0</tilted></_>
    <_>
      <rects>
        <_>
          3 1 8 8 -1.</_>
        <_>
          3 1 4 4 2.</_>
        <_>
          7 5 4 4 2.</_></rects>
      <tilted>0</tilted></_>
    <_>
      <rects>
        <_>
          3 23 2 1 -1.</_>
        <_>
          4 23 1 1 2.</_></rects>
      <tilted>0</tilted></_>
    <_>
      <rects>
        <_>
          4 2 3 8 -1.</_>
        <_>
          4 6 3 4 2.</_></rects>
      <tilted>0</tilted></_>
    <_>
      <rects>
        <_>
          4 3 10 6 -1.</_>
        <_>
          4 5 10 2 3.</_></rects>
      <tilted>0</tilted></_>
    <_>
      <rects>
        <_>
          4 4 8 6 -1.</_>
        <_>
          4 4 4 3 2.</_>
        <_>
          8 7 4 3 2.</_></rects>
      <tilted>0</tilted></_>
    <_>
      <rects>
        <_>
          4 6 6 1 -1.</_>
        <_>
          6 6 2 1 3.</_></rects>
      <tilted>0</tilted></_>
    <_>
      <rects>
        <_>
          4 9 6 8 -1.</_>
        <_>
          6 9 2 8 3.</_></rects>
      <tilted>0</tilted></_>
    <_>
      <rects>
        <_>
          4 14 11 10 -1.</_>
        <_>
          4 19 11 5 2.</_></rects>
      <tilted>0</tilted></_>
    <_>
      <rects>
        <_>
          6 0 14 6 -1.</_>
        <_>
          6 2 14 2 3.</_></rects>
      <tilted>0</tilted></_>
    <_>
      <rects>
        <_>
          6 3 4 12 -1.</_>
        <_>
          6 3 2 6 2.</_>
        <_>
          8 9 2 6 2.</_></rects>
      <tilted>0</tilted></_>
    <_>
      <rects>
        <_>
          6 3 12 4 -1.</_>
        <_>
          6 3 6 2 2.</_>
        <_>
          12 5 6 2 2.</_></rects>
      <tilted>0</tilted></_>
    <_>
      <rects>
        <_>
          6 9 11 15 -1.</_>
        <_>
          6 14 11 5 3.</_></rects>
      <tilted>0</tilted></_>
    <_>
      <rects>
        <_>
          6 21 2 3 -1.</_>
        <_>
          6 22 2 1 3.</_></rects>
      <tilted>0</tilted></_>
    <_>
      <rects>
        <_>
          7 11 7 12 -1.</_>
        <_>
          7 15 7 4 3.</_></rects>
      <tilted>0</tilted></_>
    <_>
      <rects>
        <_>
          7 23 4 1 -1.</_>
        <_>
          9 23 2 1 2.</_></rects>
      <tilted>0</tilted></_>
    <_>
      <rects>
        <_>
          8 3 6 6 -1.</_>
        <_>
          8 5 6 2 3.</_></rects>
      <tilted>0</tilted></_>
    <_>
      <rects>
        <_>
          8 14 7 6 -1.</_>
        <_>
          8 16 7 2 3.</_></rects>
      <tilted>0</tilted></_>
    <_>
      <rects>
        <_>
          8 16 7 8 -1.</_>
        <_>
          8 20 7 4 2.</_></rects>
      <tilted>0</tilted></_>
    <_>
      <rects>
        <_>
          9 11 2 6 -1.</_>
        <_>
          9 14 2 3 2.</_></rects>
      <tilted>0</tilted></_>
    <_>
      <rects>
        <_>
          9 15 7 6 -1.</_>
        <_>
          9 17 7 2 3.</_></rects>
      <tilted>0</tilted></_>
    <_>
      <rects>
        <_>
          10 1 8 6 -1.</_>
        <_>
          10 3 8 2 3.</_></rects>
      <tilted>0</tilted></_>
    <_>
      <rects>
        <_>
          10 4 10 14 -1.</_>
        <_>
          10 4 5 7 2.</_>
        <_>
          15 11 5 7 2.</_></rects>
      <tilted>0</tilted></_>
    <_>
      <rects>
        <_>
          10 4 6 12 -1.</_>
        <_>
          10 8 6 4 3.</_></rects>
      <tilted>0</tilted></_>
    <_>
      <rects>
        <_>
          14 8 6 11 -1.</_>
        <_>
          16 8 2 11 3.</_></rects>
      <tilted>0</tilted></_>
    <_>
      <rects>
        <_>
          14 13 2 4 -1.</_>
        <_>
          15 13 1 4 2.</_></rects>
      <tilted>0</tilted></_>
    <_>
      <rects>
        <_>
          15 0 8 10 -1.</_>
        <_>
          15 0 4 5 2.</_>
        <_>
          19 5 4 5 2.</_></rects>
      <tilted>0</tilted></_>
    <_>
      <rects>
        <_>
          16 6 6 8 -1.</_>
        <_>
          18 6 2 8 3.</_></rects>
      <tilted>0</tilted></_>
    <_>
      <rects>
        <_>
          16 6 6 9 -1.</_>
        <_>
          18 6 2 9 3.</_></rects>
      <tilted>0</tilted></_>
    <_>
      <rects>
        <_>
          16 8 6 11 -1.</_>
        <_>
          18 8 2 11 3.</_></rects>
      <tilted>0</tilted></_>
    <_>
      <rects>
        <_>
          17 1 2 1 -1.</_>
        <_>
          18 1 1 1 2.</_></rects>
      <tilted>0</tilted></_>
    <_>
      <rects>
        <_>
          17 7 6 14 -1.</_>
        <_>
          19 7 2 14 3.</_></rects>
      <tilted>0</tilted></_>
    <_>
      <rects>
        <_>
          17 11 6 3 -1.</_>
        <_>
          19 11 2 3 3.</_></rects>
      <tilted>0</tilted></_>
    <_>
      <rects>
        <_>
          18 16 6 3 -1.</_>
        <_>
          18 17 6 1 3.</_></rects>
      <tilted>0</tilted></_>
    <_>
      <rects>
        <_>
          18 21 4 2 -1.</_>
        <_>
          18 21 2 1 2.</_>
        <_>
          20 22 2 1 2.</_></rects>
      <tilted>0</tilted></_>
    <_>
      <rects>
        <_>
          19 20 3 4 -1.</_>
        <_>
          20 20 1 4 3.</_></rects>
      <tilted>0</tilted></_>
    <_>
      <rects>
        <_>
          20 1 3 2 -1.</_>
        <_>
          21 1 1 2 3.</_></rects>
      <tilted>0</tilted></_>
    <_>
      <rects>
        <_>
          21 2 3 3 -1.</_>
        <_>
          21 3 3 1 3.</_></rects>
      <tilted>0</tilted></_>
    <_>
      <rects>
        <_>
          22 13 2 3 -1.</_>
        <_>
          22 14 2 1 3.</_></rects>
      <tilted>0</tilted></_>
    <_>
      <rects>
        <_>
          22 17 2 2 -1.</_>
        <_>
          22 18 2 1 2.</_></rects>
      <tilted>0</tilted></_>
    <_>
      <rects>
        <_>
          22 21 1 3 -1.</_>
        <_>
          22 22 1 1 3.</_></rects>
      <tilted>0</tilted></_></features></cascade>
</opencv_storage>
