<?xml version="1.0"?>
<opencv_storage>
<cascade>
  <stageType>BOOST</stageType>
  <featureType>HAAR</featureType>
  <height>24</height>
  <width>24</width>
  <stageParams>
    <boostType>GAB</boostType>
    <minHitRate>9.9500000476837158e-01</minHitRate>
    <maxFalseAlarm>5.0000000000000000e-01</maxFalseAlarm>
    <weightTrimRate>9.4999999999999996e-01</weightTrimRate>
    <maxDepth>1</maxDepth>
    <maxWeakCount>100</maxWeakCount></stageParams>
  <featureParams>
    <maxCatCount>0</maxCatCount>
    <featSize>1</featSize>
    <mode>BASIC</mode></featureParams>
  <stageNum>20</stageNum>
  <stages>
    <!-- stage 0 -->
    <_>
      <maxWeakCount>11</maxWeakCount>
      <stageThreshold>-1.3246973752975464e+00</stageThreshold>
      <weakClassifiers>
        <_>
          <internalNodes>
            0 -1 13 4.5671649277210236e-02</internalNodes>
          <leafValues>
            -5.5155479907989502e-01 6.8292683362960815e-01</leafValues></_>
        <_>
          <internalNodes>
            0 -1 49 -1.2054553627967834e-01</internalNodes>
          <leafValues>
            8.2640159130096436e-01 -2.6092371344566345e-01</leafValues></_>
        <_>
          <internalNodes>
            0 -1 44 -2.7805183082818985e-02</internalNodes>
          <leafValues>
            7.3172062635421753e-01 -2.5767815113067627e-01</leafValues></_>
        <_>
          <internalNodes>
            0 -1 98 2.4304281920194626e-02</internalNodes>
          <leafValues>
            -1.8424713611602783e-01 7.0870482921600342e-01</leafValues></_>
        <_>
          <internalNodes>
            0 -1 203 -1.0094894096255302e-02</internalNodes>
          <leafValues>
            6.6326403617858887e-01 -1.5586328506469727e-01</leafValues></_>
        <_>
          <internalNodes>
            0 -1 4 -6.0155890882015228e-02</internalNodes>
          <leafValues>
            7.4297392368316650e-01 -1.9511289894580841e-01</leafValues></_>
        <_>
          <internalNodes>
            0 -1 307 5.2352949976921082e-02</internalNodes>
          <leafValues>
            -1.8414714932441711e-01 6.8545842170715332e-01</leafValues></_>
        <_>
          <internalNodes>
            0 -1 389 -1.6105200629681349e-03</internalNodes>
          <leafValues>
            -8.8681119680404663e-01 1.6596959531307220e-01</leafValues></_>
        <_>
          <internalNodes>
            0 -1 389 3.2801815541461110e-04</internalNodes>
          <leafValues>
            2.5753486156463623e-01 -5.6291198730468750e-01</leafValues></_>
        <_>
          <internalNodes>
            0 -1 333 2.2674530744552612e-02</internalNodes>
          <leafValues>
            -2.0366320013999939e-01 6.7496585845947266e-01</leafValues></_>
        <_>
          <internalNodes>
            0 -1 186 5.3106926381587982e-02</internalNodes>
          <leafValues>
            -1.6904634237289429e-01 7.5316452980041504e-01</leafValues></_></weakClassifiers></_>
    <!-- stage 1 -->
    <_>
      <maxWeakCount>13</maxWeakCount>
      <stageThreshold>-9.9680131673812866e-01</stageThreshold>
      <weakClassifiers>
        <_>
          <internalNodes>
            0 -1 48 -1.4130017161369324e-01</internalNodes>
          <leafValues>
            6.2237763404846191e-01 -4.9683544039726257e-01</leafValues></_>
        <_>
          <internalNodes>
            0 -1 19 3.7434898316860199e-02</internalNodes>
          <leafValues>
            -2.3873423039913177e-01 5.7229697704315186e-01</leafValues></_>
        <_>
          <internalNodes>
            0 -1 384 7.6436891686171293e-04</internalNodes>
          <leafValues>
            1.4229598641395569e-01 -6.8341612815856934e-01</leafValues></_>
        <_>
          <internalNodes>
            0 -1 384 -7.1552343433722854e-04</internalNodes>
          <leafValues>
            -5.7903182506561279e-01 1.8281421065330505e-01</leafValues></_>
        <_>
          <internalNodes>
            0 -1 57 1.1725530028343201e-01</internalNodes>
          <leafValues>
            -1.6431148350238800e-01 7.4663585424423218e-01</leafValues></_>
        <_>
          <internalNodes>
            0 -1 106 3.3538709394633770e-03</internalNodes>
          <leafValues>
            1.6133722662925720e-01 -7.1389740705490112e-01</leafValues></_>
        <_>
          <internalNodes>
            0 -1 130 -2.3718539159744978e-03</internalNodes>
          <leafValues>
            -6.3802367448806763e-01 1.6226290166378021e-01</leafValues></_>
        <_>
          <internalNodes>
            0 -1 374 -1.6453046351671219e-02</internalNodes>
          <leafValues>
            6.3031560182571411e-01 -1.5004660189151764e-01</leafValues></_>
        <_>
          <internalNodes>
            0 -1 262 -5.8169379830360413e-02</internalNodes>
          <leafValues>
            6.4695018529891968e-01 -1.6640689969062805e-01</leafValues></_>
        <_>
          <internalNodes>
            0 -1 47 -9.1837365180253983e-03</internalNodes>
          <leafValues>
            6.0298281908035278e-01 -1.6800107061862946e-01</leafValues></_>
        <_>
          <internalNodes>
            0 -1 27 2.9288060963153839e-02</internalNodes>
          <leafValues>
            -1.5914724767208099e-01 6.4528119564056396e-01</leafValues></_>
        <_>
          <internalNodes>
            0 -1 162 -3.9079681038856506e-02</internalNodes>
          <leafValues>
            5.8930742740631104e-01 -1.5866114199161530e-01</leafValues></_>
        <_>
          <internalNodes>
            0 -1 367 -2.8550210408866405e-03</internalNodes>
          <leafValues>
            -7.1916955709457397e-01 1.8389852344989777e-01</leafValues></_></weakClassifiers></_>
    <!-- stage 2 -->
    <_>
      <maxWeakCount>12</maxWeakCount>
      <stageThreshold>-1.1432826519012451e+00</stageThreshold>
      <weakClassifiers>
        <_>
          <internalNodes>
            0 -1 86 -6.6351272165775299e-02</internalNodes>
          <leafValues>
            4.1333332657814026e-01 -5.1489359140396118e-01</leafValues></_>
        <_>
          <internalNodes>
            0 -1 310 3.7615098059177399e-02</internalNodes>
          <leafValues>
            -2.3832447826862335e-01 6.0442852973937988e-01</leafValues></_>
        <_>
          <internalNodes>
            0 -1 194 -2.7744997292757034e-02</internalNodes>
          <leafValues>
            5.0482118129730225e-01 -2.2387260198593140e-01</leafValues></_>
        <_>
          <internalNodes>
            0 -1 83 -2.3708140943199396e-03</internalNodes>
          <leafValues>
            3.3371981978416443e-01 -3.0612376332283020e-01</leafValues></_>
        <_>
          <internalNodes>
            0 -1 199 -1.4352010563015938e-02</internalNodes>
          <leafValues>
            5.6897628307342529e-01 -1.5810258686542511e-01</leafValues></_>
        <_>
          <internalNodes>
            0 -1 337 -7.2354270378127694e-04</internalNodes>
          <leafValues>
            -6.3194769620895386e-01 1.6030748188495636e-01</leafValues></_>
        <_>
          <internalNodes>
            0 -1 33 2.5529097765684128e-03</internalNodes>
          <leafValues>
            1.5968696773052216e-01 -6.6931104660034180e-01</leafValues></_>
        <_>
          <internalNodes>
            0 -1 46 3.9787560701370239e-02</internalNodes>
          <leafValues>
            -1.7536768317222595e-01 6.3490235805511475e-01</leafValues></_>
        <_>
          <internalNodes>
            0 -1 70 -1.8192358314990997e-02</internalNodes>
          <leafValues>
            5.2281343936920166e-01 -1.9188894331455231e-01</leafValues></_>
        <_>
          <internalNodes>
            0 -1 201 -1.6196791082620621e-02</internalNodes>
          <leafValues>
            4.6035909652709961e-01 -1.9478490948677063e-01</leafValues></_>
        <_>
          <internalNodes>
            0 -1 234 5.8152601122856140e-03</internalNodes>
          <leafValues>
            -1.6569247841835022e-01 6.0598963499069214e-01</leafValues></_>
        <_>
          <internalNodes>
            0 -1 126 -3.1272624619305134e-03</internalNodes>
          <leafValues>
            -8.8039022684097290e-01 1.1580619961023331e-01</leafValues></_></weakClassifiers></_>
    <!-- stage 3 -->
    <_>
      <maxWeakCount>16</maxWeakCount>
      <stageThreshold>-1.2573609352111816e+00</stageThreshold>
      <weakClassifiers>
        <_>
          <internalNodes>
            0 -1 340 -5.0718653947114944e-02</internalNodes>
          <leafValues>
            3.7869822978973389e-01 -4.7689768671989441e-01</leafValues></_>
        <_>
          <internalNodes>
            0 -1 56 3.8764070719480515e-02</internalNodes>
          <leafValues>
            -2.3845149576663971e-01 4.8781600594520569e-01</leafValues></_>
        <_>
          <internalNodes>
            0 -1 97 -1.2498595751821995e-02</internalNodes>
          <leafValues>
            5.5620938539505005e-01 -1.8031086027622223e-01</leafValues></_>
        <_>
          <internalNodes>
            0 -1 133 -6.3075140118598938e-02</internalNodes>
          <leafValues>
            5.6446689367294312e-01 -1.3826470077037811e-01</leafValues></_>
        <_>
          <internalNodes>
            0 -1 223 -1.0461529716849327e-02</internalNodes>
          <leafValues>
            2.8298434615135193e-01 -3.1587255001068115e-01</leafValues></_>
        <_>
          <internalNodes>
            0 -1 236 4.8010181635618210e-03</internalNodes>
          <leafValues>
            -1.5714210271835327e-01 4.0549468994140625e-01</leafValues></_>
        <_>
          <internalNodes>
            0 -1 197 3.8220301270484924e-02</internalNodes>
          <leafValues>
            -1.4832592010498047e-01 5.8401548862457275e-01</leafValues></_>
        <_>
          <internalNodes>
            0 -1 393 -4.9347052117809653e-04</internalNodes>
          <leafValues>
            -5.1558423042297363e-01 1.9409205019474030e-01</leafValues></_>
        <_>
          <internalNodes>
            0 -1 393 3.6868653842248023e-04</internalNodes>
          <leafValues>
            1.7163223028182983e-01 -4.9347925186157227e-01</leafValues></_>
        <_>
          <internalNodes>
            0 -1 181 -2.0165469497442245e-02</internalNodes>
          <leafValues>
            5.3187525272369385e-01 -1.6159471869468689e-01</leafValues></_>
        <_>
          <internalNodes>
            0 -1 211 2.2535100579261780e-03</internalNodes>
          <leafValues>
            1.2584197521209717e-01 -7.7299755811691284e-01</leafValues></_>
        <_>
          <internalNodes>
            0 -1 200 -1.6653802245855331e-02</internalNodes>
          <leafValues>
            3.3980375528335571e-01 -2.1312662959098816e-01</leafValues></_>
        <_>
          <internalNodes>
            0 -1 275 9.3141413526609540e-04</internalNodes>
          <leafValues>
            1.4162647724151611e-01 -5.2576887607574463e-01</leafValues></_>
        <_>
          <internalNodes>
            0 -1 31 1.0233785025775433e-02</internalNodes>
          <leafValues>
            -1.4287666976451874e-01 5.4566979408264160e-01</leafValues></_>
        <_>
          <internalNodes>
            0 -1 171 3.5892911255359650e-03</internalNodes>
          <leafValues>
            7.3471121490001678e-02 -9.6815764904022217e-01</leafValues></_>
        <_>
          <internalNodes>
            0 -1 249 2.6945784687995911e-02</internalNodes>
          <leafValues>
            -1.2522435188293457e-01 6.7058616876602173e-01</leafValues></_></weakClassifiers></_>
    <!-- stage 4 -->
    <_>
      <maxWeakCount>20</maxWeakCount>
      <stageThreshold>-9.9812847375869751e-01</stageThreshold>
      <weakClassifiers>
        <_>
          <internalNodes>
            0 -1 354 6.9546364247798920e-02</internalNodes>
          <leafValues>
            -4.3570348620414734e-01 5.5263155698776245e-01</leafValues></_>
        <_>
          <internalNodes>
            0 -1 18 2.4847690016031265e-02</internalNodes>
          <leafValues>
            -2.0873519778251648e-01 5.1473331451416016e-01</leafValues></_>
        <_>
          <internalNodes>
            0 -1 128 3.4473207779228687e-03</internalNodes>
          <leafValues>
            1.0329952836036682e-01 -7.3483854532241821e-01</leafValues></_>
        <_>
          <internalNodes>
            0 -1 169 8.2785190897993743e-05</internalNodes>
          <leafValues>
            -2.6395672559738159e-01 3.0206263065338135e-01</leafValues></_>
        <_>
          <internalNodes>
            0 -1 21 -1.2439079582691193e-02</internalNodes>
          <leafValues>
            3.5199698805809021e-01 -2.2189910709857941e-01</leafValues></_>
        <_>
          <internalNodes>
            0 -1 75 -8.4735453128814697e-03</internalNodes>
          <leafValues>
            5.8654725551605225e-01 -1.5302352607250214e-01</leafValues></_>
        <_>
          <internalNodes>
            0 -1 137 7.3492534458637238e-02</internalNodes>
          <leafValues>
            -8.4775336086750031e-02 6.9957095384597778e-01</leafValues></_>
        <_>
          <internalNodes>
            0 -1 159 2.3764051496982574e-02</internalNodes>
          <leafValues>
            -1.1508585512638092e-01 5.3436696529388428e-01</leafValues></_>
        <_>
          <internalNodes>
            0 -1 147 -3.8734441623091698e-03</internalNodes>
          <leafValues>
            -9.4889718294143677e-01 6.9984942674636841e-02</leafValues></_>
        <_>
          <internalNodes>
            0 -1 295 -3.8572931662201881e-03</internalNodes>
          <leafValues>
            3.7663054466247559e-01 -1.8112024664878845e-01</leafValues></_>
        <_>
          <internalNodes>
            0 -1 208 6.6377818584442139e-02</internalNodes>
          <leafValues>
            -1.1983892321586609e-01 5.7862496376037598e-01</leafValues></_>
        <_>
          <internalNodes>
            0 -1 60 3.2272358657792211e-04</internalNodes>
          <leafValues>
            1.8624220788478851e-01 -3.5550093650817871e-01</leafValues></_>
        <_>
          <internalNodes>
            0 -1 135 2.6996852830052376e-03</internalNodes>
          <leafValues>
            -1.7107953131198883e-01 3.6307343840599060e-01</leafValues></_>
        <_>
          <internalNodes>
            0 -1 110 -6.2378346920013428e-03</internalNodes>
          <leafValues>
            -8.1305998563766479e-01 8.6818724870681763e-02</leafValues></_>
        <_>
          <internalNodes>
            0 -1 58 -1.7860345542430878e-03</internalNodes>
          <leafValues>
            -7.1802473068237305e-01 7.7349647879600525e-02</leafValues></_>
        <_>
          <internalNodes>
            0 -1 360 -4.1261883452534676e-03</internalNodes>
          <leafValues>
            3.4260553121566772e-01 -1.9581712782382965e-01</leafValues></_>
        <_>
          <internalNodes>
            0 -1 336 1.2750243768095970e-03</internalNodes>
          <leafValues>
            7.9409241676330566e-02 -6.8239092826843262e-01</leafValues></_>
        <_>
          <internalNodes>
            0 -1 314 -7.4536595493555069e-03</internalNodes>
          <leafValues>
            3.5977524518966675e-01 -2.0835633575916290e-01</leafValues></_>
        <_>
          <internalNodes>
            0 -1 108 5.8190955314785242e-04</internalNodes>
          <leafValues>
            -1.7929042875766754e-01 3.6775565147399902e-01</leafValues></_>
        <_>
          <internalNodes>
            0 -1 209 2.1559696644544601e-02</internalNodes>
          <leafValues>
            -1.5078005194664001e-01 4.4289332628250122e-01</leafValues></_></weakClassifiers></_>
    <!-- stage 5 -->
    <_>
      <maxWeakCount>18</maxWeakCount>
      <stageThreshold>-1.2256366014480591e+00</stageThreshold>
      <weakClassifiers>
        <_>
          <internalNodes>
            0 -1 357 1.9373504444956779e-02</internalNodes>
          <leafValues>
            -4.5292207598686218e-01 3.3962264657020569e-01</leafValues></_>
        <_>
          <internalNodes>
            0 -1 177 -6.8799212574958801e-02</internalNodes>
          <leafValues>
            4.5030984282493591e-01 -2.0494835078716278e-01</leafValues></_>
        <_>
          <internalNodes>
            0 -1 74 -1.9800715148448944e-02</internalNodes>
          <leafValues>
            3.7045928835868835e-01 -2.3611277341842651e-01</leafValues></_>
        <_>
          <internalNodes>
            0 -1 238 -5.9965476393699646e-03</internalNodes>
          <leafValues>
            3.9503842592239380e-01 -2.2270432114601135e-01</leafValues></_>
        <_>
          <internalNodes>
            0 -1 2 1.4638131251558661e-03</internalNodes>
          <leafValues>
            1.7272496223449707e-01 -4.4233676791191101e-01</leafValues></_>
        <_>
          <internalNodes>
            0 -1 2 -8.0579798668622971e-04</internalNodes>
          <leafValues>
            -3.7798312306404114e-01 2.0731334388256073e-01</leafValues></_>
        <_>
          <internalNodes>
            0 -1 219 -1.8574252724647522e-02</internalNodes>
          <leafValues>
            5.1960361003875732e-01 -1.2063881754875183e-01</leafValues></_>
        <_>
          <internalNodes>
            0 -1 185 5.2791680209338665e-03</internalNodes>
          <leafValues>
            8.9556835591793060e-02 -6.9028985500335693e-01</leafValues></_>
        <_>
          <internalNodes>
            0 -1 17 1.2131161987781525e-02</internalNodes>
          <leafValues>
            -1.8931324779987335e-01 3.1564888358116150e-01</leafValues></_>
        <_>
          <internalNodes>
            0 -1 36 2.0414125174283981e-03</internalNodes>
          <leafValues>
            1.3829943537712097e-01 -4.2642530798912048e-01</leafValues></_>
        <_>
          <internalNodes>
            0 -1 261 -5.9813065454363823e-03</internalNodes>
          <leafValues>
            4.9783679842948914e-01 -1.3714288175106049e-01</leafValues></_>
        <_>
          <internalNodes>
            0 -1 263 3.2640143763273954e-04</internalNodes>
          <leafValues>
            -2.0851090550422668e-01 3.3648824691772461e-01</leafValues></_>
        <_>
          <internalNodes>
            0 -1 274 2.6710508973337710e-04</internalNodes>
          <leafValues>
            1.8406671285629272e-01 -3.5321959853172302e-01</leafValues></_>
        <_>
          <internalNodes>
            0 -1 332 -5.5667560081928968e-04</internalNodes>
          <leafValues>
            3.0225268006324768e-01 -2.0443737506866455e-01</leafValues></_>
        <_>
          <internalNodes>
            0 -1 173 -3.9673395454883575e-02</internalNodes>
          <leafValues>
            4.8683816194534302e-01 -1.1904641240835190e-01</leafValues></_>
        <_>
          <internalNodes>
            0 -1 383 6.0961727285757661e-04</internalNodes>
          <leafValues>
            1.5511877834796906e-01 -4.1886061429977417e-01</leafValues></_>
        <_>
          <internalNodes>
            0 -1 299 -1.7148967832326889e-02</internalNodes>
          <leafValues>
            -7.4015188217163086e-01 7.1262955665588379e-02</leafValues></_>
        <_>
          <internalNodes>
            0 -1 268 -1.2723284773528576e-02</internalNodes>
          <leafValues>
            4.5456758141517639e-01 -1.5212117135524750e-01</leafValues></_></weakClassifiers></_>
    <!-- stage 6 -->
    <_>
      <maxWeakCount>22</maxWeakCount>
      <stageThreshold>-1.0973755121231079e+00</stageThreshold>
      <weakClassifiers>
        <_>
          <internalNodes>
            0 -1 100 -3.4152019768953323e-02</internalNodes>
          <leafValues>
            3.7410071492195129e-01 -4.3553459644317627e-01</leafValues></_>
        <_>
          <internalNodes>
            0 -1 341 -5.1273912191390991e-02</internalNodes>
          <leafValues>
            4.5137351751327515e-01 -2.1192486584186554e-01</leafValues></_>
        <_>
          <internalNodes>
            0 -1 120 -1.0938390623778105e-03</internalNodes>
          <leafValues>
            4.2724007368087769e-01 -1.9667251408100128e-01</leafValues></_>
        <_>
          <internalNodes>
            0 -1 146 5.9045258909463882e-02</internalNodes>
          <leafValues>
            1.2398917227983475e-01 -7.4325013160705566e-01</leafValues></_>
        <_>
          <internalNodes>
            0 -1 114 2.0454658567905426e-01</internalNodes>
          <leafValues>
            -1.0946813225746155e-01 5.6424683332443237e-01</leafValues></_>
        <_>
          <internalNodes>
            0 -1 346 1.4230374246835709e-02</internalNodes>
          <leafValues>
            -1.4345902204513550e-01 4.7043058276176453e-01</leafValues></_>
        <_>
          <internalNodes>
            0 -1 386 1.4365098904818296e-03</internalNodes>
          <leafValues>
            1.0436128079891205e-01 -5.2892982959747314e-01</leafValues></_>
        <_>
          <internalNodes>
            0 -1 331 7.3468778282403946e-04</internalNodes>
          <leafValues>
            -1.9157756865024567e-01 2.9006230831146240e-01</leafValues></_>
        <_>
          <internalNodes>
            0 -1 88 2.8387526981532574e-04</internalNodes>
          <leafValues>
            1.6995520889759064e-01 -3.6019384860992432e-01</leafValues></_>
        <_>
          <internalNodes>
            0 -1 366 3.8717477582395077e-03</internalNodes>
          <leafValues>
            5.3678333759307861e-02 -8.3702069520950317e-01</leafValues></_>
        <_>
          <internalNodes>
            0 -1 22 5.1045969128608704e-02</internalNodes>
          <leafValues>
            -8.9139379560947418e-02 6.2431842088699341e-01</leafValues></_>
        <_>
          <internalNodes>
            0 -1 79 6.0332734137773514e-03</internalNodes>
          <leafValues>
            -1.7688515782356262e-01 3.5410222411155701e-01</leafValues></_>
        <_>
          <internalNodes>
            0 -1 81 -6.9584138691425323e-03</internalNodes>
          <leafValues>
            3.3410876989364624e-01 -1.6426569223403931e-01</leafValues></_>
        <_>
          <internalNodes>
            0 -1 122 3.9372190833091736e-02</internalNodes>
          <leafValues>
            -8.9533761143684387e-02 6.6636991500854492e-01</leafValues></_>
        <_>
          <internalNodes>
            0 -1 154 -1.3779166340827942e-01</internalNodes>
          <leafValues>
            5.3320729732513428e-01 -1.0541937500238419e-01</leafValues></_>
        <_>
          <internalNodes>
            0 -1 5 -2.9714447259902954e-01</internalNodes>
          <leafValues>
            7.3665851354598999e-01 -7.7991999685764313e-02</leafValues></_>
        <_>
          <internalNodes>
            0 -1 218 2.7104153559776023e-05</internalNodes>
          <leafValues>
            -2.0550704002380371e-01 2.5836604833602905e-01</leafValues></_>
        <_>
          <internalNodes>
            0 -1 23 8.9833252131938934e-02</internalNodes>
          <leafValues>
            -1.2476059794425964e-01 4.6313315629959106e-01</leafValues></_>
        <_>
          <internalNodes>
            0 -1 168 3.8179765397217125e-05</internalNodes>
          <leafValues>
            -2.2716945409774780e-01 2.2710247337818146e-01</leafValues></_>
        <_>
          <internalNodes>
            0 -1 123 -2.2768690250813961e-03</internalNodes>
          <leafValues>
            -5.4457789659500122e-01 9.7224518656730652e-02</leafValues></_>
        <_>
          <internalNodes>
            0 -1 174 1.2674905359745026e-01</internalNodes>
          <leafValues>
            -8.2631178200244904e-02 7.0460695028305054e-01</leafValues></_>
        <_>
          <internalNodes>
            0 -1 235 -5.5603627115488052e-03</internalNodes>
          <leafValues>
            2.6073566079139709e-01 -1.9525125622749329e-01</leafValues></_></weakClassifiers></_>
    <!-- stage 7 -->
    <_>
      <maxWeakCount>23</maxWeakCount>
      <stageThreshold>-1.2755953073501587e+00</stageThreshold>
      <weakClassifiers>
        <_>
          <internalNodes>
            0 -1 90 8.2340627908706665e-02</internalNodes>
          <leafValues>
            -4.0819424390792847e-01 3.7931033968925476e-01</leafValues></_>
        <_>
          <internalNodes>
            0 -1 30 -1.3143563270568848e-01</internalNodes>
          <leafValues>
            4.0098595619201660e-01 -2.0177796483039856e-01</leafValues></_>
        <_>
          <internalNodes>
            0 -1 258 3.0850669369101524e-02</internalNodes>
          <leafValues>
            -1.9800905883312225e-01 3.2427027821540833e-01</leafValues></_>
        <_>
          <internalNodes>
            0 -1 183 -4.4099427759647369e-03</internalNodes>
          <leafValues>
            4.0796038508415222e-01 -1.4032220840454102e-01</leafValues></_>
        <_>
          <internalNodes>
            0 -1 216 -1.0329117067158222e-03</internalNodes>
          <leafValues>
            4.2328047752380371e-01 -1.5214791893959045e-01</leafValues></_>
        <_>
          <internalNodes>
            0 -1 296 -1.3638283126056194e-03</internalNodes>
          <leafValues>
            5.1877790689468384e-01 -1.0943964123725891e-01</leafValues></_>
        <_>
          <internalNodes>
            0 -1 179 -9.8179280757904053e-04</internalNodes>
          <leafValues>
            -3.4928911924362183e-01 1.6911406815052032e-01</leafValues></_>
        <_>
          <internalNodes>
            0 -1 302 -6.4274286851286888e-03</internalNodes>
          <leafValues>
            3.6652782559394836e-01 -1.4105559885501862e-01</leafValues></_>
        <_>
          <internalNodes>
            0 -1 67 -6.2117241322994232e-02</internalNodes>
          <leafValues>
            -8.5019814968109131e-01 7.0283606648445129e-02</leafValues></_>
        <_>
          <internalNodes>
            0 -1 68 5.3204409778118134e-02</internalNodes>
          <leafValues>
            7.7256634831428528e-02 -6.0758960247039795e-01</leafValues></_>
        <_>
          <internalNodes>
            0 -1 163 -2.2075857967138290e-02</internalNodes>
          <leafValues>
            3.3150443434715271e-01 -1.8469446897506714e-01</leafValues></_>
        <_>
          <internalNodes>
            0 -1 279 1.8946444615721703e-03</internalNodes>
          <leafValues>
            -1.6057984530925751e-01 3.1639522314071655e-01</leafValues></_>
        <_>
          <internalNodes>
            0 -1 62 7.7581949532032013e-02</internalNodes>
          <leafValues>
            -9.7950577735900879e-02 4.9297839403152466e-01</leafValues></_>
        <_>
          <internalNodes>
            0 -1 184 -8.0150208668783307e-04</internalNodes>
          <leafValues>
            3.8254001736640930e-01 -1.2862575054168701e-01</leafValues></_>
        <_>
          <internalNodes>
            0 -1 362 -1.8575357273221016e-02</internalNodes>
          <leafValues>
            5.0341325998306274e-01 -8.8401645421981812e-02</leafValues></_>
        <_>
          <internalNodes>
            0 -1 191 6.2128041463438421e-05</internalNodes>
          <leafValues>
            -2.7506151795387268e-01 1.9499880075454712e-01</leafValues></_>
        <_>
          <internalNodes>
            0 -1 369 1.8981539178639650e-03</internalNodes>
          <leafValues>
            1.3950848579406738e-01 -3.9648926258087158e-01</leafValues></_>
        <_>
          <internalNodes>
            0 -1 303 1.6231695190072060e-03</internalNodes>
          <leafValues>
            -1.0127054154872894e-01 5.2775210142135620e-01</leafValues></_>
        <_>
          <internalNodes>
            0 -1 192 -2.7346028015017509e-02</internalNodes>
          <leafValues>
            -6.1635583639144897e-01 8.4404505789279938e-02</leafValues></_>
        <_>
          <internalNodes>
            0 -1 144 -4.1262455284595490e-02</internalNodes>
          <leafValues>
            -7.3753428459167480e-01 6.2199424952268600e-02</leafValues></_>
        <_>
          <internalNodes>
            0 -1 51 3.1572970328852534e-04</internalNodes>
          <leafValues>
            1.4649179577827454e-01 -3.6556401848793030e-01</leafValues></_>
        <_>
          <internalNodes>
            0 -1 379 1.1626716004684567e-03</internalNodes>
          <leafValues>
            -1.4881618320941925e-01 4.0698730945587158e-01</leafValues></_>
        <_>
          <internalNodes>
            0 -1 272 -2.4914438836276531e-04</internalNodes>
          <leafValues>
            2.7243322134017944e-01 -1.8477801978588104e-01</leafValues></_></weakClassifiers></_>
    <!-- stage 8 -->
    <_>
      <maxWeakCount>23</maxWeakCount>
      <stageThreshold>-1.2640116214752197e+00</stageThreshold>
      <weakClassifiers>
        <_>
          <internalNodes>
            0 -1 12 4.7952979803085327e-02</internalNodes>
          <leafValues>
            -4.7715735435485840e-01 3.0978259444236755e-01</leafValues></_>
        <_>
          <internalNodes>
            0 -1 377 -1.2949040159583092e-02</internalNodes>
          <leafValues>
            3.9945560693740845e-01 -2.2490374743938446e-01</leafValues></_>
        <_>
          <internalNodes>
            0 -1 99 -9.8472204990684986e-04</internalNodes>
          <leafValues>
            4.3210744857788086e-01 -2.1218745410442352e-01</leafValues></_>
        <_>
          <internalNodes>
            0 -1 373 -7.5277946889400482e-03</internalNodes>
          <leafValues>
            6.1110889911651611e-01 -5.7218488305807114e-02</leafValues></_>
        <_>
          <internalNodes>
            0 -1 72 2.2908009588718414e-02</internalNodes>
          <leafValues>
            1.0692624002695084e-01 -5.8510345220565796e-01</leafValues></_>
        <_>
          <internalNodes>
            0 -1 325 9.6039846539497375e-03</internalNodes>
          <leafValues>
            1.0278397053480148e-01 -6.3941121101379395e-01</leafValues></_>
        <_>
          <internalNodes>
            0 -1 69 -1.3404944911599159e-03</internalNodes>
          <leafValues>
            4.5894524455070496e-01 -1.2017108500003815e-01</leafValues></_>
        <_>
          <internalNodes>
            0 -1 269 7.3731271550059319e-04</internalNodes>
          <leafValues>
            -1.1858637630939484e-01 4.4621512293815613e-01</leafValues></_>
        <_>
          <internalNodes>
            0 -1 304 -3.0596164287999272e-04</internalNodes>
          <leafValues>
            3.1105110049247742e-01 -1.5387845039367676e-01</leafValues></_>
        <_>
          <internalNodes>
            0 -1 229 -5.6554563343524933e-04</internalNodes>
          <leafValues>
            3.3306080102920532e-01 -1.7769563198089600e-01</leafValues></_>
        <_>
          <internalNodes>
            0 -1 228 3.8944982225075364e-04</internalNodes>
          <leafValues>
            -1.4340400695800781e-01 3.5908198356628418e-01</leafValues></_>
        <_>
          <internalNodes>
            0 -1 172 3.3502778969705105e-03</internalNodes>
          <leafValues>
            6.1041567474603653e-02 -8.4167134761810303e-01</leafValues></_>
        <_>
          <internalNodes>
            0 -1 206 2.9101334512233734e-03</internalNodes>
          <leafValues>
            -1.6788314282894135e-01 3.7175816297531128e-01</leafValues></_>
        <_>
          <internalNodes>
            0 -1 107 -4.4391276314854622e-03</internalNodes>
          <leafValues>
            2.1709777414798737e-01 -2.8012451529502869e-01</leafValues></_>
        <_>
          <internalNodes>
            0 -1 38 1.0822433233261108e-01</internalNodes>
          <leafValues>
            -7.8840717673301697e-02 6.3623344898223877e-01</leafValues></_>
        <_>
          <internalNodes>
            0 -1 214 7.3940986767411232e-03</internalNodes>
          <leafValues>
            -1.1450777202844620e-01 4.4210028648376465e-01</leafValues></_>
        <_>
          <internalNodes>
            0 -1 29 1.2747557833790779e-02</internalNodes>
          <leafValues>
            1.1704573780298233e-01 -4.5787298679351807e-01</leafValues></_>
        <_>
          <internalNodes>
            0 -1 217 1.1316265910863876e-02</internalNodes>
          <leafValues>
            -8.0828972160816193e-02 6.8637603521347046e-01</leafValues></_>
        <_>
          <internalNodes>
            0 -1 175 -3.3098080893978477e-04</internalNodes>
          <leafValues>
            2.8573080897331238e-01 -1.6965612769126892e-01</leafValues></_>
        <_>
          <internalNodes>
            0 -1 242 -6.9229188375174999e-04</internalNodes>
          <leafValues>
            3.4956741333007812e-01 -1.4937302470207214e-01</leafValues></_>
        <_>
          <internalNodes>
            0 -1 84 -4.1671559214591980e-02</internalNodes>
          <leafValues>
            -5.6190907955169678e-01 1.0686424374580383e-01</leafValues></_>
        <_>
          <internalNodes>
            0 -1 400 4.7586951404809952e-03</internalNodes>
          <leafValues>
            7.3297627270221710e-02 -5.8787721395492554e-01</leafValues></_>
        <_>
          <internalNodes>
            0 -1 119 3.8096044212579727e-02</internalNodes>
          <leafValues>
            5.8065183460712433e-02 -7.1902745962142944e-01</leafValues></_></weakClassifiers></_>
    <!-- stage 9 -->
    <_>
      <maxWeakCount>16</maxWeakCount>
      <stageThreshold>-1.3741105794906616e+00</stageThreshold>
      <weakClassifiers>
        <_>
          <internalNodes>
            0 -1 42 7.4658850207924843e-03</internalNodes>
          <leafValues>
            -4.3272170424461365e-01 4.7933885455131531e-01</leafValues></_>
        <_>
          <internalNodes>
            0 -1 329 1.7690250650048256e-02</internalNodes>
          <leafValues>
            -1.2445380538702011e-01 8.7990844249725342e-01</leafValues></_>
        <_>
          <internalNodes>
            0 -1 153 1.4853702850814443e-05</internalNodes>
          <leafValues>
            -2.5718438625335693e-01 3.2593607902526855e-01</leafValues></_>
        <_>
          <internalNodes>
            0 -1 93 1.7636753618717194e-02</internalNodes>
          <leafValues>
            -1.2156793475151062e-01 6.8170982599258423e-01</leafValues></_>
        <_>
          <internalNodes>
            0 -1 65 -3.6169853992760181e-03</internalNodes>
          <leafValues>
            5.9855669736862183e-01 -1.1596487462520599e-01</leafValues></_>
        <_>
          <internalNodes>
            0 -1 339 -2.2557750344276428e-02</internalNodes>
          <leafValues>
            5.7617145776748657e-01 -1.1467872560024261e-01</leafValues></_>
        <_>
          <internalNodes>
            0 -1 330 -1.5488996723433957e-05</internalNodes>
          <leafValues>
            2.9655265808105469e-01 -2.3289196193218231e-01</leafValues></_>
        <_>
          <internalNodes>
            0 -1 255 1.0521893389523029e-02</internalNodes>
          <leafValues>
            -1.5326681733131409e-01 5.0266724824905396e-01</leafValues></_>
        <_>
          <internalNodes>
            0 -1 204 -1.0329240933060646e-02</internalNodes>
          <leafValues>
            4.0911695361137390e-01 -1.6109982132911682e-01</leafValues></_>
        <_>
          <internalNodes>
            0 -1 280 1.6114214304252528e-05</internalNodes>
          <leafValues>
            -1.8731883168220520e-01 3.3303138613700867e-01</leafValues></_>
        <_>
          <internalNodes>
            0 -1 115 9.8313782364130020e-03</internalNodes>
          <leafValues>
            -1.7547757923603058e-01 4.4451978802680969e-01</leafValues></_>
        <_>
          <internalNodes>
            0 -1 0 3.2999430550262332e-04</internalNodes>
          <leafValues>
            1.8852370977401733e-01 -4.2004337906837463e-01</leafValues></_>
        <_>
          <internalNodes>
            0 -1 54 2.1621018648147583e-02</internalNodes>
          <leafValues>
            -1.8013559281826019e-01 4.4630697369575500e-01</leafValues></_>
        <_>
          <internalNodes>
            0 -1 26 1.1056812480092049e-02</internalNodes>
          <leafValues>
            -1.1536861211061478e-01 6.0506629943847656e-01</leafValues></_>
        <_>
          <internalNodes>
            0 -1 348 1.6138135833898559e-05</internalNodes>
          <leafValues>
            -2.7713838219642639e-01 2.5635084509849548e-01</leafValues></_>
        <_>
          <internalNodes>
            0 -1 305 1.4017447938385885e-05</internalNodes>
          <leafValues>
            -2.1692056953907013e-01 2.8328001499176025e-01</leafValues></_></weakClassifiers></_>
    <!-- stage 10 -->
    <_>
      <maxWeakCount>15</maxWeakCount>
      <stageThreshold>-1.5114190578460693e+00</stageThreshold>
      <weakClassifiers>
        <_>
          <internalNodes>
            0 -1 165 -1.5514062397414818e-05</internalNodes>
          <leafValues>
            1.0119047760963440e-01 -5.8997720479965210e-01</leafValues></_>
        <_>
          <internalNodes>
            0 -1 155 1.7412779925507493e-05</internalNodes>
          <leafValues>
            -3.3052751421928406e-01 3.5986807942390442e-01</leafValues></_>
        <_>
          <internalNodes>
            0 -1 149 1.5012480616860557e-05</internalNodes>
          <leafValues>
            -2.9778912663459778e-01 3.6863857507705688e-01</leafValues></_>
        <_>
          <internalNodes>
            0 -1 319 -4.9171209335327148e-02</internalNodes>
          <leafValues>
            4.5068785548210144e-01 -2.0551091432571411e-01</leafValues></_>
        <_>
          <internalNodes>
            0 -1 361 -1.3935529750597198e-05</internalNodes>
          <leafValues>
            3.4203827381134033e-01 -2.5176391005516052e-01</leafValues></_>
        <_>
          <internalNodes>
            0 -1 312 -1.4084372196521144e-05</internalNodes>
          <leafValues>
            3.5475510358810425e-01 -2.1985164284706116e-01</leafValues></_>
        <_>
          <internalNodes>
            0 -1 350 -1.6102998415590264e-05</internalNodes>
          <leafValues>
            3.3329227566719055e-01 -2.6990133523941040e-01</leafValues></_>
        <_>
          <internalNodes>
            0 -1 312 1.6651281839585863e-05</internalNodes>
          <leafValues>
            -2.2493438422679901e-01 3.4474131464958191e-01</leafValues></_>
        <_>
          <internalNodes>
            0 -1 352 1.6138135833898559e-05</internalNodes>
          <leafValues>
            -2.5579708814620972e-01 3.3389845490455627e-01</leafValues></_>
        <_>
          <internalNodes>
            0 -1 387 1.6146022971952334e-05</internalNodes>
          <leafValues>
            -2.4841028451919556e-01 3.0799466371536255e-01</leafValues></_>
        <_>
          <internalNodes>
            0 -1 205 6.5136620833072811e-05</internalNodes>
          <leafValues>
            -2.3859439790248871e-01 3.3800643682479858e-01</leafValues></_>
        <_>
          <internalNodes>
            0 -1 205 -1.3577506251749583e-05</internalNodes>
          <leafValues>
            3.7269061803817749e-01 -2.3357154428958893e-01</leafValues></_>
        <_>
          <internalNodes>
            0 -1 273 -1.5885167158558033e-05</internalNodes>
          <leafValues>
            3.4416237473487854e-01 -2.2903549671173096e-01</leafValues></_>
        <_>
          <internalNodes>
            0 -1 273 1.4604897842218634e-05</internalNodes>
          <leafValues>
            -2.5539100170135498e-01 3.6239579319953918e-01</leafValues></_>
        <_>
          <internalNodes>
            0 -1 157 1.2884001989732496e-05</internalNodes>
          <leafValues>
            -1.8973119556903839e-01 3.9444026350975037e-01</leafValues></_></weakClassifiers></_>
    <!-- stage 11 -->
    <_>
      <maxWeakCount>17</maxWeakCount>
      <stageThreshold>-1.2477251291275024e+00</stageThreshold>
      <weakClassifiers>
        <_>
          <internalNodes>
            0 -1 43 9.0469485148787498e-03</internalNodes>
          <leafValues>
            -4.7246891260147095e-01 1.9339622557163239e-01</leafValues></_>
        <_>
          <internalNodes>
            0 -1 345 -2.6086661964654922e-02</internalNodes>
          <leafValues>
            3.3307462930679321e-01 -2.7334967255592346e-01</leafValues></_>
        <_>
          <internalNodes>
            0 -1 129 -7.0847530150786042e-04</internalNodes>
          <leafValues>
            3.0595800280570984e-01 -2.1339923143386841e-01</leafValues></_>
        <_>
          <internalNodes>
            0 -1 227 -1.1372112203389406e-03</internalNodes>
          <leafValues>
            4.0444824099540710e-01 -1.6730761528015137e-01</leafValues></_>
        <_>
          <internalNodes>
            0 -1 247 -2.7185154613107443e-03</internalNodes>
          <leafValues>
            4.1453337669372559e-01 -1.6207012534141541e-01</leafValues></_>
        <_>
          <internalNodes>
            0 -1 328 1.0803708573803306e-03</internalNodes>
          <leafValues>
            -9.6173800528049469e-02 6.1581194400787354e-01</leafValues></_>
        <_>
          <internalNodes>
            0 -1 270 -3.0835287179797888e-03</internalNodes>
          <leafValues>
            5.1665270328521729e-01 -1.2102371454238892e-01</leafValues></_>
        <_>
          <internalNodes>
            0 -1 388 4.3435590341687202e-03</internalNodes>
          <leafValues>
            -1.0026790946722031e-01 6.3235825300216675e-01</leafValues></_>
        <_>
          <internalNodes>
            0 -1 85 1.3032279908657074e-02</internalNodes>
          <leafValues>
            1.5949930250644684e-01 -7.2875964641571045e-01</leafValues></_>
        <_>
          <internalNodes>
            0 -1 92 5.7196188718080521e-03</internalNodes>
          <leafValues>
            -1.8633612990379333e-01 5.1249116659164429e-01</leafValues></_>
        <_>
          <internalNodes>
            0 -1 216 -1.4032096369192004e-03</internalNodes>
          <leafValues>
            5.1860755681991577e-01 -1.1906379461288452e-01</leafValues></_>
        <_>
          <internalNodes>
            0 -1 63 -3.5344583448022604e-03</internalNodes>
          <leafValues>
            4.5746418833732605e-01 -1.0142406076192856e-01</leafValues></_>
        <_>
          <internalNodes>
            0 -1 245 3.7172387819737196e-03</internalNodes>
          <leafValues>
            -1.4323960244655609e-01 4.2517095804214478e-01</leafValues></_>
        <_>
          <internalNodes>
            0 -1 141 -1.2597986496984959e-03</internalNodes>
          <leafValues>
            5.9899628162384033e-01 -1.1080466210842133e-01</leafValues></_>
        <_>
          <internalNodes>
            0 -1 95 -8.0645605921745300e-02</internalNodes>
          <leafValues>
            -5.9391289949417114e-01 1.0692827403545380e-01</leafValues></_>
        <_>
          <internalNodes>
            0 -1 73 2.5970321148633957e-02</internalNodes>
          <leafValues>
            -1.1141815781593323e-01 5.1561701297760010e-01</leafValues></_>
        <_>
          <internalNodes>
            0 -1 183 -3.8921199738979340e-03</internalNodes>
          <leafValues>
            3.5960188508033752e-01 -1.6317078471183777e-01</leafValues></_></weakClassifiers></_>
    <!-- stage 12 -->
    <_>
      <maxWeakCount>25</maxWeakCount>
      <stageThreshold>-1.3124998807907104e+00</stageThreshold>
      <weakClassifiers>
        <_>
          <internalNodes>
            0 -1 124 2.4995086714625359e-03</internalNodes>
          <leafValues>
            -1.4065180718898773e-01 -7.4479168653488159e-01</leafValues></_>
        <_>
          <internalNodes>
            0 -1 250 -3.4275470534339547e-04</internalNodes>
          <leafValues>
            -4.7060117125511169e-01 1.1410042643547058e-01</leafValues></_>
        <_>
          <internalNodes>
            0 -1 118 -3.4736342728137970e-02</internalNodes>
          <leafValues>
            2.9655307531356812e-01 -2.4237734079360962e-01</leafValues></_>
        <_>
          <internalNodes>
            0 -1 109 3.2514198683202267e-03</internalNodes>
          <leafValues>
            1.0107924044132233e-01 -6.1870092153549194e-01</leafValues></_>
        <_>
          <internalNodes>
            0 -1 394 -7.2269042721018195e-04</internalNodes>
          <leafValues>
            -3.9040148258209229e-01 1.3525573909282684e-01</leafValues></_>
        <_>
          <internalNodes>
            0 -1 24 -5.4647438228130341e-02</internalNodes>
          <leafValues>
            -7.4811226129531860e-01 7.2490714490413666e-02</leafValues></_>
        <_>
          <internalNodes>
            0 -1 401 -3.2372842542827129e-04</internalNodes>
          <leafValues>
            -3.4984144568443298e-01 1.2836061418056488e-01</leafValues></_>
        <_>
          <internalNodes>
            0 -1 402 -2.2870504471939057e-04</internalNodes>
          <leafValues>
            -3.3954203128814697e-01 1.6661830246448517e-01</leafValues></_>
        <_>
          <internalNodes>
            0 -1 125 -9.7702140919864178e-04</internalNodes>
          <leafValues>
            3.2139959931373596e-01 -1.5862551331520081e-01</leafValues></_>
        <_>
          <internalNodes>
            0 -1 380 -3.5027761477977037e-03</internalNodes>
          <leafValues>
            5.3760671615600586e-01 -8.8942013680934906e-02</leafValues></_>
        <_>
          <internalNodes>
            0 -1 132 -3.0628913082182407e-03</internalNodes>
          <leafValues>
            -5.1432800292968750e-01 9.3314476311206818e-02</leafValues></_>
        <_>
          <internalNodes>
            0 -1 130 2.2852986585348845e-03</internalNodes>
          <leafValues>
            1.0915873199701309e-01 -5.0296723842620850e-01</leafValues></_>
        <_>
          <internalNodes>
            0 -1 375 6.7647877149283886e-03</internalNodes>
          <leafValues>
            -1.0768750309944153e-01 5.5635380744934082e-01</leafValues></_>
        <_>
          <internalNodes>
            0 -1 334 -3.7445593625307083e-03</internalNodes>
          <leafValues>
            -5.2001011371612549e-01 1.1039463430643082e-01</leafValues></_>
        <_>
          <internalNodes>
            0 -1 349 2.6990056503564119e-03</internalNodes>
          <leafValues>
            9.9689155817031860e-02 -4.6728882193565369e-01</leafValues></_>
        <_>
          <internalNodes>
            0 -1 89 -4.9158418551087379e-04</internalNodes>
          <leafValues>
            -4.1737696528434753e-01 1.0514800250530243e-01</leafValues></_>
        <_>
          <internalNodes>
            0 -1 53 2.1669075358659029e-03</internalNodes>
          <leafValues>
            1.1404530704021454e-01 -5.9731888771057129e-01</leafValues></_>
        <_>
          <internalNodes>
            0 -1 338 -1.7062027007341385e-02</internalNodes>
          <leafValues>
            3.2030922174453735e-01 -1.6471736133098602e-01</leafValues></_>
        <_>
          <internalNodes>
            0 -1 188 -3.0351642519235611e-02</internalNodes>
          <leafValues>
            3.5421222448348999e-01 -1.6294230520725250e-01</leafValues></_>
        <_>
          <internalNodes>
            0 -1 64 -7.8055383637547493e-03</internalNodes>
          <leafValues>
            5.1289427280426025e-01 -8.7702907621860504e-02</leafValues></_>
        <_>
          <internalNodes>
            0 -1 40 -9.8275952041149139e-03</internalNodes>
          <leafValues>
            -6.6535216569900513e-01 6.7874982953071594e-02</leafValues></_>
        <_>
          <internalNodes>
            0 -1 55 2.6024142280220985e-02</internalNodes>
          <leafValues>
            -1.7215360701084137e-01 2.6483875513076782e-01</leafValues></_>
        <_>
          <internalNodes>
            0 -1 363 -2.4709468707442284e-03</internalNodes>
          <leafValues>
            -5.6223213672637939e-01 8.6158536374568939e-02</leafValues></_>
        <_>
          <internalNodes>
            0 -1 241 -5.8236625045537949e-03</internalNodes>
          <leafValues>
            4.7523948550224304e-01 -1.0371777415275574e-01</leafValues></_>
        <_>
          <internalNodes>
            0 -1 161 -6.2562809325754642e-03</internalNodes>
          <leafValues>
            4.2261946201324463e-01 -1.0159905254840851e-01</leafValues></_></weakClassifiers></_>
    <!-- stage 13 -->
    <_>
      <maxWeakCount>23</maxWeakCount>
      <stageThreshold>-1.2691922187805176e+00</stageThreshold>
      <weakClassifiers>
        <_>
          <internalNodes>
            0 -1 253 6.0051577165722847e-03</internalNodes>
          <leafValues>
            -4.0947940945625305e-01 2.9277566075325012e-01</leafValues></_>
        <_>
          <internalNodes>
            0 -1 158 2.4910852313041687e-02</internalNodes>
          <leafValues>
            8.2276813685894012e-02 -6.9402629137039185e-01</leafValues></_>
        <_>
          <internalNodes>
            0 -1 117 -3.4410362131893635e-03</internalNodes>
          <leafValues>
            6.7063713073730469e-01 -6.2122333794832230e-02</leafValues></_>
        <_>
          <internalNodes>
            0 -1 196 5.0422479398548603e-03</internalNodes>
          <leafValues>
            1.4063279330730438e-01 -4.6320378780364990e-01</leafValues></_>
        <_>
          <internalNodes>
            0 -1 180 -4.7086309641599655e-03</internalNodes>
          <leafValues>
            -4.5998111367225647e-01 1.2785373628139496e-01</leafValues></_>
        <_>
          <internalNodes>
            0 -1 327 2.0785192027688026e-03</internalNodes>
          <leafValues>
            -1.1412909626960754e-01 6.8590158224105835e-01</leafValues></_>
        <_>
          <internalNodes>
            0 -1 376 -4.6610999852418900e-03</internalNodes>
          <leafValues>
            5.1828086376190186e-01 -1.1450083553791046e-01</leafValues></_>
        <_>
          <internalNodes>
            0 -1 178 -7.4021071195602417e-02</internalNodes>
          <leafValues>
            3.5686033964157104e-01 -1.5778516232967377e-01</leafValues></_>
        <_>
          <internalNodes>
            0 -1 207 4.2857835069298744e-03</internalNodes>
          <leafValues>
            -1.4405515789985657e-01 4.6637713909149170e-01</leafValues></_>
        <_>
          <internalNodes>
            0 -1 375 6.3542565330862999e-03</internalNodes>
          <leafValues>
            -1.0656924545764923e-01 5.6332576274871826e-01</leafValues></_>
        <_>
          <internalNodes>
            0 -1 392 1.9105924002360553e-04</internalNodes>
          <leafValues>
            1.5748590230941772e-01 -3.7347847223281860e-01</leafValues></_>
        <_>
          <internalNodes>
            0 -1 391 -3.4610231523402035e-04</internalNodes>
          <leafValues>
            -3.3138692378997803e-01 2.0163963735103607e-01</leafValues></_>
        <_>
          <internalNodes>
            0 -1 285 1.2010563164949417e-02</internalNodes>
          <leafValues>
            8.7580844759941101e-02 -6.0620039701461792e-01</leafValues></_>
        <_>
          <internalNodes>
            0 -1 294 -1.0140583617612720e-03</internalNodes>
          <leafValues>
            5.4858249425888062e-01 -1.1147270351648331e-01</leafValues></_>
        <_>
          <internalNodes>
            0 -1 190 -3.7137195467948914e-02</internalNodes>
          <leafValues>
            -8.5033023357391357e-01 8.0784417688846588e-02</leafValues></_>
        <_>
          <internalNodes>
            0 -1 316 1.3802591711282730e-03</internalNodes>
          <leafValues>
            -1.0426315665245056e-01 6.2187004089355469e-01</leafValues></_>
        <_>
          <internalNodes>
            0 -1 59 -3.7338750553317368e-04</internalNodes>
          <leafValues>
            -2.8951039910316467e-01 2.0762321352958679e-01</leafValues></_>
        <_>
          <internalNodes>
            0 -1 232 -5.3092865273356438e-03</internalNodes>
          <leafValues>
            7.3002552986145020e-01 -9.0860530734062195e-02</leafValues></_>
        <_>
          <internalNodes>
            0 -1 398 -2.1438268595375121e-04</internalNodes>
          <leafValues>
            -3.1668975949287415e-01 1.8833321332931519e-01</leafValues></_>
        <_>
          <internalNodes>
            0 -1 287 4.2922059074044228e-03</internalNodes>
          <leafValues>
            -8.2644045352935791e-02 6.4166921377182007e-01</leafValues></_>
        <_>
          <internalNodes>
            0 -1 198 8.2929665222764015e-04</internalNodes>
          <leafValues>
            -1.4439792931079865e-01 3.7498098611831665e-01</leafValues></_>
        <_>
          <internalNodes>
            0 -1 230 -1.0653787758201361e-03</internalNodes>
          <leafValues>
            3.3151775598526001e-01 -1.6335457563400269e-01</leafValues></_>
        <_>
          <internalNodes>
            0 -1 220 7.7900178730487823e-03</internalNodes>
          <leafValues>
            -1.1555101722478867e-01 5.3101974725723267e-01</leafValues></_></weakClassifiers></_>
    <!-- stage 14 -->
    <_>
      <maxWeakCount>24</maxWeakCount>
      <stageThreshold>-1.1637414693832397e+00</stageThreshold>
      <weakClassifiers>
        <_>
          <internalNodes>
            0 -1 329 1.6640333458781242e-02</internalNodes>
          <leafValues>
            -3.8284066319465637e-01 4.9693250656127930e-01</leafValues></_>
        <_>
          <internalNodes>
            0 -1 265 -3.5651035606861115e-02</internalNodes>
          <leafValues>
            4.2658954858779907e-01 -1.5951532125473022e-01</leafValues></_>
        <_>
          <internalNodes>
            0 -1 37 -1.5229675173759460e-01</internalNodes>
          <leafValues>
            -7.4364775419235229e-01 7.4040740728378296e-02</leafValues></_>
        <_>
          <internalNodes>
            0 -1 139 -5.3259721025824547e-03</internalNodes>
          <leafValues>
            4.0531480312347412e-01 -1.5323436260223389e-01</leafValues></_>
        <_>
          <internalNodes>
            0 -1 143 -1.7828792333602905e-03</internalNodes>
          <leafValues>
            4.6804031729698181e-01 -1.4188368618488312e-01</leafValues></_>
        <_>
          <internalNodes>
            0 -1 240 -1.0773965623229742e-03</internalNodes>
          <leafValues>
            4.9567183852195740e-01 -1.1625805497169495e-01</leafValues></_>
        <_>
          <internalNodes>
            0 -1 291 9.0709570795297623e-03</internalNodes>
          <leafValues>
            -9.9049240350723267e-02 5.1660126447677612e-01</leafValues></_>
        <_>
          <internalNodes>
            0 -1 309 -2.3923404514789581e-03</internalNodes>
          <leafValues>
            3.2511591911315918e-01 -1.8669830262660980e-01</leafValues></_>
        <_>
          <internalNodes>
            0 -1 3 2.4195872247219086e-02</internalNodes>
          <leafValues>
            -2.0018284022808075e-01 2.6321259140968323e-01</leafValues></_>
        <_>
          <internalNodes>
            0 -1 78 -9.8429678473621607e-04</internalNodes>
          <leafValues>
            3.5324144363403320e-01 -1.5098075568675995e-01</leafValues></_>
        <_>
          <internalNodes>
            0 -1 323 -6.5536895999684930e-04</internalNodes>
          <leafValues>
            3.4744358062744141e-01 -1.3891059160232544e-01</leafValues></_>
        <_>
          <internalNodes>
            0 -1 259 2.3567028343677521e-02</internalNodes>
          <leafValues>
            9.4687916338443756e-02 -4.6579813957214355e-01</leafValues></_>
        <_>
          <internalNodes>
            0 -1 322 -1.6222187550738454e-03</internalNodes>
          <leafValues>
            2.9409080743789673e-01 -1.6030038893222809e-01</leafValues></_>
        <_>
          <internalNodes>
            0 -1 239 1.0079452767968178e-02</internalNodes>
          <leafValues>
            6.6154353320598602e-02 -7.9559755325317383e-01</leafValues></_>
        <_>
          <internalNodes>
            0 -1 9 1.5498431399464607e-02</internalNodes>
          <leafValues>
            8.9620947837829590e-02 -4.8867169022560120e-01</leafValues></_>
        <_>
          <internalNodes>
            0 -1 244 2.4051929358392954e-03</internalNodes>
          <leafValues>
            -1.5524925291538239e-01 3.0772030353546143e-01</leafValues></_>
        <_>
          <internalNodes>
            0 -1 71 2.6754062622785568e-02</internalNodes>
          <leafValues>
            6.5444283187389374e-02 -7.4332696199417114e-01</leafValues></_>
        <_>
          <internalNodes>
            0 -1 243 -4.0112324059009552e-03</internalNodes>
          <leafValues>
            5.1078438758850098e-01 -1.1287429928779602e-01</leafValues></_>
        <_>
          <internalNodes>
            0 -1 343 -1.2241119984537363e-03</internalNodes>
          <leafValues>
            6.7115968465805054e-01 -7.4053406715393066e-02</leafValues></_>
        <_>
          <internalNodes>
            0 -1 351 3.4878402948379517e-03</internalNodes>
          <leafValues>
            1.0213237255811691e-01 -5.0758486986160278e-01</leafValues></_>
        <_>
          <internalNodes>
            0 -1 292 7.8720841556787491e-03</internalNodes>
          <leafValues>
            4.8199076205492020e-02 -8.6602681875228882e-01</leafValues></_>
        <_>
          <internalNodes>
            0 -1 289 -8.3142274525016546e-04</internalNodes>
          <leafValues>
            3.6661234498023987e-01 -1.4196535944938660e-01</leafValues></_>
        <_>
          <internalNodes>
            0 -1 266 9.6106616547331214e-04</internalNodes>
          <leafValues>
            -8.0469973385334015e-02 5.0814175605773926e-01</leafValues></_>
        <_>
          <internalNodes>
            0 -1 246 -3.1536407768726349e-02</internalNodes>
          <leafValues>
            3.8338461518287659e-01 -1.1658482998609543e-01</leafValues></_></weakClassifiers></_>
    <!-- stage 15 -->
    <_>
      <maxWeakCount>22</maxWeakCount>
      <stageThreshold>-1.0620275735855103e+00</stageThreshold>
      <weakClassifiers>
        <_>
          <internalNodes>
            0 -1 116 -3.1687028706073761e-02</internalNodes>
          <leafValues>
            7.5376883149147034e-02 -5.1941239833831787e-01</leafValues></_>
        <_>
          <internalNodes>
            0 -1 155 1.7412779925507493e-05</internalNodes>
          <leafValues>
            -2.5170144438743591e-01 1.9448062777519226e-01</leafValues></_>
        <_>
          <internalNodes>
            0 -1 111 2.8197783976793289e-03</internalNodes>
          <leafValues>
            7.8758649528026581e-02 -6.6676807403564453e-01</leafValues></_>
        <_>
          <internalNodes>
            0 -1 134 2.7129286536364816e-05</internalNodes>
          <leafValues>
            -1.7023438215255737e-01 2.8976452350616455e-01</leafValues></_>
        <_>
          <internalNodes>
            0 -1 151 3.0445411539403722e-05</internalNodes>
          <leafValues>
            -2.5318270921707153e-01 1.8362519145011902e-01</leafValues></_>
        <_>
          <internalNodes>
            0 -1 148 -3.1262356787919998e-03</internalNodes>
          <leafValues>
            -6.1241543292999268e-01 1.2988150119781494e-01</leafValues></_>
        <_>
          <internalNodes>
            0 -1 166 -9.6641968411859125e-05</internalNodes>
          <leafValues>
            2.0132675766944885e-01 -2.4404147267341614e-01</leafValues></_>
        <_>
          <internalNodes>
            0 -1 138 2.0137295126914978e-02</internalNodes>
          <leafValues>
            -1.1310974508523941e-01 4.2608883976936340e-01</leafValues></_>
        <_>
          <internalNodes>
            0 -1 257 2.2546313703060150e-02</internalNodes>
          <leafValues>
            -5.6109614670276642e-02 6.8722248077392578e-01</leafValues></_>
        <_>
          <internalNodes>
            0 -1 282 -4.3119906331412494e-04</internalNodes>
          <leafValues>
            2.7830937504768372e-01 -1.6450007259845734e-01</leafValues></_>
        <_>
          <internalNodes>
            0 -1 164 -3.2857008278369904e-02</internalNodes>
          <leafValues>
            -6.2328773736953735e-01 6.6679686307907104e-02</leafValues></_>
        <_>
          <internalNodes>
            0 -1 288 -1.1837566853500903e-04</internalNodes>
          <leafValues>
            2.0067571103572845e-01 -2.1212643384933472e-01</leafValues></_>
        <_>
          <internalNodes>
            0 -1 189 -6.6932741901837289e-05</internalNodes>
          <leafValues>
            2.3431538045406342e-01 -1.9892950356006622e-01</leafValues></_>
        <_>
          <internalNodes>
            0 -1 94 5.5467709898948669e-03</internalNodes>
          <leafValues>
            -1.2923775613307953e-01 3.6913904547691345e-01</leafValues></_>
        <_>
          <internalNodes>
            0 -1 80 9.6670398488640785e-03</internalNodes>
          <leafValues>
            -1.5947727859020233e-01 2.6614156365394592e-01</leafValues></_>
        <_>
          <internalNodes>
            0 -1 136 1.2088540643162560e-05</internalNodes>
          <leafValues>
            -1.8624977767467499e-01 2.3079331219196320e-01</leafValues></_>
        <_>
          <internalNodes>
            0 -1 248 -1.3238491956144571e-03</internalNodes>
          <leafValues>
            2.7060830593109131e-01 -1.6800425946712494e-01</leafValues></_>
        <_>
          <internalNodes>
            0 -1 320 1.9105311483144760e-02</internalNodes>
          <leafValues>
            6.6262915730476379e-02 -6.8472278118133545e-01</leafValues></_>
        <_>
          <internalNodes>
            0 -1 359 4.1955281049013138e-02</internalNodes>
          <leafValues>
            -9.7566083073616028e-02 5.1662093400955200e-01</leafValues></_>
        <_>
          <internalNodes>
            0 -1 283 -1.9879042520187795e-04</internalNodes>
          <leafValues>
            2.8781867027282715e-01 -1.4873258769512177e-01</leafValues></_>
        <_>
          <internalNodes>
            0 -1 127 3.5347267985343933e-03</internalNodes>
          <leafValues>
            5.0997346639633179e-02 -8.7159866094589233e-01</leafValues></_>
        <_>
          <internalNodes>
            0 -1 390 -3.9507821202278137e-04</internalNodes>
          <leafValues>
            -3.5004693269729614e-01 1.0738641023635864e-01</leafValues></_></weakClassifiers></_>
    <!-- stage 16 -->
    <_>
      <maxWeakCount>29</maxWeakCount>
      <stageThreshold>-9.7594898939132690e-01</stageThreshold>
      <weakClassifiers>
        <_>
          <internalNodes>
            0 -1 82 -8.3959870971739292e-04</internalNodes>
          <leafValues>
            -1.1882229149341583e-01 -5.6260436773300171e-01</leafValues></_>
        <_>
          <internalNodes>
            0 -1 45 3.4663064870983362e-03</internalNodes>
          <leafValues>
            -8.8336996734142303e-02 6.3322615623474121e-01</leafValues></_>
        <_>
          <internalNodes>
            0 -1 66 2.8615351766347885e-03</internalNodes>
          <leafValues>
            -1.5017740428447723e-01 2.7513608336448669e-01</leafValues></_>
        <_>
          <internalNodes>
            0 -1 121 -1.5038206474855542e-03</internalNodes>
          <leafValues>
            2.6978760957717896e-01 -1.6471213102340698e-01</leafValues></_>
        <_>
          <internalNodes>
            0 -1 221 1.1033239774405956e-02</internalNodes>
          <leafValues>
            -1.3080286979675293e-01 3.1150606274604797e-01</leafValues></_>
        <_>
          <internalNodes>
            0 -1 226 1.3219130050856620e-04</internalNodes>
          <leafValues>
            -1.7987987399101257e-01 2.4991799890995026e-01</leafValues></_>
        <_>
          <internalNodes>
            0 -1 317 -6.2102347612380981e-02</internalNodes>
          <leafValues>
            2.8845804929733276e-01 -1.5933902561664581e-01</leafValues></_>
        <_>
          <internalNodes>
            0 -1 39 -7.8201308846473694e-02</internalNodes>
          <leafValues>
            -4.0932917594909668e-01 1.1234498769044876e-01</leafValues></_>
        <_>
          <internalNodes>
            0 -1 222 2.3783680051565170e-02</internalNodes>
          <leafValues>
            9.4332076609134674e-02 -5.4496103525161743e-01</leafValues></_>
        <_>
          <internalNodes>
            0 -1 286 -1.7324934015050530e-04</internalNodes>
          <leafValues>
            2.6410853862762451e-01 -1.6803498566150665e-01</leafValues></_>
        <_>
          <internalNodes>
            0 -1 271 2.0379386842250824e-03</internalNodes>
          <leafValues>
            -1.7310906946659088e-01 3.1945335865020752e-01</leafValues></_>
        <_>
          <internalNodes>
            0 -1 6 -8.5308129200711846e-04</internalNodes>
          <leafValues>
            -3.5871100425720215e-01 1.2253162264823914e-01</leafValues></_>
        <_>
          <internalNodes>
            0 -1 324 8.3081573247909546e-03</internalNodes>
          <leafValues>
            5.1598735153675079e-02 -6.4503872394561768e-01</leafValues></_>
        <_>
          <internalNodes>
            0 -1 15 -7.1305997669696808e-02</internalNodes>
          <leafValues>
            -6.3743662834167480e-01 5.9876792132854462e-02</leafValues></_>
        <_>
          <internalNodes>
            0 -1 252 2.4172079283744097e-03</internalNodes>
          <leafValues>
            -9.2558719217777252e-02 5.0971561670303345e-01</leafValues></_>
        <_>
          <internalNodes>
            0 -1 297 -3.9033605717122555e-03</internalNodes>
          <leafValues>
            -4.3174517154693604e-01 9.8308704793453217e-02</leafValues></_>
        <_>
          <internalNodes>
            0 -1 251 -1.4550392515957355e-03</internalNodes>
          <leafValues>
            -4.0215086936950684e-01 1.2496385723352432e-01</leafValues></_>
        <_>
          <internalNodes>
            0 -1 395 3.3833459019660950e-03</internalNodes>
          <leafValues>
            -1.4116227626800537e-01 3.1784439086914062e-01</leafValues></_>
        <_>
          <internalNodes>
            0 -1 396 -1.4192374423146248e-02</internalNodes>
          <leafValues>
            5.6294590234756470e-01 -7.1543782949447632e-02</leafValues></_>
        <_>
          <internalNodes>
            0 -1 87 -1.0755095863714814e-03</internalNodes>
          <leafValues>
            -4.5471045374870300e-01 8.6906686425209045e-02</leafValues></_>
        <_>
          <internalNodes>
            0 -1 28 4.3153497390449047e-03</internalNodes>
          <leafValues>
            -7.4118398129940033e-02 6.2399542331695557e-01</leafValues></_>
        <_>
          <internalNodes>
            0 -1 290 9.0458249906077981e-04</internalNodes>
          <leafValues>
            -1.6303168237209320e-01 2.5588926672935486e-01</leafValues></_>
        <_>
          <internalNodes>
            0 -1 32 -5.4102647118270397e-04</internalNodes>
          <leafValues>
            -2.8580287098884583e-01 1.6361942887306213e-01</leafValues></_>
        <_>
          <internalNodes>
            0 -1 61 -1.2425817549228668e-01</internalNodes>
          <leafValues>
            -6.9489818811416626e-01 6.1508692800998688e-02</leafValues></_>
        <_>
          <internalNodes>
            0 -1 104 1.6560241419938393e-05</internalNodes>
          <leafValues>
            -2.1900449693202972e-01 1.8281348049640656e-01</leafValues></_>
        <_>
          <internalNodes>
            0 -1 240 1.2686995323747396e-03</internalNodes>
          <leafValues>
            -7.5454376637935638e-02 5.5566620826721191e-01</leafValues></_>
        <_>
          <internalNodes>
            0 -1 10 -4.5572564005851746e-02</internalNodes>
          <leafValues>
            4.8556149005889893e-01 -8.6142010986804962e-02</leafValues></_>
        <_>
          <internalNodes>
            0 -1 403 6.1806188896298409e-03</internalNodes>
          <leafValues>
            1.2282091379165649e-01 -3.5796070098876953e-01</leafValues></_>
        <_>
          <internalNodes>
            0 -1 308 -1.1178245767951012e-03</internalNodes>
          <leafValues>
            4.3635523319244385e-01 -9.3730039894580841e-02</leafValues></_></weakClassifiers></_>
    <!-- stage 17 -->
    <_>
      <maxWeakCount>28</maxWeakCount>
      <stageThreshold>-1.1498345136642456e+00</stageThreshold>
      <weakClassifiers>
        <_>
          <internalNodes>
            0 -1 25 1.6624204814434052e-02</internalNodes>
          <leafValues>
            -4.0814629197120667e-01 1.1815562099218369e-01</leafValues></_>
        <_>
          <internalNodes>
            0 -1 76 5.9009841643273830e-03</internalNodes>
          <leafValues>
            1.0101011395454407e-01 -4.0840324759483337e-01</leafValues></_>
        <_>
          <internalNodes>
            0 -1 277 -1.0325189214199781e-03</internalNodes>
          <leafValues>
            4.8702150583267212e-01 -9.7624152898788452e-02</leafValues></_>
        <_>
          <internalNodes>
            0 -1 41 -2.2034975700080395e-03</internalNodes>
          <leafValues>
            3.5615506768226624e-01 -9.9690318107604980e-02</leafValues></_>
        <_>
          <internalNodes>
            0 -1 1 1.5738864894956350e-03</internalNodes>
          <leafValues>
            8.9994132518768311e-02 -4.4223645329475403e-01</leafValues></_>
        <_>
          <internalNodes>
            0 -1 35 -2.1121773170307279e-04</internalNodes>
          <leafValues>
            -3.0744183063507080e-01 1.6169677674770355e-01</leafValues></_>
        <_>
          <internalNodes>
            0 -1 65 -3.9059524424374104e-03</internalNodes>
          <leafValues>
            3.6366900801658630e-01 -1.2068485468626022e-01</leafValues></_>
        <_>
          <internalNodes>
            0 -1 213 -1.4888725709170103e-03</internalNodes>
          <leafValues>
            4.6947169303894043e-01 -5.3867176175117493e-02</leafValues></_>
        <_>
          <internalNodes>
            0 -1 212 -1.5647821128368378e-03</internalNodes>
          <leafValues>
            4.7318533062934875e-01 -8.7475694715976715e-02</leafValues></_>
        <_>
          <internalNodes>
            0 -1 321 -2.2779695689678192e-02</internalNodes>
          <leafValues>
            2.2944039106369019e-01 -1.8674328923225403e-01</leafValues></_>
        <_>
          <internalNodes>
            0 -1 378 6.7766681313514709e-03</internalNodes>
          <leafValues>
            -7.6656728982925415e-02 5.2414125204086304e-01</leafValues></_>
        <_>
          <internalNodes>
            0 -1 293 4.7393218846991658e-04</internalNodes>
          <leafValues>
            -1.5628889203071594e-01 2.4614898860454559e-01</leafValues></_>
        <_>
          <internalNodes>
            0 -1 131 -1.4088342431932688e-03</internalNodes>
          <leafValues>
            -3.8522884249687195e-01 1.0096809267997742e-01</leafValues></_>
        <_>
          <internalNodes>
            0 -1 267 4.8771109431982040e-03</internalNodes>
          <leafValues>
            -8.2837283611297607e-02 5.2971708774566650e-01</leafValues></_>
        <_>
          <internalNodes>
            0 -1 385 -2.8840012964792550e-04</internalNodes>
          <leafValues>
            -2.8731265664100647e-01 1.4201529324054718e-01</leafValues></_>
        <_>
          <internalNodes>
            0 -1 284 1.9590813666582108e-02</internalNodes>
          <leafValues>
            4.4354476034641266e-02 -8.3063048124313354e-01</leafValues></_>
        <_>
          <internalNodes>
            0 -1 326 6.8687479943037033e-03</internalNodes>
          <leafValues>
            3.2431725412607193e-02 -7.7450788021087646e-01</leafValues></_>
        <_>
          <internalNodes>
            0 -1 318 -2.6000034995377064e-03</internalNodes>
          <leafValues>
            5.1001018285751343e-01 -9.9608197808265686e-02</leafValues></_>
        <_>
          <internalNodes>
            0 -1 52 -1.0768509237095714e-03</internalNodes>
          <leafValues>
            -4.1401684284210205e-01 1.0876332223415375e-01</leafValues></_>
        <_>
          <internalNodes>
            0 -1 372 -1.1566603556275368e-02</internalNodes>
          <leafValues>
            6.3545680046081543e-01 -7.5861424207687378e-02</leafValues></_>
        <_>
          <internalNodes>
            0 -1 342 -1.4896412722009700e-05</internalNodes>
          <leafValues>
            2.3297369480133057e-01 -1.9177804887294769e-01</leafValues></_>
        <_>
          <internalNodes>
            0 -1 278 1.6729274066165090e-03</internalNodes>
          <leafValues>
            -1.4719101786613464e-01 2.9653337597846985e-01</leafValues></_>
        <_>
          <internalNodes>
            0 -1 281 -7.5225369073450565e-04</internalNodes>
          <leafValues>
            2.4043403565883636e-01 -1.5783661603927612e-01</leafValues></_>
        <_>
          <internalNodes>
            0 -1 215 4.2419517412781715e-03</internalNodes>
          <leafValues>
            -8.5202626883983612e-02 5.1721847057342529e-01</leafValues></_>
        <_>
          <internalNodes>
            0 -1 34 4.7128304140642285e-04</internalNodes>
          <leafValues>
            1.3167199492454529e-01 -3.1762403249740601e-01</leafValues></_>
        <_>
          <internalNodes>
            0 -1 182 -1.2486318126320839e-02</internalNodes>
          <leafValues>
            -7.3290300369262695e-01 4.8509951680898666e-02</leafValues></_>
        <_>
          <internalNodes>
            0 -1 233 -4.8073153942823410e-02</internalNodes>
          <leafValues>
            -8.8452315330505371e-01 3.5364855080842972e-02</leafValues></_>
        <_>
          <internalNodes>
            0 -1 313 3.4515179693698883e-02</internalNodes>
          <leafValues>
            3.3330261707305908e-02 -8.1828105449676514e-01</leafValues></_></weakClassifiers></_>
    <!-- stage 18 -->
    <_>
      <maxWeakCount>31</maxWeakCount>
      <stageThreshold>-1.1868906021118164e+00</stageThreshold>
      <weakClassifiers>
        <_>
          <internalNodes>
            0 -1 231 1.3711285591125488e-01</internalNodes>
          <leafValues>
            -3.4825176000595093e-01 4.0000000596046448e-01</leafValues></_>
        <_>
          <internalNodes>
            0 -1 142 -3.2235216349363327e-03</internalNodes>
          <leafValues>
            4.1271007061004639e-01 -1.5624003112316132e-01</leafValues></_>
        <_>
          <internalNodes>
            0 -1 195 -1.3922144426032901e-03</internalNodes>
          <leafValues>
            -3.0817908048629761e-01 1.6053394973278046e-01</leafValues></_>
        <_>
          <internalNodes>
            0 -1 14 3.3081024885177612e-02</internalNodes>
          <leafValues>
            -7.1451306343078613e-02 5.2595359086990356e-01</leafValues></_>
        <_>
          <internalNodes>
            0 -1 399 -1.7661382444202900e-03</internalNodes>
          <leafValues>
            -4.9018460512161255e-01 7.5693361461162567e-02</leafValues></_>
        <_>
          <internalNodes>
            0 -1 355 3.9344698190689087e-02</internalNodes>
          <leafValues>
            -4.1809905320405960e-02 5.2945715188980103e-01</leafValues></_>
        <_>
          <internalNodes>
            0 -1 237 5.3845401853322983e-02</internalNodes>
          <leafValues>
            -9.1092072427272797e-02 4.5279842615127563e-01</leafValues></_>
        <_>
          <internalNodes>
            0 -1 347 4.7052768059074879e-03</internalNodes>
          <leafValues>
            7.4063614010810852e-02 -5.8496195077896118e-01</leafValues></_>
        <_>
          <internalNodes>
            0 -1 300 4.6570567064918578e-05</internalNodes>
          <leafValues>
            -2.0928266644477844e-01 1.8713003396987915e-01</leafValues></_>
        <_>
          <internalNodes>
            0 -1 264 -5.8163958601653576e-04</internalNodes>
          <leafValues>
            2.8697279095649719e-01 -1.3037443161010742e-01</leafValues></_>
        <_>
          <internalNodes>
            0 -1 202 1.4193510636687279e-02</internalNodes>
          <leafValues>
            -4.8315525054931641e-02 6.8690091371536255e-01</leafValues></_>
        <_>
          <internalNodes>
            0 -1 254 -2.9290521051734686e-03</internalNodes>
          <leafValues>
            2.8087878227233887e-01 -1.3034151494503021e-01</leafValues></_>
        <_>
          <internalNodes>
            0 -1 382 -2.5264453142881393e-04</internalNodes>
          <leafValues>
            -2.4308232963085175e-01 1.5607224404811859e-01</leafValues></_>
        <_>
          <internalNodes>
            0 -1 145 1.4141609892249107e-02</internalNodes>
          <leafValues>
            8.2279577851295471e-02 -4.5560619235038757e-01</leafValues></_>
        <_>
          <internalNodes>
            0 -1 140 -3.0854353681206703e-02</internalNodes>
          <leafValues>
            -7.5745981931686401e-01 5.2207183092832565e-02</leafValues></_>
        <_>
          <internalNodes>
            0 -1 152 3.4972759895026684e-03</internalNodes>
          <leafValues>
            6.1126135289669037e-02 -5.1844388246536255e-01</leafValues></_>
        <_>
          <internalNodes>
            0 -1 344 -4.5396694913506508e-03</internalNodes>
          <leafValues>
            3.8842540979385376e-01 -1.0235634446144104e-01</leafValues></_>
        <_>
          <internalNodes>
            0 -1 397 -1.5420891344547272e-02</internalNodes>
          <leafValues>
            7.2566986083984375e-01 -5.6147180497646332e-02</leafValues></_>
        <_>
          <internalNodes>
            0 -1 353 1.4436234487220645e-03</internalNodes>
          <leafValues>
            9.2786282300949097e-02 -4.5621868968009949e-01</leafValues></_>
        <_>
          <internalNodes>
            0 -1 368 -2.2759644780308008e-03</internalNodes>
          <leafValues>
            -5.8089953660964966e-01 6.4329616725444794e-02</leafValues></_>
        <_>
          <internalNodes>
            0 -1 381 -5.2059199661016464e-03</internalNodes>
          <leafValues>
            5.1097303628921509e-01 -8.0413937568664551e-02</leafValues></_>
        <_>
          <internalNodes>
            0 -1 210 -1.3910077977925539e-03</internalNodes>
          <leafValues>
            -7.4663180112838745e-01 5.2971199154853821e-02</leafValues></_>
        <_>
          <internalNodes>
            0 -1 335 1.5707276179455221e-04</internalNodes>
          <leafValues>
            -2.0454309880733490e-01 1.7737592756748199e-01</leafValues></_>
        <_>
          <internalNodes>
            0 -1 315 -1.3839284889400005e-02</internalNodes>
          <leafValues>
            4.5373597741127014e-01 -1.0670808702707291e-01</leafValues></_>
        <_>
          <internalNodes>
            0 -1 370 2.4725424009375274e-04</internalNodes>
          <leafValues>
            1.5476115047931671e-01 -2.5457698106765747e-01</leafValues></_>
        <_>
          <internalNodes>
            0 -1 193 2.0884451805613935e-04</internalNodes>
          <leafValues>
            -1.8255488574504852e-01 1.9323787093162537e-01</leafValues></_>
        <_>
          <internalNodes>
            0 -1 170 -1.3339014258235693e-03</internalNodes>
          <leafValues>
            -4.7061121463775635e-01 8.5912123322486877e-02</leafValues></_>
        <_>
          <internalNodes>
            0 -1 41 -4.6014916151762009e-03</internalNodes>
          <leafValues>
            5.3246182203292847e-01 -7.0873662829399109e-02</leafValues></_>
        <_>
          <internalNodes>
            0 -1 77 1.6031373292207718e-02</internalNodes>
          <leafValues>
            4.9873176962137222e-02 -7.9299503564834595e-01</leafValues></_>
        <_>
          <internalNodes>
            0 -1 113 -6.7907589254900813e-04</internalNodes>
          <leafValues>
            -3.8331681489944458e-01 8.8249474763870239e-02</leafValues></_>
        <_>
          <internalNodes>
            0 -1 276 -1.5164783690124750e-03</internalNodes>
          <leafValues>
            3.3955103158950806e-01 -1.2158381938934326e-01</leafValues></_></weakClassifiers></_>
    <!-- stage 19 -->
    <_>
      <maxWeakCount>34</maxWeakCount>
      <stageThreshold>-1.1169226169586182e+00</stageThreshold>
      <weakClassifiers>
        <_>
          <internalNodes>
            0 -1 96 -2.8647746890783310e-02</internalNodes>
          <leafValues>
            -9.1863520443439484e-02 -4.8223349452018738e-01</leafValues></_>
        <_>
          <internalNodes>
            0 -1 102 -3.4736604429781437e-03</internalNodes>
          <leafValues>
            2.8606879711151123e-01 -1.4540621638298035e-01</leafValues></_>
        <_>
          <internalNodes>
            0 -1 91 8.0673575401306152e-02</internalNodes>
          <leafValues>
            -2.1222196519374847e-01 1.9145673513412476e-01</leafValues></_>
        <_>
          <internalNodes>
            0 -1 160 7.6200198382139206e-03</internalNodes>
          <leafValues>
            -9.1549053788185120e-02 4.2127096652984619e-01</leafValues></_>
        <_>
          <internalNodes>
            0 -1 256 3.2319359481334686e-02</internalNodes>
          <leafValues>
            -9.8005279898643494e-02 3.4568291902542114e-01</leafValues></_>
        <_>
          <internalNodes>
            0 -1 301 3.7886761128902435e-02</internalNodes>
          <leafValues>
            8.2730159163475037e-02 -6.9813644886016846e-01</leafValues></_>
        <_>
          <internalNodes>
            0 -1 101 1.1668953811749816e-03</internalNodes>
          <leafValues>
            -2.0502373576164246e-01 1.8002511560916901e-01</leafValues></_>
        <_>
          <internalNodes>
            0 -1 176 1.4404788089450449e-05</internalNodes>
          <leafValues>
            -1.9396978616714478e-01 1.8554310500621796e-01</leafValues></_>
        <_>
          <internalNodes>
            0 -1 20 -7.2289872914552689e-03</internalNodes>
          <leafValues>
            2.8238049149513245e-01 -1.3284817337989807e-01</leafValues></_>
        <_>
          <internalNodes>
            0 -1 404 5.7868869043886662e-04</internalNodes>
          <leafValues>
            1.0775031894445419e-01 -4.0496060252189636e-01</leafValues></_>
        <_>
          <internalNodes>
            0 -1 103 -3.6993180401623249e-03</internalNodes>
          <leafValues>
            2.0655938982963562e-01 -1.8062393367290497e-01</leafValues></_>
        <_>
          <internalNodes>
            0 -1 311 2.3926667927298695e-04</internalNodes>
          <leafValues>
            -1.6611441969871521e-01 2.2517952322959900e-01</leafValues></_>
        <_>
          <internalNodes>
            0 -1 105 -7.8222407028079033e-03</internalNodes>
          <leafValues>
            -6.7895936965942383e-01 3.8262426853179932e-02</leafValues></_>
        <_>
          <internalNodes>
            0 -1 167 2.4021755903959274e-02</internalNodes>
          <leafValues>
            5.5055268108844757e-02 -6.0605353116989136e-01</leafValues></_>
        <_>
          <internalNodes>
            0 -1 8 8.2518476992845535e-03</internalNodes>
          <leafValues>
            7.9394690692424774e-02 -4.3929263949394226e-01</leafValues></_>
        <_>
          <internalNodes>
            0 -1 156 -7.6852692291140556e-03</internalNodes>
          <leafValues>
            3.5541152954101562e-01 -1.0008243471384048e-01</leafValues></_>
        <_>
          <internalNodes>
            0 -1 7 -2.2182888351380825e-03</internalNodes>
          <leafValues>
            -2.9155355691909790e-01 1.1987473070621490e-01</leafValues></_>
        <_>
          <internalNodes>
            0 -1 112 2.4944725446403027e-03</internalNodes>
          <leafValues>
            -1.3876940310001373e-01 2.6176705956459045e-01</leafValues></_>
        <_>
          <internalNodes>
            0 -1 356 -4.7948369756340981e-03</internalNodes>
          <leafValues>
            2.0891359448432922e-01 -1.5674963593482971e-01</leafValues></_>
        <_>
          <internalNodes>
            0 -1 187 1.7381497309543192e-04</internalNodes>
          <leafValues>
            -1.7982676625251770e-01 1.8970462679862976e-01</leafValues></_>
        <_>
          <internalNodes>
            0 -1 365 5.6293487432412803e-05</internalNodes>
          <leafValues>
            -1.8017263710498810e-01 1.9250969588756561e-01</leafValues></_>
        <_>
          <internalNodes>
            0 -1 358 -1.0186230763792992e-02</internalNodes>
          <leafValues>
            3.1852391362190247e-01 -1.2914383411407471e-01</leafValues></_>
        <_>
          <internalNodes>
            0 -1 371 1.1076756753027439e-02</internalNodes>
          <leafValues>
            -6.7184843122959137e-02 5.1251828670501709e-01</leafValues></_>
        <_>
          <internalNodes>
            0 -1 11 -6.8515405058860779e-02</internalNodes>
          <leafValues>
            -6.4588111639022827e-01 6.1657369136810303e-02</leafValues></_>
        <_>
          <internalNodes>
            0 -1 260 2.2939784685149789e-04</internalNodes>
          <leafValues>
            -1.8360957503318787e-01 2.1014982461929321e-01</leafValues></_>
        <_>
          <internalNodes>
            0 -1 364 -1.4394917525351048e-03</internalNodes>
          <leafValues>
            -6.0916513204574585e-01 6.1394635587930679e-02</leafValues></_>
        <_>
          <internalNodes>
            0 -1 306 -9.6991204190999269e-04</internalNodes>
          <leafValues>
            -3.9093247056007385e-01 8.5581511259078979e-02</leafValues></_>
        <_>
          <internalNodes>
            0 -1 50 6.7786425352096558e-03</internalNodes>
          <leafValues>
            -1.2174509465694427e-01 2.9498171806335449e-01</leafValues></_>
        <_>
          <internalNodes>
            0 -1 225 -2.1452000364661217e-03</internalNodes>
          <leafValues>
            3.4502112865447998e-01 -1.0007420927286148e-01</leafValues></_>
        <_>
          <internalNodes>
            0 -1 149 5.9458303439896554e-05</internalNodes>
          <leafValues>
            -2.0171126723289490e-01 1.7616017162799835e-01</leafValues></_>
        <_>
          <internalNodes>
            0 -1 16 -1.3831765390932560e-02</internalNodes>
          <leafValues>
            -4.9932566285133362e-01 7.2023637592792511e-02</leafValues></_>
        <_>
          <internalNodes>
            0 -1 298 1.9341490697115660e-03</internalNodes>
          <leafValues>
            -9.7756408154964447e-02 3.7735158205032349e-01</leafValues></_>
        <_>
          <internalNodes>
            0 -1 224 -3.3590410021133721e-04</internalNodes>
          <leafValues>
            2.3218108713626862e-01 -1.5265777707099915e-01</leafValues></_>
        <_>
          <internalNodes>
            0 -1 150 1.3264504377730191e-04</internalNodes>
          <leafValues>
            -1.7060582339763641e-01 2.4325765669345856e-01</leafValues></_></weakClassifiers></_></stages>
  <features>
    <_>
      <rects>
        <_>
          0 0 1 2 -1.</_>
        <_>
          0 1 1 1 2.</_></rects>
      <tilted>0</tilted></_>
    <_>
      <rects>
        <_>
          0 0 4 1 -1.</_>
        <_>
          2 0 2 1 2.</_></rects>
      <tilted>0</tilted></_>
    <_>
      <rects>
        <_>
          0 0 6 1 -1.</_>
        <_>
          2 0 2 1 3.</_></rects>
      <tilted>0</tilted></_>
    <_>
      <rects>
        <_>
          0 0 6 15 -1.</_>
        <_>
          3 0 3 15 2.</_></rects>
      <tilted>0</tilted></_>
    <_>
      <rects>
        <_>
          0 0 21 9 -1.</_>
        <_>
          0 3 21 3 3.</_></rects>
      <tilted>0</tilted></_>
    <_>
      <rects>
        <_>
          0 0 24 16 -1.</_>
        <_>
          0 8 24 8 2.</_></rects>
      <tilted>0</tilted></_>
    <_>
      <rects>
        <_>
          0 1 3 2 -1.</_>
        <_>
          1 1 1 2 3.</_></rects>
      <tilted>0</tilted></_>
    <_>
      <rects>
        <_>
          0 1 6 2 -1.</_>
        <_>
          2 1 2 2 3.</_></rects>
      <tilted>0</tilted></_>
    <_>
      <rects>
        <_>
          0 2 1 12 -1.</_>
        <_>
          0 8 1 6 2.</_></rects>
      <tilted>0</tilted></_>
    <_>
      <rects>
        <_>
          0 5 1 18 -1.</_>
        <_>
          0 11 1 6 3.</_></rects>
      <tilted>0</tilted></_>
    <_>
      <rects>
        <_>
          0 5 9 15 -1.</_>
        <_>
          3 5 3 15 3.</_></rects>
      <tilted>0</tilted></_>
    <_>
      <rects>
        <_>
          0 5 14 4 -1.</_>
        <_>
          7 5 7 4 2.</_></rects>
      <tilted>0</tilted></_>
    <_>
      <rects>
        <_>
          0 6 6 10 -1.</_>
        <_>
          3 6 3 10 2.</_></rects>
      <tilted>0</tilted></_>
    <_>
      <rects>
        <_>
          0 6 6 14 -1.</_>
        <_>
          3 6 3 14 2.</_></rects>
      <tilted>0</tilted></_>
    <_>
      <rects>
        <_>
          0 7 9 2 -1.</_>
        <_>
          3 7 3 2 3.</_></rects>
      <tilted>0</tilted></_>
    <_>
      <rects>
        <_>
          0 7 20 8 -1.</_>
        <_>
          0 7 10 4 2.</_>
        <_>
          10 11 10 4 2.</_></rects>
      <tilted>0</tilted></_>
    <_>
      <rects>
        <_>
          0 8 2 9 -1.</_>
        <_>
          0 11 2 3 3.</_></rects>
      <tilted>0</tilted></_>
    <_>
      <rects>
        <_>
          0 8 4 8 -1.</_>
        <_>
          2 8 2 8 2.</_></rects>
      <tilted>0</tilted></_>
    <_>
      <rects>
        <_>
          0 8 4 10 -1.</_>
        <_>
          2 8 2 10 2.</_></rects>
      <tilted>0</tilted></_>
    <_>
      <rects>
        <_>
          0 8 9 6 -1.</_>
        <_>
          3 8 3 6 3.</_></rects>
      <tilted>0</tilted></_>
    <_>
      <rects>
        <_>
          0 9 6 7 -1.</_>
        <_>
          2 9 2 7 3.</_></rects>
      <tilted>0</tilted></_>
    <_>
      <rects>
        <_>
          0 9 6 8 -1.</_>
        <_>
          2 9 2 8 3.</_></rects>
      <tilted>0</tilted></_>
    <_>
      <rects>
        <_>
          0 9 6 10 -1.</_>
        <_>
          2 9 2 10 3.</_></rects>
      <tilted>0</tilted></_>
    <_>
      <rects>
        <_>
          0 11 12 10 -1.</_>
        <_>
          4 11 4 10 3.</_></rects>
      <tilted>0</tilted></_>
    <_>
      <rects>
        <_>
          0 11 16 3 -1.</_>
        <_>
          8 11 8 3 2.</_></rects>
      <tilted>0</tilted></_>
    <_>
      <rects>
        <_>
          0 12 4 4 -1.</_>
        <_>
          2 12 2 4 2.</_></rects>
      <tilted>0</tilted></_>
    <_>
      <rects>
        <_>
          0 13 6 2 -1.</_>
        <_>
          2 13 2 2 3.</_></rects>
      <tilted>0</tilted></_>
    <_>
      <rects>
        <_>
          0 13 10 3 -1.</_>
        <_>
          5 13 5 3 2.</_></rects>
      <tilted>0</tilted></_>
    <_>
      <rects>
        <_>
          0 14 3 2 -1.</_>
        <_>
          1 14 1 2 3.</_></rects>
      <tilted>0</tilted></_>
    <_>
      <rects>
        <_>
          0 14 3 8 -1.</_>
        <_>
          0 18 3 4 2.</_></rects>
      <tilted>0</tilted></_>
    <_>
      <rects>
        <_>
          0 14 22 10 -1.</_>
        <_>
          0 19 22 5 2.</_></rects>
      <tilted>0</tilted></_>
    <_>
      <rects>
        <_>
          0 15 8 1 -1.</_>
        <_>
          4 15 4 1 2.</_></rects>
      <tilted>0</tilted></_>
    <_>
      <rects>
        <_>
          0 19 3 5 -1.</_>
        <_>
          1 19 1 5 3.</_></rects>
      <tilted>0</tilted></_>
    <_>
      <rects>
        <_>
          0 21 3 2 -1.</_>
        <_>
          1 21 1 2 3.</_></rects>
      <tilted>0</tilted></_>
    <_>
      <rects>
        <_>
          0 22 2 2 -1.</_>
        <_>
          1 22 1 2 2.</_></rects>
      <tilted>0</tilted></_>
    <_>
      <rects>
        <_>
          1 0 2 1 -1.</_>
        <_>
          2 0 1 1 2.</_></rects>
      <tilted>0</tilted></_>
    <_>
      <rects>
        <_>
          1 0 6 2 -1.</_>
        <_>
          3 0 2 2 3.</_></rects>
      <tilted>0</tilted></_>
    <_>
      <rects>
        <_>
          1 2 14 15 -1.</_>
        <_>
          1 7 14 5 3.</_></rects>
      <tilted>0</tilted></_>
    <_>
      <rects>
        <_>
          1 8 12 10 -1.</_>
        <_>
          7 8 6 10 2.</_></rects>
      <tilted>0</tilted></_>
    <_>
      <rects>
        <_>
          1 8 22 6 -1.</_>
        <_>
          12 8 11 6 2.</_></rects>
      <tilted>0</tilted></_>
    <_>
      <rects>
        <_>
          1 9 4 4 -1.</_>
        <_>
          1 11 4 2 2.</_></rects>
      <tilted>0</tilted></_>
    <_>
      <rects>
        <_>
          1 10 3 2 -1.</_>
        <_>
          2 10 1 2 3.</_></rects>
      <tilted>0</tilted></_>
    <_>
      <rects>
        <_>
          1 10 6 1 -1.</_>
        <_>
          3 10 2 1 3.</_></rects>
      <tilted>0</tilted></_>
    <_>
      <rects>
        <_>
          1 10 6 2 -1.</_>
        <_>
          3 10 2 2 3.</_></rects>
      <tilted>0</tilted></_>
    <_>
      <rects>
        <_>
          1 10 8 5 -1.</_>
        <_>
          5 10 4 5 2.</_></rects>
      <tilted>0</tilted></_>
    <_>
      <rects>
        <_>
          1 11 3 1 -1.</_>
        <_>
          2 11 1 1 3.</_></rects>
      <tilted>0</tilted></_>
    <_>
      <rects>
        <_>
          1 11 6 8 -1.</_>
        <_>
          4 11 3 8 2.</_></rects>
      <tilted>0</tilted></_>
    <_>
      <rects>
        <_>
          1 12 6 2 -1.</_>
        <_>
          4 12 3 2 2.</_></rects>
      <tilted>0</tilted></_>
    <_>
      <rects>
        <_>
          1 14 21 10 -1.</_>
        <_>
          1 19 21 5 2.</_></rects>
      <tilted>0</tilted></_>
    <_>
      <rects>
        <_>
          1 14 22 10 -1.</_>
        <_>
          1 19 22 5 2.</_></rects>
      <tilted>0</tilted></_>
    <_>
      <rects>
        <_>
          1 17 8 6 -1.</_>
        <_>
          1 17 4 3 2.</_>
        <_>
          5 20 4 3 2.</_></rects>
      <tilted>0</tilted></_>
    <_>
      <rects>
        <_>
          1 21 2 1 -1.</_>
        <_>
          2 21 1 1 2.</_></rects>
      <tilted>0</tilted></_>
    <_>
      <rects>
        <_>
          1 22 2 2 -1.</_>
        <_>
          2 22 1 2 2.</_></rects>
      <tilted>0</tilted></_>
    <_>
      <rects>
        <_>
          2 0 4 1 -1.</_>
        <_>
          4 0 2 1 2.</_></rects>
      <tilted>0</tilted></_>
    <_>
      <rects>
        <_>
          2 0 4 16 -1.</_>
        <_>
          2 0 2 8 2.</_>
        <_>
          4 8 2 8 2.</_></rects>
      <tilted>0</tilted></_>
    <_>
      <rects>
        <_>
          2 0 6 21 -1.</_>
        <_>
          4 0 2 21 3.</_></rects>
      <tilted>0</tilted></_>
    <_>
      <rects>
        <_>
          2 0 4 14 -1.</_>
        <_>
          2 7 4 7 2.</_></rects>
      <tilted>0</tilted></_>
    <_>
      <rects>
        <_>
          2 0 19 10 -1.</_>
        <_>
          2 5 19 5 2.</_></rects>
      <tilted>0</tilted></_>
    <_>
      <rects>
        <_>
          2 1 3 1 -1.</_>
        <_>
          3 1 1 1 3.</_></rects>
      <tilted>0</tilted></_>
    <_>
      <rects>
        <_>
          2 1 3 2 -1.</_>
        <_>
          3 1 1 2 3.</_></rects>
      <tilted>0</tilted></_>
    <_>
      <rects>
        <_>
          2 2 3 1 -1.</_>
        <_>
          3 2 1 1 3.</_></rects>
      <tilted>0</tilted></_>
    <_>
      <rects>
        <_>
          2 3 12 15 -1.</_>
        <_>
          2 8 12 5 3.</_></rects>
      <tilted>0</tilted></_>
    <_>
      <rects>
        <_>
          2 5 8 14 -1.</_>
        <_>
          6 5 4 14 2.</_></rects>
      <tilted>0</tilted></_>
    <_>
      <rects>
        <_>
          2 6 2 8 -1.</_>
        <_>
          2 6 1 4 2.</_>
        <_>
          3 10 1 4 2.</_></rects>
      <tilted>0</tilted></_>
    <_>
      <rects>
        <_>
          2 6 4 4 -1.</_>
        <_>
          2 6 2 2 2.</_>
        <_>
          4 8 2 2 2.</_></rects>
      <tilted>0</tilted></_>
    <_>
      <rects>
        <_>
          2 7 2 6 -1.</_>
        <_>
          2 7 1 3 2.</_>
        <_>
          3 10 1 3 2.</_></rects>
      <tilted>0</tilted></_>
    <_>
      <rects>
        <_>
          2 8 6 1 -1.</_>
        <_>
          5 8 3 1 2.</_></rects>
      <tilted>0</tilted></_>
    <_>
      <rects>
        <_>
          2 8 20 3 -1.</_>
        <_>
          12 8 10 3 2.</_></rects>
      <tilted>0</tilted></_>
    <_>
      <rects>
        <_>
          2 8 22 5 -1.</_>
        <_>
          13 8 11 5 2.</_></rects>
      <tilted>0</tilted></_>
    <_>
      <rects>
        <_>
          2 9 3 1 -1.</_>
        <_>
          3 9 1 1 3.</_></rects>
      <tilted>0</tilted></_>
    <_>
      <rects>
        <_>
          2 9 6 4 -1.</_>
        <_>
          5 9 3 4 2.</_></rects>
      <tilted>0</tilted></_>
    <_>
      <rects>
        <_>
          2 9 8 6 -1.</_>
        <_>
          2 11 8 2 3.</_></rects>
      <tilted>0</tilted></_>
    <_>
      <rects>
        <_>
          2 9 20 2 -1.</_>
        <_>
          12 9 10 2 2.</_></rects>
      <tilted>0</tilted></_>
    <_>
      <rects>
        <_>
          2 10 6 5 -1.</_>
        <_>
          4 10 2 5 3.</_></rects>
      <tilted>0</tilted></_>
    <_>
      <rects>
        <_>
          2 10 8 5 -1.</_>
        <_>
          6 10 4 5 2.</_></rects>
      <tilted>0</tilted></_>
    <_>
      <rects>
        <_>
          2 11 4 3 -1.</_>
        <_>
          4 11 2 3 2.</_></rects>
      <tilted>0</tilted></_>
    <_>
      <rects>
        <_>
          2 11 16 3 -1.</_>
        <_>
          10 11 8 3 2.</_></rects>
      <tilted>0</tilted></_>
    <_>
      <rects>
        <_>
          2 11 22 1 -1.</_>
        <_>
          13 11 11 1 2.</_></rects>
      <tilted>0</tilted></_>
    <_>
      <rects>
        <_>
          2 12 2 2 -1.</_>
        <_>
          3 12 1 2 2.</_></rects>
      <tilted>0</tilted></_>
    <_>
      <rects>
        <_>
          2 12 6 2 -1.</_>
        <_>
          5 12 3 2 2.</_></rects>
      <tilted>0</tilted></_>
    <_>
      <rects>
        <_>
          2 12 6 8 -1.</_>
        <_>
          2 12 3 4 2.</_>
        <_>
          5 16 3 4 2.</_></rects>
      <tilted>0</tilted></_>
    <_>
      <rects>
        <_>
          2 12 8 2 -1.</_>
        <_>
          6 12 4 2 2.</_></rects>
      <tilted>0</tilted></_>
    <_>
      <rects>
        <_>
          2 12 12 3 -1.</_>
        <_>
          8 12 6 3 2.</_></rects>
      <tilted>0</tilted></_>
    <_>
      <rects>
        <_>
          2 12 14 2 -1.</_>
        <_>
          9 12 7 2 2.</_></rects>
      <tilted>0</tilted></_>
    <_>
      <rects>
        <_>
          2 12 14 3 -1.</_>
        <_>
          9 12 7 3 2.</_></rects>
      <tilted>0</tilted></_>
    <_>
      <rects>
        <_>
          2 13 6 4 -1.</_>
        <_>
          2 15 6 2 2.</_></rects>
      <tilted>0</tilted></_>
    <_>
      <rects>
        <_>
          2 16 17 8 -1.</_>
        <_>
          2 20 17 4 2.</_></rects>
      <tilted>0</tilted></_>
    <_>
      <rects>
        <_>
          2 20 2 2 -1.</_>
        <_>
          3 20 1 2 2.</_></rects>
      <tilted>0</tilted></_>
    <_>
      <rects>
        <_>
          2 23 3 1 -1.</_>
        <_>
          3 23 1 1 3.</_></rects>
      <tilted>0</tilted></_>
    <_>
      <rects>
        <_>
          3 0 2 1 -1.</_>
        <_>
          4 0 1 1 2.</_></rects>
      <tilted>0</tilted></_>
    <_>
      <rects>
        <_>
          3 0 16 8 -1.</_>
        <_>
          3 4 16 4 2.</_></rects>
