<?xml version="1.0"?>
<opencv_storage>
<cascade>
  <stageType>BOOST</stageType>
  <featureType>HAAR</featureType>
  <height>24</height>
  <width>24</width>
  <stageParams>
    <boostType>GAB</boostType>
    <minHitRate>9.9500000476837158e-01</minHitRate>
    <maxFalseAlarm>5.0000000000000000e-01</maxFalseAlarm>
    <weightTrimRate>9.4999999999999996e-01</weightTrimRate>
    <maxDepth>1</maxDepth>
    <maxWeakCount>100</maxWeakCount></stageParams>
  <featureParams>
    <maxCatCount>0</maxCatCount>
    <featSize>1</featSize>
    <mode>BASIC</mode></featureParams>
  <stageNum>20</stageNum>
  <stages>
    <!-- stage 0 -->
    <_>
      <maxWeakCount>11</maxWeakCount>
      <stageThreshold>-1.0428261756896973e+00</stageThreshold>
      <weakClassifiers>
        <_>
          <internalNodes>
            0 -1 124 2.4110941216349602e-02</internalNodes>
          <leafValues>
            -3.3590734004974365e-01 7.7289378643035889e-01</leafValues></_>
        <_>
          <internalNodes>
            0 -1 220 -5.6011718697845936e-03</internalNodes>
          <leafValues>
            4.8987948894500732e-01 -3.4495750069618225e-01</leafValues></_>
        <_>
          <internalNodes>
            0 -1 42 -1.9067037850618362e-02</internalNodes>
          <leafValues>
            6.7116475105285645e-01 -1.9587409496307373e-01</leafValues></_>
        <_>
          <internalNodes>
            0 -1 117 1.0746126621961594e-01</internalNodes>
          <leafValues>
            -1.6464595496654510e-01 8.5270714759826660e-01</leafValues></_>
        <_>
          <internalNodes>
            0 -1 212 2.2306046448647976e-03</internalNodes>
          <leafValues>
            -2.3034819960594177e-01 6.4020937681198120e-01</leafValues></_>
        <_>
          <internalNodes>
            0 -1 203 -5.5798962712287903e-03</internalNodes>
          <leafValues>
            4.7428274154663086e-01 -2.8012415766716003e-01</leafValues></_>
        <_>
          <internalNodes>
            0 -1 219 -4.6652760356664658e-03</internalNodes>
          <leafValues>
            7.9571074247360229e-01 -1.3445846736431122e-01</leafValues></_>
        <_>
          <internalNodes>
            0 -1 186 -3.7679122760891914e-03</internalNodes>
          <leafValues>
            6.9697505235671997e-01 -1.6768342256546021e-01</leafValues></_>
        <_>
          <internalNodes>
            0 -1 281 1.6225475817918777e-02</internalNodes>
          <leafValues>
            -2.8600874543190002e-01 4.3902873992919922e-01</leafValues></_>
        <_>
          <internalNodes>
            0 -1 139 -2.5016900617629290e-03</internalNodes>
          <leafValues>
            5.8985018730163574e-01 -2.3876819014549255e-01</leafValues></_>
        <_>
          <internalNodes>
            0 -1 170 -4.0181763470172882e-03</internalNodes>
          <leafValues>
            7.4551331996917725e-01 -1.4349451661109924e-01</leafValues></_></weakClassifiers></_>
    <!-- stage 1 -->
    <_>
      <maxWeakCount>10</maxWeakCount>
      <stageThreshold>-8.1667727231979370e-01</stageThreshold>
      <weakClassifiers>
        <_>
          <internalNodes>
            0 -1 109 2.8537075966596603e-02</internalNodes>
          <leafValues>
            -3.1130877137184143e-01 7.4144488573074341e-01</leafValues></_>
        <_>
          <internalNodes>
            0 -1 260 3.4000575542449951e-02</internalNodes>
          <leafValues>
            -2.2338141500949860e-01 7.2593402862548828e-01</leafValues></_>
        <_>
          <internalNodes>
            0 -1 12 1.8626198172569275e-02</internalNodes>
          <leafValues>
            -1.8449591100215912e-01 7.7250474691390991e-01</leafValues></_>
        <_>
          <internalNodes>
            0 -1 43 -1.6756117343902588e-02</internalNodes>
          <leafValues>
            8.2823109626770020e-01 -1.6267761588096619e-01</leafValues></_>
        <_>
          <internalNodes>
            0 -1 150 3.2510780729353428e-03</internalNodes>
          <leafValues>
            -2.2845853865146637e-01 5.4853248596191406e-01</leafValues></_>
        <_>
          <internalNodes>
            0 -1 230 -2.0142225548624992e-03</internalNodes>
          <leafValues>
            5.1091152429580688e-01 -2.6216468214988708e-01</leafValues></_>
        <_>
          <internalNodes>
            0 -1 250 -5.2433009259402752e-03</internalNodes>
          <leafValues>
            6.8650621175765991e-01 -1.9370496273040771e-01</leafValues></_>
        <_>
          <internalNodes>
            0 -1 65 2.1072553470730782e-02</internalNodes>
          <leafValues>
            -1.1480451375246048e-01 8.1355929374694824e-01</leafValues></_>
        <_>
          <internalNodes>
            0 -1 252 6.9611268118023872e-03</internalNodes>
          <leafValues>
            -1.3385857641696930e-01 8.2643157243728638e-01</leafValues></_>
        <_>
          <internalNodes>
            0 -1 64 -9.7524851560592651e-02</internalNodes>
          <leafValues>
            -6.4150899648666382e-01 2.2510153055191040e-01</leafValues></_></weakClassifiers></_>
    <!-- stage 2 -->
    <_>
      <maxWeakCount>12</maxWeakCount>
      <stageThreshold>-1.0896402597427368e+00</stageThreshold>
      <weakClassifiers>
        <_>
          <internalNodes>
            0 -1 165 -9.5346933230757713e-03</internalNodes>
          <leafValues>
            7.3170733451843262e-01 -2.8606966137886047e-01</leafValues></_>
        <_>
          <internalNodes>
            0 -1 268 4.3749772012233734e-02</internalNodes>
          <leafValues>
            -1.7455294728279114e-01 6.9247639179229736e-01</leafValues></_>
        <_>
          <internalNodes>
            0 -1 213 1.5491772501263767e-05</internalNodes>
          <leafValues>
            -2.8776797652244568e-01 4.2890498042106628e-01</leafValues></_>
        <_>
          <internalNodes>
            0 -1 21 2.3658107966184616e-02</internalNodes>
          <leafValues>
            -1.5483552217483521e-01 7.6712334156036377e-01</leafValues></_>
        <_>
          <internalNodes>
            0 -1 278 -3.9063026197254658e-03</internalNodes>
          <leafValues>
            6.5090602636337280e-01 -2.1667084097862244e-01</leafValues></_>
        <_>
          <internalNodes>
            0 -1 226 -1.9706449165823869e-05</internalNodes>
          <leafValues>
            4.6226185560226440e-01 -2.6293224096298218e-01</leafValues></_>
        <_>
          <internalNodes>
            0 -1 226 1.8426462702336721e-05</internalNodes>
          <leafValues>
            -2.8213822841644287e-01 4.6924391388893127e-01</leafValues></_>
        <_>
          <internalNodes>
            0 -1 218 2.8580655343830585e-03</internalNodes>
          <leafValues>
            -1.6755397617816925e-01 6.4631736278533936e-01</leafValues></_>
        <_>
          <internalNodes>
            0 -1 217 -2.4066152982413769e-03</internalNodes>
          <leafValues>
            6.6935104131698608e-01 -1.6199950873851776e-01</leafValues></_>
        <_>
          <internalNodes>
            0 -1 271 2.4022201076149940e-02</internalNodes>
          <leafValues>
            -1.2516619265079498e-01 8.8453185558319092e-01</leafValues></_>
        <_>
          <internalNodes>
            0 -1 20 -1.7655553165241145e-05</internalNodes>
          <leafValues>
            4.3988671898841858e-01 -2.3811881244182587e-01</leafValues></_>
        <_>
          <internalNodes>
            0 -1 297 -1.5491772501263767e-05</internalNodes>
          <leafValues>
            4.3683969974517822e-01 -2.7741670608520508e-01</leafValues></_></weakClassifiers></_>
    <!-- stage 3 -->
    <_>
      <maxWeakCount>8</maxWeakCount>
      <stageThreshold>-6.0479885339736938e-01</stageThreshold>
      <weakClassifiers>
        <_>
          <internalNodes>
            0 -1 274 1.7369240595144220e-05</internalNodes>
          <leafValues>
            -3.9116203784942627e-01 4.3052393198013306e-01</leafValues></_>
        <_>
          <internalNodes>
            0 -1 258 -1.7369240595144220e-05</internalNodes>
          <leafValues>
            4.4321867823600769e-01 -3.6106866598129272e-01</leafValues></_>
        <_>
          <internalNodes>
            0 -1 131 1.6120689906529151e-05</internalNodes>
          <leafValues>
            -2.8671532869338989e-01 4.7046682238578796e-01</leafValues></_>
        <_>
          <internalNodes>
            0 -1 131 -1.6247222447418608e-05</internalNodes>
          <leafValues>
            4.8550587892532349e-01 -3.8564395904541016e-01</leafValues></_>
        <_>
          <internalNodes>
            0 -1 274 -2.1495299733942375e-05</internalNodes>
          <leafValues>
            5.1041817665100098e-01 -2.0544154942035675e-01</leafValues></_>
        <_>
          <internalNodes>
            0 -1 143 -9.8570128902792931e-03</internalNodes>
          <leafValues>
            6.9874775409698486e-01 -1.3894802331924438e-01</leafValues></_>
        <_>
          <internalNodes>
            0 -1 23 1.8226061016321182e-02</internalNodes>
          <leafValues>
            -1.3278684020042419e-01 8.7385803461074829e-01</leafValues></_>
        <_>
          <internalNodes>
            0 -1 24 -5.4908813908696175e-03</internalNodes>
          <leafValues>
            6.5092253684997559e-01 -1.7607432603836060e-01</leafValues></_></weakClassifiers></_>
    <!-- stage 4 -->
    <_>
      <maxWeakCount>17</maxWeakCount>
      <stageThreshold>-9.7460681200027466e-01</stageThreshold>
      <weakClassifiers>
        <_>
          <internalNodes>
            0 -1 154 -9.9922353401780128e-03</internalNodes>
          <leafValues>
            5.6321841478347778e-01 -2.4968314170837402e-01</leafValues></_>
        <_>
          <internalNodes>
            0 -1 272 -1.9559359177947044e-02</internalNodes>
          <leafValues>
            5.5658614635467529e-01 -1.8994386494159698e-01</leafValues></_>
        <_>
          <internalNodes>
            0 -1 38 -6.9888448342680931e-04</internalNodes>
          <leafValues>
            -7.1954172849655151e-01 1.0893253237009048e-01</leafValues></_>
        <_>
          <internalNodes>
            0 -1 106 -5.0697445869445801e-02</internalNodes>
          <leafValues>
            4.0967419743537903e-01 -2.2787414491176605e-01</leafValues></_>
        <_>
          <internalNodes>
            0 -1 319 1.0388739174231887e-03</internalNodes>
          <leafValues>
            1.8983097374439240e-01 -5.7696962356567383e-01</leafValues></_>
        <_>
          <internalNodes>
            0 -1 73 -1.2080631218850613e-02</internalNodes>
          <leafValues>
            5.0286877155303955e-01 -1.7256955802440643e-01</leafValues></_>
        <_>
          <internalNodes>
            0 -1 45 3.7591755390167236e-02</internalNodes>
          <leafValues>
            -1.6527520120143890e-01 6.3420534133911133e-01</leafValues></_>
        <_>
          <internalNodes>
            0 -1 320 -9.0543972328305244e-04</internalNodes>
          <leafValues>
            -7.4406617879867554e-01 1.1353370547294617e-01</leafValues></_>
        <_>
          <internalNodes>
            0 -1 122 2.0083883777260780e-02</internalNodes>
          <leafValues>
            -2.0788231492042542e-01 4.3545520305633545e-01</leafValues></_>
        <_>
          <internalNodes>
            0 -1 78 5.8099433779716492e-02</internalNodes>
          <leafValues>
            -1.2589092552661896e-01 4.6542254090309143e-01</leafValues></_>
        <_>
          <internalNodes>
            0 -1 80 -1.5483897179365158e-02</internalNodes>
          <leafValues>
            4.1735237836837769e-01 -2.0017464458942413e-01</leafValues></_>
        <_>
          <internalNodes>
            0 -1 242 -3.0388080049306154e-03</internalNodes>
          <leafValues>
            3.4649556875228882e-01 -2.2099493443965912e-01</leafValues></_>
        <_>
          <internalNodes>
            0 -1 4 5.3760863374918699e-04</internalNodes>
          <leafValues>
            1.7963948845863342e-01 -4.4106680154800415e-01</leafValues></_>
        <_>
          <internalNodes>
            0 -1 182 -8.7354499846696854e-03</internalNodes>
          <leafValues>
            3.7852281332015991e-01 -2.1161310374736786e-01</leafValues></_>
        <_>
          <internalNodes>
            0 -1 149 -1.0313050821423531e-02</internalNodes>
          <leafValues>
            3.9122012257575989e-01 -1.8653181195259094e-01</leafValues></_>
        <_>
          <internalNodes>
            0 -1 283 1.8124176189303398e-02</internalNodes>
          <leafValues>
            -1.0594323277473450e-01 6.7977178096771240e-01</leafValues></_>
        <_>
          <internalNodes>
            0 -1 2 -6.4269127324223518e-04</internalNodes>
          <leafValues>
            -6.4769965410232544e-01 1.3709023594856262e-01</leafValues></_></weakClassifiers></_>
    <!-- stage 5 -->
    <_>
      <maxWeakCount>13</maxWeakCount>
      <stageThreshold>-1.0787284374237061e+00</stageThreshold>
      <weakClassifiers>
        <_>
          <internalNodes>
            0 -1 75 -2.3675911128520966e-02</internalNodes>
          <leafValues>
            4.8809522390365601e-01 -2.9971989989280701e-01</leafValues></_>
        <_>
          <internalNodes>
            0 -1 38 2.9342775815166533e-04</internalNodes>
          <leafValues>
            2.4463477730751038e-01 -4.8008695244789124e-01</leafValues></_>
        <_>
          <internalNodes>
            0 -1 147 -3.1168501824140549e-02</internalNodes>
          <leafValues>
            4.3966871500015259e-01 -2.5159564614295959e-01</leafValues></_>
        <_>
          <internalNodes>
            0 -1 58 -4.0201743831858039e-04</internalNodes>
          <leafValues>
            -6.0411465167999268e-01 1.5394096076488495e-01</leafValues></_>
        <_>
          <internalNodes>
            0 -1 300 -9.4697298482060432e-04</internalNodes>
          <leafValues>
            -7.3784029483795166e-01 1.7089273035526276e-01</leafValues></_>
        <_>
          <internalNodes>
            0 -1 27 6.5027509117498994e-04</internalNodes>
          <leafValues>
            1.1231941729784012e-01 -5.9575843811035156e-01</leafValues></_>
        <_>
          <internalNodes>
            0 -1 251 3.5214427858591080e-02</internalNodes>
          <leafValues>
            -2.0448185503482819e-01 4.3098157644271851e-01</leafValues></_>
        <_>
          <internalNodes>
            0 -1 126 -1.2698587961494923e-03</internalNodes>
          <leafValues>
            -6.2412059307098389e-01 1.9077682495117188e-01</leafValues></_>
        <_>
          <internalNodes>
            0 -1 76 3.4256893559359014e-04</internalNodes>
          <leafValues>
            1.2760643661022186e-01 -5.3520441055297852e-01</leafValues></_>
        <_>
          <internalNodes>
            0 -1 151 1.3497740030288696e-02</internalNodes>
          <leafValues>
            -1.1800058186054230e-01 7.6803040504455566e-01</leafValues></_>
        <_>
          <internalNodes>
            0 -1 145 -2.3588929325342178e-02</internalNodes>
          <leafValues>
            -6.9141203165054321e-01 1.5748141705989838e-01</leafValues></_>
        <_>
          <internalNodes>
            0 -1 161 4.8899069428443909e-02</internalNodes>
          <leafValues>
            -1.4143617451190948e-01 6.1057704687118530e-01</leafValues></_>
        <_>
          <internalNodes>
            0 -1 305 -7.0095347473397851e-04</internalNodes>
          <leafValues>
            -4.4338703155517578e-01 2.1018835902214050e-01</leafValues></_></weakClassifiers></_>
    <!-- stage 6 -->
    <_>
      <maxWeakCount>18</maxWeakCount>
      <stageThreshold>-1.1856679916381836e+00</stageThreshold>
      <weakClassifiers>
        <_>
          <internalNodes>
            0 -1 231 -2.6936020702123642e-02</internalNodes>
          <leafValues>
            5.8798283338546753e-01 -2.2888617217540741e-01</leafValues></_>
        <_>
          <internalNodes>
            0 -1 57 4.8727419925853610e-04</internalNodes>
          <leafValues>
            1.6953511536121368e-01 -6.2332397699356079e-01</leafValues></_>
        <_>
          <internalNodes>
            0 -1 153 -1.4169090427458286e-02</internalNodes>
          <leafValues>
            7.5412166118621826e-01 -1.2222807854413986e-01</leafValues></_>
        <_>
          <internalNodes>
            0 -1 29 -1.1429183650761843e-03</internalNodes>
          <leafValues>
            -5.0041633844375610e-01 1.6521516442298889e-01</leafValues></_>
        <_>
          <internalNodes>
            0 -1 36 4.0774658555164933e-04</internalNodes>
          <leafValues>
            1.9208903610706329e-01 -4.6681758761405945e-01</leafValues></_>
        <_>
          <internalNodes>
            0 -1 93 -4.1955953929573298e-04</internalNodes>
          <leafValues>
            -4.6427109837532043e-01 1.7363364994525909e-01</leafValues></_>
        <_>
          <internalNodes>
            0 -1 185 -1.4211891219019890e-02</internalNodes>
          <leafValues>
            5.6359469890594482e-01 -1.7432612180709839e-01</leafValues></_>
        <_>
          <internalNodes>
            0 -1 56 5.1916972734034061e-04</internalNodes>
          <leafValues>
            2.0348344743251801e-01 -4.4395649433135986e-01</leafValues></_>
        <_>
          <internalNodes>
            0 -1 159 -1.0424867272377014e-02</internalNodes>
          <leafValues>
            2.1014532446861267e-01 -3.4143993258476257e-01</leafValues></_>
        <_>
          <internalNodes>
            0 -1 164 -2.8320844285190105e-03</internalNodes>
          <leafValues>
            4.1865551471710205e-01 -1.7435684800148010e-01</leafValues></_>
        <_>
          <internalNodes>
            0 -1 104 -3.1685337424278259e-02</internalNodes>
          <leafValues>
            -5.3639262914657593e-01 1.5465524792671204e-01</leafValues></_>
        <_>
          <internalNodes>
            0 -1 162 -3.1236815266311169e-03</internalNodes>
          <leafValues>
            6.8738037347793579e-01 -1.4783413708209991e-01</leafValues></_>
        <_>
          <internalNodes>
            0 -1 267 4.1123174130916595e-02</internalNodes>
          <leafValues>
            -1.0286071151494980e-01 6.2359166145324707e-01</leafValues></_>
        <_>
          <internalNodes>
            0 -1 44 1.7463106662034988e-02</internalNodes>
          <leafValues>
            -1.3690613210201263e-01 5.8520269393920898e-01</leafValues></_>
        <_>
          <internalNodes>
            0 -1 293 5.6009495165199041e-04</internalNodes>
          <leafValues>
            1.6086016595363617e-01 -4.7962725162506104e-01</leafValues></_>
        <_>
          <internalNodes>
            0 -1 183 -5.6475447490811348e-03</internalNodes>
          <leafValues>
            5.7074809074401855e-01 -1.3394264876842499e-01</leafValues></_>
        <_>
          <internalNodes>
            0 -1 59 -8.4093044279143214e-04</internalNodes>
          <leafValues>
            -4.2863121628761292e-01 1.8655294179916382e-01</leafValues></_>
        <_>
          <internalNodes>
            0 -1 280 -5.1127432379871607e-04</internalNodes>
          <leafValues>
            -4.1901272535324097e-01 1.6097468137741089e-01</leafValues></_></weakClassifiers></_>
    <!-- stage 7 -->
    <_>
      <maxWeakCount>18</maxWeakCount>
      <stageThreshold>-9.9062508344650269e-01</stageThreshold>
      <weakClassifiers>
        <_>
          <internalNodes>
            0 -1 141 3.4627385437488556e-02</internalNodes>
          <leafValues>
            -2.4173027276992798e-01 5.3030300140380859e-01</leafValues></_>
        <_>
          <internalNodes>
            0 -1 94 3.9892992936074734e-04</internalNodes>
          <leafValues>
            1.7178621888160706e-01 -4.9662378430366516e-01</leafValues></_>
        <_>
          <internalNodes>
            0 -1 81 -2.3175437003374100e-02</internalNodes>
          <leafValues>
            -5.1121199131011963e-01 1.4498043060302734e-01</leafValues></_>
        <_>
          <internalNodes>
            0 -1 6 6.4964848570525646e-04</internalNodes>
          <leafValues>
            1.7672944068908691e-01 -4.0632301568984985e-01</leafValues></_>
        <_>
          <internalNodes>
            0 -1 92 1.1166078969836235e-02</internalNodes>
          <leafValues>
            -1.7143018543720245e-01 4.4040864706039429e-01</leafValues></_>
        <_>
          <internalNodes>
            0 -1 41 7.6923274900764227e-04</internalNodes>
          <leafValues>
            1.3756771385669708e-01 -5.9953558444976807e-01</leafValues></_>
        <_>
          <internalNodes>
            0 -1 291 1.1748278513550758e-02</internalNodes>
          <leafValues>
            -1.2156766653060913e-01 5.6301623582839966e-01</leafValues></_>
        <_>
          <internalNodes>
            0 -1 224 1.7089559696614742e-03</internalNodes>
          <leafValues>
            -1.2585197389125824e-01 6.4666342735290527e-01</leafValues></_>
        <_>
          <internalNodes>
            0 -1 317 6.9654837716370821e-04</internalNodes>
          <leafValues>
            1.5921735763549805e-01 -4.8152729868888855e-01</leafValues></_>
        <_>
          <internalNodes>
            0 -1 200 -1.0884213261306286e-02</internalNodes>
          <leafValues>
            -4.3327838182449341e-01 1.3767170906066895e-01</leafValues></_>
        <_>
          <internalNodes>
            0 -1 129 3.3315092325210571e-01</internalNodes>
          <leafValues>
            1.1744107306003571e-01 -7.6044011116027832e-01</leafValues></_>
        <_>
          <internalNodes>
            0 -1 299 9.1696262825280428e-04</internalNodes>
          <leafValues>
            1.6141930222511292e-01 -4.1566741466522217e-01</leafValues></_>
        <_>
          <internalNodes>
            0 -1 77 -4.9844775348901749e-03</internalNodes>
          <leafValues>
            3.2150632143020630e-01 -2.3629516363143921e-01</leafValues></_>
        <_>
          <internalNodes>
            0 -1 97 6.6933652851730585e-04</internalNodes>
          <leafValues>
            1.6651560366153717e-01 -4.4670492410659790e-01</leafValues></_>
        <_>
          <internalNodes>
            0 -1 314 -1.0862502967938781e-03</internalNodes>
          <leafValues>
            -4.7324350476264954e-01 1.5773396193981171e-01</leafValues></_>
        <_>
          <internalNodes>
            0 -1 177 2.9397785663604736e-02</internalNodes>
          <leafValues>
            1.0393459349870682e-01 -6.0393702983856201e-01</leafValues></_>
        <_>
          <internalNodes>
            0 -1 244 5.7635053992271423e-02</internalNodes>
          <leafValues>
            -1.7071843147277832e-01 4.8434966802597046e-01</leafValues></_>
        <_>
          <internalNodes>
            0 -1 308 -1.1275920551270247e-03</internalNodes>
          <leafValues>
            -5.7374477386474609e-01 1.2332789599895477e-01</leafValues></_></weakClassifiers></_>
    <!-- stage 8 -->
    <_>
      <maxWeakCount>14</maxWeakCount>
      <stageThreshold>-1.2213060855865479e+00</stageThreshold>
      <weakClassifiers>
        <_>
          <internalNodes>
            0 -1 47 3.1364042311906815e-02</internalNodes>
          <leafValues>
            -1.7711770534515381e-01 7.8723406791687012e-01</leafValues></_>
        <_>
          <internalNodes>
            0 -1 86 -1.9847007934004068e-03</internalNodes>
          <leafValues>
            5.8230304718017578e-01 -1.6180247068405151e-01</leafValues></_>
        <_>
          <internalNodes>
            0 -1 284 4.0671201422810555e-03</internalNodes>
          <leafValues>
            -1.4232572913169861e-01 6.1474627256393433e-01</leafValues></_>
        <_>
          <internalNodes>
            0 -1 201 1.2772560585290194e-03</internalNodes>
          <leafValues>
            -1.2983173131942749e-01 7.6555567979812622e-01</leafValues></_>
        <_>
          <internalNodes>
            0 -1 133 2.2665111348032951e-02</internalNodes>
          <leafValues>
            1.6440524160861969e-01 -5.8069467544555664e-01</leafValues></_>
        <_>
          <internalNodes>
            0 -1 14 -3.5543903708457947e-02</internalNodes>
          <leafValues>
            -7.5913566350936890e-01 1.2436549365520477e-01</leafValues></_>
        <_>
          <internalNodes>
            0 -1 264 5.7802153751254082e-03</internalNodes>
          <leafValues>
            -1.5681597590446472e-01 6.2829297780990601e-01</leafValues></_>
        <_>
          <internalNodes>
            0 -1 191 9.6565671265125275e-03</internalNodes>
          <leafValues>
            -7.8058168292045593e-02 7.2329699993133545e-01</leafValues></_>
        <_>
          <internalNodes>
            0 -1 10 7.2106611914932728e-03</internalNodes>
          <leafValues>
            -1.3338516652584076e-01 7.1380656957626343e-01</leafValues></_>
        <_>
          <internalNodes>
            0 -1 318 3.9390269666910172e-03</internalNodes>
          <leafValues>
            1.6612465679645538e-01 -4.9657532572746277e-01</leafValues></_>
        <_>
          <internalNodes>
            0 -1 223 1.4486482832580805e-03</internalNodes>
          <leafValues>
            -1.1912979185581207e-01 6.6315031051635742e-01</leafValues></_>
        <_>
          <internalNodes>
            0 -1 225 -2.4107634089887142e-03</internalNodes>
          <leafValues>
            6.3026297092437744e-01 -1.4964625239372253e-01</leafValues></_>
        <_>
          <internalNodes>
            0 -1 1 -3.2880792859941721e-03</internalNodes>
          <leafValues>
            -4.0760979056358337e-01 2.0370544493198395e-01</leafValues></_>
        <_>
          <internalNodes>
            0 -1 119 -1.2339206878095865e-03</internalNodes>
          <leafValues>
            4.3516796827316284e-01 -1.5913388133049011e-01</leafValues></_></weakClassifiers></_>
    <!-- stage 9 -->
    <_>
      <maxWeakCount>15</maxWeakCount>
      <stageThreshold>-1.0830856561660767e+00</stageThreshold>
      <weakClassifiers>
        <_>
          <internalNodes>
            0 -1 304 8.8294467423111200e-04</internalNodes>
          <leafValues>
            1.2264151126146317e-01 -7.6237624883651733e-01</leafValues></_>
        <_>
          <internalNodes>
            0 -1 277 -6.9690905511379242e-02</internalNodes>
          <leafValues>
            5.8344846963882446e-01 -2.0100054144859314e-01</leafValues></_>
        <_>
          <internalNodes>
            0 -1 35 -9.4075122615322471e-04</internalNodes>
          <leafValues>
            -6.4240801334381104e-01 1.5724284946918488e-01</leafValues></_>
        <_>
          <internalNodes>
            0 -1 46 -1.1472852900624275e-02</internalNodes>
          <leafValues>
            5.0934255123138428e-01 -1.5032146871089935e-01</leafValues></_>
        <_>
          <internalNodes>
            0 -1 18 3.9546065032482147e-02</internalNodes>
          <leafValues>
            -1.2595339119434357e-01 6.9466495513916016e-01</leafValues></_>
        <_>
          <internalNodes>
            0 -1 66 1.5658490359783173e-02</internalNodes>
          <leafValues>
            -1.6771350800991058e-01 4.8803678154945374e-01</leafValues></_>
        <_>
          <internalNodes>
            0 -1 48 5.1524722948670387e-03</internalNodes>
          <leafValues>
            1.4694987237453461e-01 -7.7516102790832520e-01</leafValues></_>
        <_>
          <internalNodes>
            0 -1 53 6.8581759929656982e-02</internalNodes>
          <leafValues>
            -2.0459511876106262e-01 4.8409256339073181e-01</leafValues></_>
        <_>
          <internalNodes>
            0 -1 16 -9.8839588463306427e-04</internalNodes>
          <leafValues>
            -7.2407060861587524e-01 1.1389246582984924e-01</leafValues></_>
        <_>
          <internalNodes>
            0 -1 303 1.2399551924318075e-03</internalNodes>
          <leafValues>
            1.2199543416500092e-01 -6.1896902322769165e-01</leafValues></_>
        <_>
          <internalNodes>
            0 -1 37 2.0486172288656235e-02</internalNodes>
          <leafValues>
            1.2569032609462738e-01 -5.6213140487670898e-01</leafValues></_>
        <_>
          <internalNodes>
            0 -1 156 -1.7872611351776868e-05</internalNodes>
          <leafValues>
            3.0889150500297546e-01 -2.4292722344398499e-01</leafValues></_>
        <_>
          <internalNodes>
            0 -1 103 1.9383836843189783e-05</internalNodes>
          <leafValues>
            -2.6032900810241699e-01 3.0216845870018005e-01</leafValues></_>
        <_>
          <internalNodes>
            0 -1 310 1.6543956007808447e-03</internalNodes>
          <leafValues>
            1.2404166907072067e-01 -5.8296823501586914e-01</leafValues></_>
        <_>
          <internalNodes>
            0 -1 296 -8.8054093066602945e-04</internalNodes>
          <leafValues>
            -5.6139904260635376e-01 1.3744923472404480e-01</leafValues></_></weakClassifiers></_>
    <!-- stage 10 -->
    <_>
      <maxWeakCount>13</maxWeakCount>
      <stageThreshold>-8.4940290451049805e-01</stageThreshold>
      <weakClassifiers>
        <_>
          <internalNodes>
            0 -1 110 -1.2873505242168903e-02</internalNodes>
          <leafValues>
            3.8283061981201172e-01 -3.4733441472053528e-01</leafValues></_>
        <_>
          <internalNodes>
            0 -1 127 1.4610733091831207e-01</internalNodes>
          <leafValues>
            -2.3132103681564331e-01 3.5329058766365051e-01</leafValues></_>
        <_>
          <internalNodes>
            0 -1 8 -5.0566069781780243e-02</internalNodes>
          <leafValues>
            7.3023241758346558e-01 -1.4552572369575500e-01</leafValues></_>
        <_>
          <internalNodes>
            0 -1 198 3.5535788629204035e-03</internalNodes>
          <leafValues>
            -1.4431563019752502e-01 5.5938506126403809e-01</leafValues></_>
        <_>
          <internalNodes>
            0 -1 273 -9.4700660556554794e-03</internalNodes>
          <leafValues>
            -8.5868203639984131e-01 1.0409560799598694e-01</leafValues></_>
        <_>
          <internalNodes>
            0 -1 128 -2.6944488286972046e-02</internalNodes>
          <leafValues>
            4.6435877680778503e-01 -1.8333141505718231e-01</leafValues></_>
        <_>
          <internalNodes>
            0 -1 148 -1.2474603950977325e-02</internalNodes>
          <leafValues>
            7.0306545495986938e-01 -1.0144309699535370e-01</leafValues></_>
        <_>
          <internalNodes>
            0 -1 227 -9.2979911714792252e-03</internalNodes>
          <leafValues>
            5.2399533987045288e-01 -1.7019146680831909e-01</leafValues></_>
        <_>
          <internalNodes>
            0 -1 105 6.8550884723663330e-02</internalNodes>
          <leafValues>
            -9.4525277614593506e-02 7.3527783155441284e-01</leafValues></_>
        <_>
          <internalNodes>
            0 -1 163 -3.9140204899013042e-03</internalNodes>
          <leafValues>
            4.1991078853607178e-01 -1.6445834934711456e-01</leafValues></_>
        <_>
          <internalNodes>
            0 -1 255 3.9725294336676598e-03</internalNodes>
          <leafValues>
            1.1783176660537720e-01 -7.5595784187316895e-01</leafValues></_>
        <_>
          <internalNodes>
            0 -1 263 -7.4339881539344788e-03</internalNodes>
          <leafValues>
            -8.0628043413162231e-01 7.3030896484851837e-02</leafValues></_>
        <_>
          <internalNodes>
            0 -1 205 9.7555937245488167e-03</internalNodes>
          <leafValues>
            -1.4628390967845917e-01 5.2983063459396362e-01</leafValues></_></weakClassifiers></_>
    <!-- stage 11 -->
    <_>
      <maxWeakCount>16</maxWeakCount>
      <stageThreshold>-8.6061304807662964e-01</stageThreshold>
      <weakClassifiers>
        <_>
          <internalNodes>
            0 -1 190 7.0278411731123924e-03</internalNodes>
          <leafValues>
            -1.7142857611179352e-01 7.5714284181594849e-01</leafValues></_>
        <_>
          <internalNodes>
            0 -1 185 3.0643578618764877e-02</internalNodes>
          <leafValues>
            -1.1253714561462402e-01 6.1260074377059937e-01</leafValues></_>
        <_>
          <internalNodes>
            0 -1 22 1.6752842813730240e-02</internalNodes>
          <leafValues>
            -1.0813900828361511e-01 7.2697454690933228e-01</leafValues></_>
        <_>
          <internalNodes>
            0 -1 88 3.0498339328914881e-03</internalNodes>
          <leafValues>
            -1.4102727174758911e-01 5.3443151712417603e-01</leafValues></_>
        <_>
          <internalNodes>
            0 -1 108 -3.2604890875518322e-03</internalNodes>
          <leafValues>
            5.5807709693908691e-01 -1.3281290233135223e-01</leafValues></_>
        <_>
          <internalNodes>
            0 -1 228 -2.0479764789342880e-03</internalNodes>
          <leafValues>
            4.8103231191635132e-01 -1.4785811305046082e-01</leafValues></_>
        <_>
          <internalNodes>
            0 -1 60 -1.0382379405200481e-03</internalNodes>
          <leafValues>
            -5.7669746875762939e-01 1.3709852099418640e-01</leafValues></_>
        <_>
          <internalNodes>
            0 -1 199 -1.2497613206505775e-03</internalNodes>
          <leafValues>
            6.1606937646865845e-01 -8.2737199962139130e-02</leafValues></_>
        <_>
          <internalNodes>
            0 -1 197 2.2280151024460793e-03</internalNodes>
          <leafValues>
            -1.6671919822692871e-01 4.9013498425483704e-01</leafValues></_>
        <_>
          <internalNodes>
            0 -1 311 7.7276653610169888e-04</internalNodes>
          <leafValues>
            1.5690071880817413e-01 -4.7026056051254272e-01</leafValues></_>
        <_>
          <internalNodes>
            0 -1 282 1.9117085685138591e-05</internalNodes>
          <leafValues>
            -2.2464939951896667e-01 2.9144313931465149e-01</leafValues></_>
        <_>
          <internalNodes>
            0 -1 157 9.1332697775214911e-04</internalNodes>
          <leafValues>
            -1.2354882061481476e-01 5.3223490715026855e-01</leafValues></_>
        <_>
          <internalNodes>
            0 -1 238 1.1462053284049034e-02</internalNodes>
          <leafValues>
            1.5206390619277954e-01 -4.5722582936286926e-01</leafValues></_>
        <_>
          <internalNodes>
            0 -1 178 -1.7495737411081791e-03</internalNodes>
          <leafValues>
            4.7742751240730286e-01 -1.5100102126598358e-01</leafValues></_>
        <_>
          <internalNodes>
            0 -1 3 9.2900299932807684e-04</internalNodes>
          <leafValues>
            1.9508096575737000e-01 -4.3590015172958374e-01</leafValues></_>
        <_>
          <internalNodes>
            0 -1 146 -1.0511482134461403e-02</internalNodes>
          <leafValues>
            -5.4191333055496216e-01 9.9038660526275635e-02</leafValues></_></weakClassifiers></_>
    <!-- stage 12 -->
    <_>
      <maxWeakCount>19</maxWeakCount>
      <stageThreshold>-1.1493836641311646e+00</stageThreshold>
      <weakClassifiers>
        <_>
          <internalNodes>
            0 -1 25 2.2832218557596207e-02</internalNodes>
          <leafValues>
            -1.5584415197372437e-01 7.4603176116943359e-01</leafValues></_>
        <_>
          <internalNodes>
            0 -1 166 -1.2876532971858978e-02</internalNodes>
          <leafValues>
            -4.9089294672012329e-01 1.7327287793159485e-01</leafValues></_>
        <_>
          <internalNodes>
            0 -1 49 -1.3128478080034256e-02</internalNodes>
          <leafValues>
            4.8947897553443909e-01 -2.2670961916446686e-01</leafValues></_>
        <_>
          <internalNodes>
            0 -1 67 1.5464982390403748e-01</internalNodes>
          <leafValues>
            1.3154500722885132e-01 -9.1437828540802002e-01</leafValues></_>
        <_>
          <internalNodes>
            0 -1 289 -4.5972175896167755e-02</internalNodes>
          <leafValues>
            5.7913023233413696e-01 -1.2201433628797531e-01</leafValues></_>
        <_>
          <internalNodes>
            0 -1 69 1.1580137535929680e-02</internalNodes>
          <leafValues>
            -1.2073366343975067e-01 6.0335063934326172e-01</leafValues></_>
        <_>
          <internalNodes>
            0 -1 85 -8.5349064320325851e-03</internalNodes>
          <leafValues>
            4.1182318329811096e-01 -1.8663021922111511e-01</leafValues></_>
        <_>
          <internalNodes>
            0 -1 32 -8.8407727889716625e-04</internalNodes>
          <leafValues>
            -4.4805970788002014e-01 1.5955162048339844e-01</leafValues></_>
        <_>
          <internalNodes>
            0 -1 96 1.3356897979974747e-03</internalNodes>
          <leafValues>
            9.1974474489688873e-02 -6.3346415758132935e-01</leafValues></_>
        <_>
          <internalNodes>
            0 -1 137 -3.8099635858088732e-03</internalNodes>
          <leafValues>
            6.1754775047302246e-01 -9.0661458671092987e-02</leafValues></_>
        <_>
          <internalNodes>
            0 -1 142 1.8688330892473459e-03</internalNodes>
          <leafValues>
            -1.3706302642822266e-01 4.5913401246070862e-01</leafValues></_>
        <_>
          <internalNodes>
            0 -1 275 -3.8118397351354361e-03</internalNodes>
          <leafValues>
            -3.8614675402641296e-01 1.6155713796615601e-01</leafValues></_>
        <_>
          <internalNodes>
            0 -1 28 1.1264755157753825e-03</internalNodes>
          <leafValues>
            1.4072471857070923e-01 -4.1658937931060791e-01</leafValues></_>
        <_>
          <internalNodes>
            0 -1 188 -1.4824152458459139e-03</internalNodes>
          <leafValues>
            5.8462166786193848e-01 -1.1919026076793671e-01</leafValues></_>
        <_>
          <internalNodes>
            0 -1 290 3.5159133374691010e-02</internalNodes>
          <leafValues>
            -5.9006713330745697e-02 8.0107074975967407e-01</leafValues></_>
        <_>
          <internalNodes>
            0 -1 173 -2.3011616431176662e-03</internalNodes>
          <leafValues>
            4.0257701277732849e-01 -1.4862596988677979e-01</leafValues></_>
        <_>
          <internalNodes>
            0 -1 174 2.5786529295146465e-03</internalNodes>
          <leafValues>
            -8.7177805602550507e-02 6.1237227916717529e-01</leafValues></_>
        <_>
          <internalNodes>
            0 -1 116 1.9719626754522324e-02</internalNodes>
          <leafValues>
            1.0083064436912537e-01 -6.9919848442077637e-01</leafValues></_>
        <_>
          <internalNodes>
            0 -1 210 3.7349173799157143e-03</internalNodes>
          <leafValues>
            -1.0747903585433960e-01 7.0883023738861084e-01</leafValues></_></weakClassifiers></_>
    <!-- stage 13 -->
    <_>
      <maxWeakCount>16</maxWeakCount>
      <stageThreshold>-8.9875209331512451e-01</stageThreshold>
      <weakClassifiers>
        <_>
          <internalNodes>
            0 -1 17 8.9473044499754906e-04</internalNodes>
          <leafValues>
            8.5580304265022278e-02 -6.2436550855636597e-01</leafValues></_>
        <_>
          <internalNodes>
            0 -1 17 -1.0434407740831375e-03</internalNodes>
          <leafValues>
            -6.7809027433395386e-01 1.0870396345853806e-01</leafValues></_>
        <_>
          <internalNodes>
            0 -1 114 7.6596826314926147e-02</internalNodes>
          <leafValues>
            -2.8196001052856445e-01 2.4893864989280701e-01</leafValues></_>
        <_>
          <internalNodes>
            0 -1 31 -3.8434372982010245e-04</internalNodes>
          <leafValues>
            -3.7238433957099915e-01 2.0040582120418549e-01</leafValues></_>
        <_>
          <internalNodes>
            0 -1 33 1.1347106192260981e-03</internalNodes>
          <leafValues>
            1.4449810981750488e-01 -4.8708987236022949e-01</leafValues></_>
        <_>
          <internalNodes>
            0 -1 265 -1.7710071057081223e-02</internalNodes>
          <leafValues>
            6.5453004837036133e-01 -1.1827415972948074e-01</leafValues></_>
        <_>
          <internalNodes>
            0 -1 147 -3.1414948403835297e-02</internalNodes>
          <leafValues>
            3.0600222945213318e-01 -2.2751499712467194e-01</leafValues></_>
        <_>
          <internalNodes>
            0 -1 208 -8.5303951054811478e-03</internalNodes>
          <leafValues>
            5.2463781833648682e-01 -1.6221737861633301e-01</leafValues></_>
        <_>
          <internalNodes>
            0 -1 236 8.5271894931793213e-04</internalNodes>
          <leafValues>
            1.5416269004344940e-01 -5.3272986412048340e-01</leafValues></_>
        <_>
          <internalNodes>
            0 -1 262 9.3257278203964233e-03</internalNodes>
          <leafValues>
            -1.2841387093067169e-01 5.9129464626312256e-01</leafValues></_>
        <_>
          <internalNodes>
            0 -1 11 -9.1354676987975836e-04</internalNodes>
          <leafValues>
            -5.2068024873733521e-01 1.3080102205276489e-01</leafValues></_>
        <_>
          <internalNodes>
            0 -1 247 -2.0539456978440285e-02</internalNodes>
          <leafValues>
            3.5890269279479980e-01 -1.7603260278701782e-01</leafValues></_>
        <_>
          <internalNodes>
            0 -1 235 -4.7453297884203494e-04</internalNodes>
          <leafValues>
            -4.1139018535614014e-01 1.4221943914890289e-01</leafValues></_>
        <_>
          <internalNodes>
            0 -1 89 -2.7882822323590517e-03</internalNodes>
          <leafValues>
            4.0969136357307434e-01 -1.7406325042247772e-01</leafValues></_>
        <_>
          <internalNodes>
            0 -1 39 -1.5286477282643318e-03</internalNodes>
          <leafValues>
            -5.2806371450424194e-01 1.2253411114215851e-01</leafValues></_>
        <_>
          <internalNodes>
            0 -1 225 3.1392625533044338e-03</internalNodes>
          <leafValues>
            -1.2771682441234589e-01 5.3746247291564941e-01</leafValues></_></weakClassifiers></_>
    <!-- stage 14 -->
    <_>
      <maxWeakCount>21</maxWeakCount>
      <stageThreshold>-8.3784580230712891e-01</stageThreshold>
      <weakClassifiers>
        <_>
          <internalNodes>
            0 -1 189 6.9478191435337067e-03</internalNodes>
          <leafValues>
            -1.8225419521331787e-01 4.7222220897674561e-01</leafValues></_>
        <_>
          <internalNodes>
            0 -1 171 1.3718835078179836e-02</internalNodes>
          <leafValues>
            -1.4233411848545074e-01 4.1713955998420715e-01</leafValues></_>
        <_>
          <internalNodes>
            0 -1 196 -1.6097998013719916e-03</internalNodes>
          <leafValues>
            4.4537711143493652e-01 -1.6320358216762543e-01</leafValues></_>
        <_>
          <internalNodes>
            0 -1 13 3.1675636768341064e-02</internalNodes>
          <leafValues>
            -1.5062618255615234e-01 4.1454610228538513e-01</leafValues></_>
        <_>
          <internalNodes>
            0 -1 70 3.1486667692661285e-02</internalNodes>
          <leafValues>
            -5.2749831229448318e-02 6.6864413022994995e-01</leafValues></_>
        <_>
          <internalNodes>
            0 -1 140 -4.4088959693908691e-02</internalNodes>
          <leafValues>
            8.9214617013931274e-01 -5.7202678173780441e-02</leafValues></_>
        <_>
          <internalNodes>
            0 -1 204 1.6389854717999697e-03</internalNodes>
          <leafValues>
            -1.9560778141021729e-01 2.9049742221832275e-01</leafValues></_>
        <_>
          <internalNodes>
            0 -1 107 -1.0763483587652445e-03</internalNodes>
          <leafValues>
            4.8344409465789795e-01 -9.8734930157661438e-02</leafValues></_>
        <_>
          <internalNodes>
            0 -1 30 -8.8920420967042446e-04</internalNodes>
          <leafValues>
            -4.3936929106712341e-01 1.4699883759021759e-01</leafValues></_>
        <_>
          <internalNodes>
            0 -1 130 -1.9294543564319611e-01</internalNodes>
          <leafValues>
            -7.9224199056625366e-01 9.0535759925842285e-02</leafValues></_>
        <_>
          <internalNodes>
            0 -1 172 3.0801866203546524e-02</internalNodes>
          <leafValues>
            1.3802196085453033e-01 -4.0537667274475098e-01</leafValues></_>
        <_>
          <internalNodes>
            0 -1 49 -1.3596557080745697e-02</internalNodes>
          <leafValues>
            3.8571155071258545e-01 -1.3679148256778717e-01</leafValues></_>
        <_>
          <internalNodes>
            0 -1 241 2.1509001962840557e-03</internalNodes>
          <leafValues>
            -9.1269038617610931e-02 6.2546920776367188e-01</leafValues></_>
        <_>
          <internalNodes>
            0 -1 169 -3.8451246917247772e-02</internalNodes>
          <leafValues>
            -6.0548114776611328e-01 1.1201763898134232e-01</leafValues></_>
        <_>
          <internalNodes>
            0 -1 216 -9.5199717907235026e-04</internalNodes>
          <leafValues>
            3.1777727603912354e-01 -1.8516553938388824e-01</leafValues></_>
        <_>
          <internalNodes>
            0 -1 312 -1.2149360263720155e-03</internalNodes>
          <leafValues>
            -5.6573122739791870e-01 1.2412618100643158e-01</leafValues></_>
        <_>
          <internalNodes>
            0 -1 215 6.1262981034815311e-04</internalNodes>
          <leafValues>
            -1.3133633136749268e-01 4.7391501069068909e-01</leafValues></_>
        <_>
          <internalNodes>
            0 -1 214 1.0451946873217821e-03</internalNodes>
          <leafValues>
            -1.1327083408832550e-01 4.7168800234794617e-01</leafValues></_>
        <_>
          <internalNodes>
            0 -1 71 -8.3004254847764969e-03</internalNodes>
          <leafValues>
            -9.4343143701553345e-01 6.4297571778297424e-02</leafValues></_>
        <_>
          <internalNodes>
            0 -1 229 -1.4309517573565245e-03</internalNodes>
          <leafValues>
            4.3078401684761047e-01 -1.3866540789604187e-01</leafValues></_>
        <_>
          <internalNodes>
            0 -1 232 2.8382544405758381e-03</internalNodes>
          <leafValues>
            -1.3960976898670197e-01 4.5386043190956116e-01</leafValues></_></weakClassifiers></_>
    <!-- stage 15 -->
    <_>
      <maxWeakCount>18</maxWeakCount>
      <stageThreshold>-7.6455986499786377e-01</stageThreshold>
      <weakClassifiers>
        <_>
          <internalNodes>
            0 -1 237 -3.1554006272926927e-04</internalNodes>
          <leafValues>
            -4.3119266629219055e-01 1.2586446106433868e-01</leafValues></_>
        <_>
          <internalNodes>
            0 -1 55 2.4150818586349487e-02</internalNodes>
          <leafValues>
            -1.9061575829982758e-01 3.3750259876251221e-01</leafValues></_>
        <_>
          <internalNodes>
            0 -1 307 -5.4397550411522388e-04</internalNodes>
          <leafValues>
            -5.4114896059036255e-01 1.1347970366477966e-01</leafValues></_>
        <_>
          <internalNodes>
            0 -1 63 6.3147174660116434e-04</internalNodes>
          <leafValues>
            1.3043566048145294e-01 -4.5099583268165588e-01</leafValues></_>
        <_>
          <internalNodes>
            0 -1 249 4.6533794375136495e-04</internalNodes>
          <leafValues>
            1.5035423636436462e-01 -3.7648868560791016e-01</leafValues></_>
        <_>
          <internalNodes>
            0 -1 259 1.4762838836759329e-03</internalNodes>
          <leafValues>
            1.5259315073490143e-01 -3.6832273006439209e-01</leafValues></_>
        <_>
          <internalNodes>
            0 -1 54 4.8501230776309967e-03</internalNodes>
          <leafValues>
            -2.1992203593254089e-01 2.5721636414527893e-01</leafValues></_>
        <_>
          <internalNodes>
            0 -1 19 4.1283953934907913e-02</internalNodes>
          <leafValues>
            -9.9012784659862518e-02 5.6376016139984131e-01</leafValues></_>
        <_>
          <internalNodes>
            0 -1 62 -9.6986759454011917e-03</internalNodes>
          <leafValues>
            4.2639294266700745e-01 -1.5607611835002899e-01</leafValues></_>
        <_>
          <internalNodes>
            0 -1 207 -4.2110243812203407e-03</internalNodes>
          <leafValues>
            -5.2966052293777466e-01 1.1846343427896500e-01</leafValues></_>
        <_>
          <internalNodes>
            0 -1 192 9.4203371554613113e-04</internalNodes>
          <leafValues>
            1.3824023306369781e-01 -3.8139143586158752e-01</leafValues></_>
        <_>
          <internalNodes>
            0 -1 102 -4.3796598911285400e-02</internalNodes>
          <leafValues>
            -6.4389789104461670e-01 1.0488815605640411e-01</leafValues></_>
        <_>
          <internalNodes>
            0 -1 302 -2.7600254397839308e-03</internalNodes>
          <leafValues>
            -5.9084051847457886e-01 7.2415046393871307e-02</leafValues></_>
        <_>
          <internalNodes>
            0 -1 144 -1.9607227295637131e-02</internalNodes>
          <leafValues>
            4.3763673305511475e-01 -1.2873187661170959e-01</leafValues></_>
        <_>
          <internalNodes>
            0 -1 79 6.1737801879644394e-02</internalNodes>
          <leafValues>
            -8.3670772612094879e-02 6.1638438701629639e-01</leafValues></_>
        <_>
          <internalNodes>
            0 -1 160 -1.3262080959975719e-02</internalNodes>
          <leafValues>
            3.8082018494606018e-01 -1.3232278823852539e-01</leafValues></_>
        <_>
          <internalNodes>
            0 -1 134 -5.8352556079626083e-03</internalNodes>
          <leafValues>
            -7.2879946231842041e-01 8.4524571895599365e-02</leafValues></_>
        <_>
          <internalNodes>
            0 -1 202 1.3147559948265553e-03</internalNodes>
          <leafValues>
            -8.9649058878421783e-02 6.7936265468597412e-01</leafValues></_></weakClassifiers></_>
    <!-- stage 16 -->
    <_>
      <maxWeakCount>19</maxWeakCount>
      <stageThreshold>-1.0423185825347900e+00</stageThreshold>
      <weakClassifiers>
        <_>
          <internalNodes>
            0 -1 2 4.9126369412988424e-04</internalNodes>
          <leafValues>
            1.0268948972225189e-01 -5.7758623361587524e-01</leafValues></_>
        <_>
          <internalNodes>
            0 -1 112 -9.2577226459980011e-03</internalNodes>
          <leafValues>
            3.2071915268898010e-01 -2.1515037119388580e-01</leafValues></_>
        <_>
          <internalNodes>
            0 -1 2 -5.0017365720123053e-04</internalNodes>
          <leafValues>
            -6.0434991121292114e-01 1.1362793296575546e-01</leafValues></_>
        <_>
          <internalNodes>
            0 -1 40 2.0339193940162659e-01</internalNodes>
          <leafValues>
            -1.0454391688108444e-01 5.0160783529281616e-01</leafValues></_>
        <_>
          <internalNodes>
            0 -1 315 8.7971799075603485e-04</internalNodes>
          <leafValues>
            8.3906248211860657e-02 -4.7684046626091003e-01</leafValues></_>
        <_>
          <internalNodes>
            0 -1 309 1.6419882886111736e-03</internalNodes>
          <leafValues>
            1.5434052050113678e-01 -5.4940533638000488e-01</leafValues></_>
        <_>
          <internalNodes>
            0 -1 248 7.3150783777236938e-02</internalNodes>
          <leafValues>
            -1.2800714373588562e-01 4.6369442343711853e-01</leafValues></_>
        <_>
          <internalNodes>
            0 -1 95 7.3524587787687778e-04</internalNodes>
          <leafValues>
            1.0725766420364380e-01 -5.8246856927871704e-01</leafValues></_>
        <_>
          <internalNodes>
            0 -1 95 -2.9944564448669553e-04</internalNodes>
          <leafValues>
            -3.4972181916236877e-01 1.3713306188583374e-01</leafValues></_>
        <_>
          <internalNodes>
            0 -1 125 2.5724876672029495e-02</internalNodes>
          <leafValues>
            -7.8333362936973572e-02 9.4127738475799561e-01</leafValues></_>
        <_>
          <internalNodes>
            0 -1 288 3.9392285048961639e-02</internalNodes>
          <leafValues>
            -8.1756763160228729e-02 6.2777864933013916e-01</leafValues></_>
        <_>
          <internalNodes>
            0 -1 0 -4.7460070345550776e-04</internalNodes>
          <leafValues>
            -4.7531676292419434e-01 1.4439395070075989e-01</leafValues></_>
        <_>
          <internalNodes>
            0 -1 82 -2.2645782679319382e-02</internalNodes>
          <leafValues>
            3.3730933070182800e-01 -1.7411573231220245e-01</leafValues></_>
        <_>
          <internalNodes>
            0 -1 34 -8.7621845304965973e-03</internalNodes>
          <leafValues>
            6.9394624233245850e-01 -8.8531017303466797e-02</leafValues></_>
        <_>
          <internalNodes>
            0 -1 113 -1.6066230833530426e-02</internalNodes>
          <leafValues>
            -6.2640190124511719e-01 9.8781310021877289e-02</leafValues></_>
        <_>
          <internalNodes>
            0 -1 167 -2.4427799507975578e-03</internalNodes>
          <leafValues>
            2.6218044757843018e-01 -2.1345621347427368e-01</leafValues></_>
        <_>
          <internalNodes>
            0 -1 51 8.6059257388114929e-02</internalNodes>
          <leafValues>
            -9.2319525778293610e-02 6.1263775825500488e-01</leafValues></_>
        <_>
          <internalNodes>
            0 -1 292 -1.8665723036974669e-03</internalNodes>
          <leafValues>
            -4.3718260526657104e-01 1.4614371955394745e-01</leafValues></_>
        <_>
          <internalNodes>
            0 -1 123 2.1886412287130952e-04</internalNodes>
          <leafValues>
            -2.8511393070220947e-01 1.9614447653293610e-01</leafValues></_></weakClassifiers></_>
    <!-- stage 17 -->
    <_>
      <maxWeakCount>28</maxWeakCount>
      <stageThreshold>-1.0057970285415649e+00</stageThreshold>
      <weakClassifiers>
        <_>
          <internalNodes>
            0 -1 257 5.3611802868545055e-03</internalNodes>
          <leafValues>
            -2.6813879609107971e-01 2.8846153616905212e-01</leafValues></_>
        <_>
          <internalNodes>
            0 -1 100 -4.2173184454441071e-02</internalNodes>
          <leafValues>
            -6.7016553878784180e-01 8.0213479697704315e-02</leafValues></_>
        <_>
          <internalNodes>
            0 -1 190 5.1570748910307884e-03</internalNodes>
          <leafValues>
            -7.9903900623321533e-02 5.3305685520172119e-01</leafValues></_>
        <_>
          <internalNodes>
            0 -1 152 8.2121213199570775e-04</internalNodes>
          <leafValues>
            1.3456121087074280e-01 -4.3626385927200317e-01</leafValues></_>
        <_>
          <internalNodes>
            0 -1 87 -7.0136142894625664e-03</internalNodes>
          <leafValues>
            4.6503862738609314e-01 -1.5810838341712952e-01</leafValues></_>
        <_>
          <internalNodes>
            0 -1 135 -2.5922663509845734e-02</internalNodes>
          <leafValues>
            2.8361663222312927e-01 -1.9311480224132538e-01</leafValues></_>
        <_>
          <internalNodes>
            0 -1 243 2.6122346520423889e-02</internalNodes>
          <leafValues>
            7.5521275401115417e-02 -6.8466854095458984e-01</leafValues></_>
        <_>
          <internalNodes>
            0 -1 269 -6.6788527183234692e-03</internalNodes>
          <leafValues>
            4.3702945113182068e-01 -1.0911918431520462e-01</leafValues></_>
        <_>
          <internalNodes>
            0 -1 5 1.4314228668808937e-02</internalNodes>
          <leafValues>
            1.1046776175498962e-01 -4.1805884242057800e-01</leafValues></_>
        <_>
          <internalNodes>
            0 -1 101 8.5431218147277832e-02</internalNodes>
          <leafValues>
            1.0802185535430908e-01 -4.9260622262954712e-01</leafValues></_>
        <_>
          <internalNodes>
            0 -1 132 -1.4079274609684944e-02</internalNodes>
          <leafValues>
            -5.0856137275695801e-01 1.1200966686010361e-01</leafValues></_>
        <_>
          <internalNodes>
            0 -1 98 5.5876869708299637e-02</internalNodes>
          <leafValues>
            -1.8029738962650299e-01 3.7214845418930054e-01</leafValues></_>
        <_>
          <internalNodes>
            0 -1 50 -1.3583149760961533e-02</internalNodes>
          <leafValues>
            3.2183462381362915e-01 -1.6437967121601105e-01</leafValues></_>
        <_>
          <internalNodes>
            0 -1 74 1.5383377671241760e-02</internalNodes>
          <leafValues>
            -7.6228789985179901e-02 5.1586967706680298e-01</leafValues></_>
        <_>
          <internalNodes>
            0 -1 240 1.7165127210319042e-03</internalNodes>
          <leafValues>
            -7.6546363532543182e-02 6.1078268289566040e-01</leafValues></_>
        <_>
          <internalNodes>
            0 -1 61 1.7768263933248818e-04</internalNodes>
          <leafValues>
            1.5738758444786072e-01 -3.0548432469367981e-01</leafValues></_>
        <_>
          <internalNodes>
            0 -1 121 -2.2564469836652279e-03</internalNodes>
          <leafValues>
            2.7930137515068054e-01 -1.7985551059246063e-01</leafValues></_>
        <_>
          <internalNodes>
            0 -1 138 -8.1851682625710964e-04</internalNodes>
          <leafValues>
            4.8264408111572266e-01 -1.1860042810440063e-01</leafValues></_>
        <_>
          <internalNodes>
            0 -1 295 -2.2138659842312336e-03</internalNodes>
          <leafValues>
            -4.2340543866157532e-01 1.4541389048099518e-01</leafValues></_>
        <_>
          <internalNodes>
            0 -1 306 1.0039808694273233e-03</internalNodes>
          <leafValues>
            1.2855748832225800e-01 -3.8471612334251404e-01</leafValues></_>
        <_>
          <internalNodes>
            0 -1 256 7.7655846253037453e-03</internalNodes>
          <leafValues>
            -2.2023323178291321e-01 2.4092516303062439e-01</leafValues></_>
        <_>
          <internalNodes>
            0 -1 99 -9.8551966249942780e-02</internalNodes>
          <leafValues>
            -7.4903553724288940e-01 7.7735736966133118e-02</leafValues></_>
        <_>
          <internalNodes>
            0 -1 253 9.2523451894521713e-04</internalNodes>
          <leafValues>
            -1.6252399981021881e-01 3.7281543016433716e-01</leafValues></_>
        <_>
          <internalNodes>
            0 -1 233 -3.4968117251992226e-03</internalNodes>
          <leafValues>
            -6.0455340147018433e-01 8.9673742651939392e-02</leafValues></_>
        <_>
          <internalNodes>
            0 -1 286 -5.8965999633073807e-03</internalNodes>
          <leafValues>
            4.1084867715835571e-01 -1.3923063874244690e-01</leafValues></_>
        <_>
          <internalNodes>
            0 -1 254 2.5622639805078506e-02</internalNodes>
          <leafValues>
            1.0430403053760529e-01 -4.9634867906570435e-01</leafValues></_>
        <_>
          <internalNodes>
            0 -1 313 -6.4937099814414978e-03</internalNodes>
          <leafValues>
            4.8092442750930786e-01 -1.1378704011440277e-01</leafValues></_>
        <_>
          <internalNodes>
            0 -1 155 7.2287232615053654e-04</internalNodes>
          <leafValues>
            1.0835979133844376e-01 -5.1354271173477173e-01</leafValues></_></weakClassifiers></_>
    <!-- stage 18 -->
    <_>
      <maxWeakCount>21</maxWeakCount>
      <stageThreshold>-8.6669749021530151e-01</stageThreshold>
      <weakClassifiers>
        <_>
          <internalNodes>
            0 -1 285 -2.9196932911872864e-02</internalNodes>
          <leafValues>
            3.2515338063240051e-01 -2.1546961367130280e-01</leafValues></_>
        <_>
          <internalNodes>
            0 -1 184 1.0219927132129669e-01</internalNodes>
          <leafValues>
            -7.4210219085216522e-02 7.4618154764175415e-01</leafValues></_>
        <_>
          <internalNodes>
            0 -1 211 5.5329925380647182e-03</internalNodes>
          <leafValues>
            1.3234859704971313e-01 -3.5335415601730347e-01</leafValues></_>
        <_>
          <internalNodes>
            0 -1 240 -1.0886224918067455e-03</internalNodes>
          <leafValues>
            4.5841512084007263e-01 -8.2527153193950653e-02</leafValues></_>
        <_>
          <internalNodes>
            0 -1 276 2.8815232217311859e-03</internalNodes>
          <leafValues>
            1.1924235522747040e-01 -4.2185068130493164e-01</leafValues></_>
        <_>
          <internalNodes>
            0 -1 136 1.6304329037666321e-02</internalNodes>
          <leafValues>
            5.6683622300624847e-02 -7.8953903913497925e-01</leafValues></_>
        <_>
          <internalNodes>
            0 -1 222 -1.7395213246345520e-02</internalNodes>
          <leafValues>
            -5.9952199459075928e-01 9.8880715668201447e-02</leafValues></_>
        <_>
          <internalNodes>
            0 -1 175 -2.9003228992223740e-03</internalNodes>
          <leafValues>
            4.4025287032127380e-01 -1.2381088733673096e-01</leafValues></_>
        <_>
          <internalNodes>
            0 -1 176 3.1401461455971003e-04</internalNodes>
          <leafValues>
            -2.1057343482971191e-01 2.7469909191131592e-01</leafValues></_>
        <_>
          <internalNodes>
            0 -1 261 -2.3093151394277811e-03</internalNodes>
          <leafValues>
            3.5979858040809631e-01 -1.2254809588193893e-01</leafValues></_>
        <_>
          <internalNodes>
            0 -1 111 3.6442896816879511e-04</internalNodes>
          <leafValues>
            1.2210340797901154e-01 -4.4139474630355835e-01</leafValues></_>
        <_>
          <internalNodes>
            0 -1 118 -2.0797613542526960e-03</internalNodes>
          <leafValues>
            3.1150162220001221e-01 -1.7492631077766418e-01</leafValues></_>
        <_>
          <internalNodes>
            0 -1 120 -1.7144663725048304e-03</internalNodes>
          <leafValues>
            4.3418565392494202e-01 -1.0837665945291519e-01</leafValues></_>
        <_>
          <internalNodes>
            0 -1 287 1.4356761312228628e-05</internalNodes>
          <leafValues>
            -2.1240687370300293e-01 2.7102822065353394e-01</leafValues></_>
        <_>
          <internalNodes>
            0 -1 316 3.5790498368442059e-03</internalNodes>
          <leafValues>
            1.8075203895568848e-01 -2.7497038245201111e-01</leafValues></_>
        <_>
          <internalNodes>
            0 -1 84 1.2039607390761375e-02</internalNodes>
          <leafValues>
            5.0403069704771042e-02 -8.0971604585647583e-01</leafValues></_>
        <_>
          <internalNodes>
            0 -1 158 -2.3296457584365271e-05</internalNodes>
          <leafValues>
            2.4842117726802826e-01 -1.9354218244552612e-01</leafValues></_>
        <_>
          <internalNodes>
            0 -1 239 1.8694342579692602e-03</internalNodes>
          <leafValues>
            -9.6572741866111755e-02 4.6628972887992859e-01</leafValues></_>
        <_>
          <internalNodes>
            0 -1 209 1.2370486510917544e-03</internalNodes>
          <leafValues>
            1.4992202818393707e-01 -3.7312498688697815e-01</leafValues></_>
        <_>
          <internalNodes>
            0 -1 234 -2.1231300197541714e-03</internalNodes>
          <leafValues>
            4.7919061779975891e-01 -1.1460495740175247e-01</leafValues></_>
        <_>
          <internalNodes>
            0 -1 180 1.8429098417982459e-05</internalNodes>
          <leafValues>
            -1.9562099874019623e-01 2.4646259844303131e-01</leafValues></_></weakClassifiers></_>
    <!-- stage 19 -->
    <_>
      <maxWeakCount>28</maxWeakCount>
      <stageThreshold>-1.0035344362258911e+00</stageThreshold>
      <weakClassifiers>
        <_>
          <internalNodes>
            0 -1 181 -1.1774443089962006e-02</internalNodes>
          <leafValues>
            4.3846154212951660e-01 -2.0759493112564087e-01</leafValues></_>
        <_>
          <internalNodes>
            0 -1 26 -3.8728930056095123e-02</internalNodes>
          <leafValues>
            3.2660225033760071e-01 -1.7500865459442139e-01</leafValues></_>
        <_>
          <internalNodes>
            0 -1 187 -4.9098958261311054e-03</internalNodes>
          <leafValues>
            4.4596788287162781e-01 -1.5588448941707611e-01</leafValues></_>
        <_>
          <internalNodes>
            0 -1 266 2.4016387760639191e-02</internalNodes>
          <leafValues>
            -9.8367944359779358e-02 4.3029588460922241e-01</leafValues></_>
        <_>
          <internalNodes>
            0 -1 206 1.2830276042222977e-02</internalNodes>
          <leafValues>
            -1.6446752846240997e-01 2.9768067598342896e-01</leafValues></_>
        <_>
          <internalNodes>
            0 -1 7 2.3590169847011566e-02</internalNodes>
          <leafValues>
            -1.4035576581954956e-01 3.5613653063774109e-01</leafValues></_>
        <_>
          <internalNodes>
            0 -1 246 8.4512657485902309e-04</internalNodes>
          <leafValues>
            -8.1300102174282074e-02 5.4888731241226196e-01</leafValues></_>
        <_>
          <internalNodes>
            0 -1 52 -1.9826542120426893e-03</internalNodes>
          <leafValues>
            -5.0163233280181885e-01 9.7069881856441498e-02</leafValues></_>
        <_>
          <internalNodes>
            0 -1 115 -8.7178812827914953e-04</internalNodes>
          <leafValues>
            3.9012098312377930e-01 -1.2422514706850052e-01</leafValues></_>
        <_>
          <internalNodes>
            0 -1 15 5.3843203932046890e-03</internalNodes>
          <leafValues>
            1.2435542792081833e-01 -3.8330692052841187e-01</leafValues></_>
        <_>
          <internalNodes>
            0 -1 72 1.2342652771621943e-03</internalNodes>
          <leafValues>
            1.8664574623107910e-01 -3.3828181028366089e-01</leafValues></_>
        <_>
          <internalNodes>
            0 -1 179 -1.0388065129518509e-03</internalNodes>
          <leafValues>
            5.9186375141143799e-01 -6.2871009111404419e-02</leafValues></_>
        <_>
          <internalNodes>
            0 -1 298 -8.8173244148492813e-03</internalNodes>
          <leafValues>
            -9.2875492572784424e-01 5.5229913443326950e-02</leafValues></_>
        <_>
          <internalNodes>
            0 -1 68 5.5072186514735222e-03</internalNodes>
          <leafValues>
            -9.3886196613311768e-02 7.3131471872329712e-01</leafValues></_>
        <_>
          <internalNodes>
            0 -1 270 -5.8127281954512000e-04</internalNodes>
          <leafValues>
            4.8790952563285828e-01 -8.9331895112991333e-02</leafValues></_>
        <_>
          <internalNodes>
            0 -1 9 1.4141059946268797e-03</internalNodes>
          <leafValues>
            1.5926021337509155e-01 -3.3122599124908447e-01</leafValues></_>
        <_>
          <internalNodes>
            0 -1 279 1.6692430945113301e-03</internalNodes>
          <leafValues>
            -1.0393372178077698e-01 4.9564126133918762e-01</leafValues></_>
        <_>
          <internalNodes>
            0 -1 301 -6.5242424607276917e-03</internalNodes>
          <leafValues>
            2.6808714866638184e-01 -1.8921229243278503e-01</leafValues></_>
        <_>
          <internalNodes>
            0 -1 168 -1.5683551318943501e-03</internalNodes>
          <leafValues>
            -4.7980692982673645e-01 9.6393093466758728e-02</leafValues></_>
        <_>
          <internalNodes>
            0 -1 195 9.9917373154312372e-04</internalNodes>
          <leafValues>
            -9.3420960009098053e-02 5.5517178773880005e-01</leafValues></_>
        <_>
          <internalNodes>
            0 -1 294 -8.6671172175556421e-04</internalNodes>
          <leafValues>
            -3.2633861899375916e-01 1.4855070412158966e-01</leafValues></_>
        <_>
          <internalNodes>
            0 -1 90 -1.0787429288029671e-02</internalNodes>
          <leafValues>
            4.5961689949035645e-01 -1.1007928103208542e-01</leafValues></_>
        <_>
          <internalNodes>
            0 -1 83 3.4102406352758408e-02</internalNodes>
          <leafValues>
            9.7470581531524658e-02 -5.3445357084274292e-01</leafValues></_>
        <_>
          <internalNodes>
            0 -1 194 5.4933475330471992e-03</internalNodes>
          <leafValues>
            -2.1059122681617737e-01 2.7334511280059814e-01</leafValues></_>
        <_>
          <internalNodes>
            0 -1 193 3.1611617654561996e-02</internalNodes>
          <leafValues>
            -1.0781161487102509e-01 4.8999518156051636e-01</leafValues></_>
        <_>
          <internalNodes>
            0 -1 245 -2.5370818912051618e-04</internalNodes>
          <leafValues>
            2.2530633211135864e-01 -2.3766605556011200e-01</leafValues></_>
        <_>
          <internalNodes>
            0 -1 221 -5.4676465690135956e-02</internalNodes>
          <leafValues>
            -7.0527964830398560e-01 6.7277200520038605e-02</leafValues></_>
        <_>
          <internalNodes>
            0 -1 91 2.6258386671543121e-02</internalNodes>
          <leafValues>
            -9.9151171743869781e-02 6.2809044122695923e-01</leafValues></_></weakClassifiers></_></stages>
  <features>
    <_>
      <rects>
        <_>
          0 0 2 2 -1.</_>
        <_>
          0 0 1 1 2.</_>
        <_>
          1 1 1 1 2.</_></rects>
      <tilted>0</tilted></_>
    <_>
      <rects>
        <_>
          0 0 1 12 -1.</_>
        <_>
          0 4 1 4 3.</_></rects>
      <tilted>0</tilted></_>
    <_>
      <rects>
        <_>
          0 1 2 2 -1.</_>
        <_>
          0 1 1 1 2.</_>
        <_>
          1 2 1 1 2.</_></rects>
      <tilted>0</tilted></_>
    <_>
      <rects>
        <_>
          0 1 4 2 -1.</_>
        <_>
          0 2 4 1 2.</_></rects>
      <tilted>0</tilted></_>
    <_>
      <rects>
        <_>
          0 2 3 1 -1.</_>
        <_>
          1 2 1 1 3.</_></rects>
      <tilted>0</tilted></_>
    <_>
      <rects>
        <_>
          0 2 1 22 -1.</_>
        <_>
          0 13 1 11 2.</_></rects>
      <tilted>0</tilted></_>
    <_>
      <rects>
        <_>
          0 3 2 2 -1.</_>
        <_>
          0 4 2 1 2.</_></rects>
      <tilted>0</tilted></_>
    <_>
      <rects>
        <_>
          0 3 4 16 -1.</_>
        <_>
          2 3 2 16 2.</_></rects>
      <tilted>0</tilted></_>
    <_>
      <rects>
        <_>
          0 3 21 6 -1.</_>
        <_>
          0 6 21 3 2.</_></rects>
      <tilted>0</tilted></_>
    <_>
      <rects>
        <_>
          0 4 1 8 -1.</_>
        <_>
          0 8 1 4 2.</_></rects>
      <tilted>0</tilted></_>
    <_>
      <rects>
        <_>
          0 4 2 14 -1.</_>
        <_>
          0 4 1 7 2.</_>
        <_>
          1 11 1 7 2.</_></rects>
      <tilted>0</tilted></_>
    <_>
      <rects>
        <_>
          0 5 1 3 -1.</_>
        <_>
          0 6 1 1 3.</_></rects>
      <tilted>0</tilted></_>
    <_>
      <rects>
        <_>
          0 6 6 12 -1.</_>
        <_>
          2 6 2 12 3.</_></rects>
      <tilted>0</tilted></_>
    <_>
      <rects>
        <_>
          0 6 6 18 -1.</_>
        <_>
          2 6 2 18 3.</_></rects>
      <tilted>0</tilted></_>
    <_>
      <rects>
        <_>
          0 9 14 6 -1.</_>
        <_>
          0 12 14 3 2.</_></rects>
      <tilted>0</tilted></_>
    <_>
      <rects>
        <_>
          0 10 1 12 -1.</_>
        <_>
          0 16 1 6 2.</_></rects>
      <tilted>0</tilted></_>
    <_>
      <rects>
        <_>
          0 11 1 2 -1.</_>
        <_>
          0 12 1 1 2.</_></rects>
      <tilted>0</tilted></_>
    <_>
      <rects>
        <_>
          0 11 1 3 -1.</_>
        <_>
          0 12 1 1 3.</_></rects>
      <tilted>0</tilted></_>
    <_>
      <rects>
        <_>
          0 11 6 10 -1.</_>
        <_>
          2 11 2 10 3.</_></rects>
      <tilted>0</tilted></_>
    <_>
      <rects>
        <_>
          0 11 6 7 -1.</_>
        <_>
          3 11 3 7 2.</_></rects>
      <tilted>0</tilted></_>
    <_>
      <rects>
        <_>
          0 12 2 2 -1.</_>
        <_>
          0 12 1 1 2.</_>
        <_>
          1 13 1 1 2.</_></rects>
      <tilted>0</tilted></_>
    <_>
      <rects>
        <_>
          0 12 6 9 -1.</_>
        <_>
          2 12 2 9 3.</_></rects>
      <tilted>0</tilted></_>
    <_>
      <rects>
        <_>
          0 13 6 3 -1.</_>
        <_>
          2 13 2 3 3.</_></rects>
      <tilted>0</tilted></_>
    <_>
      <rects>
        <_>
          0 13 6 4 -1.</_>
        <_>
          2 13 2 4 3.</_></rects>
      <tilted>0</tilted></_>
    <_>
      <rects>
        <_>
          0 14 6 2 -1.</_>
        <_>
          2 14 2 2 3.</_></rects>
      <tilted>0</tilted></_>
    <_>
      <rects>
        <_>
          0 15 6 4 -1.</_>
        <_>
          2 15 2 4 3.</_></rects>
      <tilted>0</tilted></_>
    <_>
      <rects>
        <_>
          0 18 21 6 -1.</_>
        <_>
          0 21 21 3 2.</_></rects>
      <tilted>0</tilted></_>
    <_>
      <rects>
        <_>
          0 19 2 2 -1.</_>
        <_>
          0 19 1 1 2.</_>
        <_>
          1 20 1 1 2.</_></rects>
      <tilted>0</tilted></_>
    <_>
      <rects>
        <_>
          0 19 1 4 -1.</_>
        <_>
          0 21 1 2 2.</_></rects>
      <tilted>0</tilted></_>
    <_>
      <rects>
        <_>
          0 20 2 4 -1.</_>
        <_>
          1 20 1 4 2.</_></rects>
      <tilted>0</tilted></_>
    <_>
      <rects>
        <_>
          0 20 2 2 -1.</_>
        <_>
          0 21 2 1 2.</_></rects>
      <tilted>0</tilted></_>
    <_>
      <rects>
        <_>
          0 21 1 3 -1.</_>
        <_>
          0 22 1 1 3.</_></rects>
      <tilted>0</tilted></_>
    <_>
      <rects>
        <_>
          0 21 2 2 -1.</_>
        <_>
          0 22 2 1 2.</_></rects>
      <tilted>0</tilted></_>
    <_>
      <rects>
        <_>
          0 21 2 3 -1.</_>
        <_>
          0 22 2 1 3.</_></rects>
      <tilted>0</tilted></_>
    <_>
      <rects>
        <_>
          0 21 12 2 -1.</_>
        <_>
          0 21 6 1 2.</_>
        <_>
          6 22 6 1 2.</_></rects>
      <tilted>0</tilted></_>
    <_>
      <rects>
        <_>
          0 22 1 2 -1.</_>
        <_>
          0 23 1 1 2.</_></rects>
      <tilted>0</tilted></_>
    <_>
      <rects>
        <_>
          0 23 2 1 -1.</_>
        <_>
          1 23 1 1 2.</_></rects>
      <tilted>0</tilted></_>
    <_>
      <rects>
        <_>
          0 23 24 1 -1.</_>
        <_>
          8 23 8 1 3.</_></rects>
      <tilted>0</tilted></_>
    <_>
      <rects>
        <_>
          1 0 2 2 -1.</_>
        <_>
          1 0 1 1 2.</_>
        <_>
          2 1 1 1 2.</_></rects>
      <tilted>0</tilted></_>
    <_>
      <rects>
        <_>
          1 0 1 4 -1.</_>
        <_>
          1 2 1 2 2.</_></rects>
      <tilted>0</tilted></_>
    <_>
      <rects>
        <_>
          1 0 22 14 -1.</_>
        <_>
          1 7 22 7 2.</_></rects>
      <tilted>0</tilted></_>
    <_>
      <rects>
        <_>
          1 2 1 3 -1.</_>
        <_>
          1 3 1 1 3.</_></rects>
      <tilted>0</tilted></_>
    <_>
      <rects>
        <_>
          1 4 19 6 -1.</_>
        <_>
          1 6 19 2 3.</_></rects>
      <tilted>0</tilted></_>
    <_>
      <rects>
        <_>
          1 6 6 7 -1.</_>
        <_>
          3 6 2 7 3.</_></rects>
      <tilted>0</tilted></_>
    <_>
      <rects>
        <_>
          1 8 4 12 -1.</_>
        <_>
          1 8 2 6 2.</_>
        <_>
          3 14 2 6 2.</_></rects>
      <tilted>0</tilted></_>
    <_>
      <rects>
        <_>
          1 10 6 10 -1.</_>
        <_>
          4 10 3 10 2.</_></rects>
      <tilted>0</tilted></_>
    <_>
      <rects>
        <_>
          1 11 6 8 -1.</_>
        <_>
          3 11 2 8 3.</_></rects>
      <tilted>0</tilted></_>
    <_>
      <rects>
        <_>
          1 11 6 9 -1.</_>
        <_>
          3 11 2 9 3.</_></rects>
      <tilted>0</tilted></_>
    <_>
      <rects>
        <_>
          1 11 4 3 -1.</_>
        <_>
          1 12 4 1 3.</_></rects>
      <tilted>0</tilted></_>
    <_>
      <rects>
        <_>
          1 12 6 8 -1.</_>
        <_>
          3 12 2 8 3.</_></rects>
      <tilted>0</tilted></_>
    <_>
      <rects>
        <_>
          1 12 6 6 -1.</_>
        <_>
          4 12 3 6 2.</_></rects>
      <tilted>0</tilted></_>
    <_>
      <rects>
        <_>
          1 13 22 9 -1.</_>
        <_>
          1 16 22 3 3.</_></rects>
      <tilted>0</tilted></_>
    <_>
      <rects>
        <_>
          1 15 4 2 -1.</_>
        <_>
          1 16 4 1 2.</_></rects>
      <tilted>0</tilted></_>
    <_>
      <rects>
        <_>
          1 15 19 9 -1.</_>
        <_>
          1 18 19 3 3.</_></rects>
      <tilted>0</tilted></_>
    <_>
      <rects>
        <_>
          1 16 8 4 -1.</_>
        <_>
          1 18 8 2 2.</_></rects>
      <tilted>0</tilted></_>
    <_>
      <rects>
        <_>
          1 17 14 6 -1.</_>
        <_>
          1 17 7 3 2.</_>
        <_>
          8 20 7 3 2.</_></rects>
      <tilted>0</tilted></_>
    <_>
      <rects>
        <_>
          1 21 1 2 -1.</_>
        <_>
          1 22 1 1 2.</_></rects>
      <tilted>0</tilted></_>
    <_>
      <rects>
        <_>
          1 21 2 2 -1.</_>
        <_>
          1 21 1 1 2.</_>
        <_>
          2 22 1 1 2.</_></rects>
      <tilted>0</tilted></_>
    <_>
      <rects>
        <_>
          1 23 2 1 -1.</_>
        <_>
          2 23 1 1 2.</_></rects>
      <tilted>0</tilted></_>
    <_>
      <rects>
        <_>
          2 0 3 2 -1.</_>
        <_>
          3 0 1 2 3.</_></rects>
      <tilted>0</tilted></_>
    <_>
      <rects>
        <_>
          2 0 2 2 -1.</_>
        <_>
          2 1 2 1 2.</_></rects>
      <tilted>0</tilted></_>
    <_>
      <rects>
        <_>
          2 4 1 2 -1.</_>
        <_>
          2 5 1 1 2.</_></rects>
      <tilted>0</tilted></_>
    <_>
      <rects>
        <_>
          2 5 4 10 -1.</_>
        <_>
          2 5 2 5 2.</_>
        <_>
          4 10 2 5 2.</_></rects>
      <tilted>0</tilted></_>
    <_>
      <rects>
        <_>
          2 6 1 3 -1.</_>
        <_>
          2 7 1 1 3.</_></rects>
      <tilted>0</tilted></_>
    <_>
      <rects>
        <_>
          2 6 19 16 -1.</_>
        <_>
          2 14 19 8 2.</_></rects>
      <tilted>0</tilted></_>
    <_>
      <rects>
        <_>
          2 9 6 10 -1.</_>
        <_>
          4 9 2 10 3.</_></rects>
      <tilted>0</tilted></_>
    <_>
      <rects>
        <_>
          2 10 4 11 -1.</_>
        <_>
          4 10 2 11 2.</_></rects>
      <tilted>0</tilted></_>
    <_>
      <rects>
        <_>
          2 10 16 9 -1.</_>
        <_>
          10 10 8 9 2.</_></rects>
      <tilted>0</tilted></_>
    <_>
      <rects>
        <_>
          2 11 2 6 -1.</_>
        <_>
          2 11 1 3 2.</_>
        <_>
          3 14 1 3 2.</_></rects>
      <tilted>0</tilted></_>
    <_>
      <rects>
        <_>
          2 12 6 3 -1.</_>
        <_>
          4 12 2 3 3.</_></rects>
      <tilted>0</tilted></_>
    <_>
      <rects>
        <_>
          2 14 6 9 -1.</_>
        <_>
          4 14 2 9 3.</_></rects>
      <tilted>0</tilted></_>
    <_>
      <rects>
        <_>
          2 15 5 3 -1.</_>
        <_>
          2 16 5 1 3.</_></rects>
      <tilted>0</tilted></_>
    <_>
      <rects>
        <_>
          2 17 2 5 -1.</_>
        <_>
          3 17 1 5 2.</_></rects>
      <tilted>0</tilted></_>
    <_>
      <rects>
        <_>
          2 18 9 3 -1.</_>
        <_>
          5 18 3 3 3.</_></rects>
      <tilted>0</tilted></_>
    <_>
      <rects>
        <_>
          2 19 12 1 -1.</_>
        <_>
          6 19 4 1 3.</_></rects>
      <tilted>0</tilted></_>
    <_>
      <rects>
        <_>
          2 20 19 4 -1.</_>
        <_>
          2 22 19 2 2.</_></rects>
      <tilted>0</tilted></_>
    <_>
      <rects>
        <_>
          2 21 2 2 -1.</_>
        <_>
          2 21 1 1 2.</_>
        <_>
          3 22 1 1 2.</_></rects>
      <tilted>0</tilted></_>
    <_>
      <rects>
        <_>
          3 2 4 9 -1.</_>
        <_>
          3 5 4 3 3.</_></rects>
      <tilted>0</tilted></_>
    <_>
      <rects>
        <_>
          3 2 13 10 -1.</_>
        <_>
          3 7 13 5 2.</_></rects>
      <tilted>0</tilted></_>
    <_>
      <rects>
        <_>
          3 3 17 6 -1.</_>
        <_>
          3 6 17 3 2.</_></rects>
      <tilted>0</tilted></_>
    <_>
      <rects>
        <_>
          3 5 6 14 -1.</_>
        <_>
          5 5 2 14 3.</_></rects>
      <tilted>0</tilted></_>
    <_>
      <rects>
        <_>
          3 7 10 6 -1.</_>
        <_>
          8 7 5 6 2.</_></rects>
      <tilted>0</tilted></_>
    <_>
      <rects>
        <_>
          3 9 9 12 -1.</_>
        <_>
          6 9 3 12 3.</_></rects>
      <tilted>0</tilted></_>
    <_>
      <rects>
        <_>
          3 9 12 4 -1.</_>
        <_>
          9 9 6 4 2.</_></rects>
      <tilted>0</tilted></_>
    <_>
      <rects>
        <_>
          3 11 17 3 -1.</_>
        <_>
          3 12 17 1 3.</_></rects>
      <tilted>0</tilted></_>
    <_>
      <rects>
        <_>
          3 12 6 6 -1.</_>
        <_>
          5 12 2 6 3.</_></rects>
      <tilted>0</tilted></_>
    <_>
      <rects>
        <_>
          3 14 3 3 -1.</_>
        <_>
          4 14 1 3 3.</_></rects>
      <tilted>0</tilted></_>
    <_>
      <rects>
        <_>
          3 14 4 6 -1.</_>
        <_>
          3 14 2 3 2.</_>
        <_>
          5 17 2 3 2.</_></rects>
      <tilted>0</tilted></_>
    <_>
      <rects>
        <_>
          3 15 6 1 -1.</_>
        <_>
          5 15 2 1 3.</_></rects>
      <tilted>0</tilted></_>
    <_>
      <rects>
        <_>
          3 16 6 1 -1.</_>
        <_>
          5 16 2 1 3.</_></rects>
      <tilted>0</tilted></_>
    <_>
      <rects>
        <_>
          3 17 6 3 -1.</_>
        <_>
          5 17 2 3 3.</_></rects>
      <tilted>0</tilted></_>
    <_>
      <rects>
        <_>
          3 18 10 4 -1.</_>
        <_>
          3 18 5 2 2.</_>
        <_>
          8 20 5 2 2.</_></rects>
      <tilted>0</tilted></_>
    <_>
      <rects>
        <_>
          3 19 12 4 -1.</_>
        <_>
          3 19 6 2 2.</_>
        <_>
          9 21 6 2 2.</_></rects>
      <tilted>0</tilted></_>
    <_>
      <rects>
        <_>
          3 20 2 1 -1.</_>
        <_>
          4 20 1 1 2.</_></rects>
      <tilted>0</tilted></_>
    <_>
      <rects>
        <_>
          3 22 1 2 -1.</_>
        <_>
          3 23 1 1 2.</_></rects>
      <tilted>0</tilted></_>
    <_>
      <rects>
        <_>
          3 22 2 2 -1.</_>
        <_>
          3 22 1 1 2.</_>
        <_>
          4 23 1 1 2.</_></rects>
      <tilted>0</tilted></_>
    <_>
      <rects>
        <_>
          3 22 3 2 -1.</_>
        <_>
          3 23 3 1 2.</_></rects>
      <tilted>0</tilted></_>
    <_>
      <rects>
        <_>
          4 0 2 3 -1.</_>
        <_>
          4 1 2 1 3.</_></rects>
      <tilted>0</tilted></_>
    <_>
      <rects>
        <_>
          4 1 9 12 -1.</_>
        <_>
          4 7 9 6 2.</_></rects>
      <tilted>0</tilted></_>
    <_>
      <rects>
        <_>
          4 4 9 19 -1.</_>
        <_>
          7 4 3 19 3.</_></rects>
      <tilted>0</tilted></_>
    <_>
      <rects>
        <_>
          4 6 12 4 -1.</_>
        <_>
          10 6 6 4 2.</_></rects>
      <tilted>0</tilted></_>
    <_>
      <rects>
        <_>
          4 8 15 10 -1.</_>
        <_>
          9 8 5 10 3.</_></rects>
      <tilted>0</tilted></_>
    <_>
      <rects>
        <_>
          4 8 8 10 -1.</_>
        <_>
          4 13 8 5 2.</_></rects>
      <tilted>0</tilted></_>
    <_>
      <rects>
        <_>
          4 9 1 2 -1.</_>
        <_>
          4 10 1 1 2.</_></rects>
      <tilted>0</tilted></_>
    <_>
      <rects>
        <_>
          4 10 18 8 -1.</_>
        <_>
          4 14 18 4 2.</_></rects>
      <tilted>0</tilted></_>
    <_>
      <rects>
        <_>
          4 14 12 9 -1.</_>
        <_>
          4 17 12 3 3.</_></rects>
      <tilted>0</tilted></_>
    <_>
      <rects>
        <_>
          4 15 15 7 -1.</_>
        <_>
          9 15 5 7 3.</_></rects>
      <tilted>0</tilted></_>
    <_>
      <rects>
        <_>
          4 17 3 1 -1.</_>
        <_>
          5 17 1 1 3.</_></rects>
      <tilted>0</tilted></_>
    <_>
      <rects>
        <_>
          4 17 8 2 -1.</_>
        <_>
          4 17 4 1 2.</_>
        <_>
          8 18 4 1 2.</_></rects>
      <tilted>0</tilted></_>
    <_>
      <rects>
        <_>
          4 18 13 6 -1.</_>
        <_>
          4 20 13 2 3.</_></rects>
      <tilted>0</tilted></_>
    <_>
      <rects>
        <_>
          4 20 15 4 -1.</_>
        <_>
          4 22 15 2 2.</_></rects>
      <tilted>0</tilted></_>
    <_>
      <rects>
        <_>
          4 22 2 2 -1.</_>
        <_>
          4 22 1 1 2.</_>
        <_>
          5 23 1 1 2.</_></rects>
      <tilted>0</tilted></_>
    <_>
      <rects>
        <_>
          4 22 14 2 -1.</_>
        <_>
          4 23 14 1 2.</_></rects>
      <tilted>0</tilted></_>
    <_>
      <rects>
        <_>
          4 23 15 1 -1.</_>
        <_>
          9 23 5 1 3.</_></rects>
      <tilted>0</tilted></_>
    <_>
      <rects>
        <_>
          5 5 17 16 -1.</_>
        <_>
          5 13 17 8 2.</_></rects>
      <tilted>0</tilted></_>
    <_>
      <rects>
        <_>
          5 7 4 2 -1.</_>
        <_>
          5 7 2 1 2.</_>
        <_>
          7 8 2 1 2.</_></rects>
      <tilted>0</tilted></_>
    <_>
      <rects>
        <_>
          5 9 10 2 -1.</_>
        <_>
          10 9 5 2 2.</_></rects>
      <tilted>0</tilted></_>
    <_>
      <rects>
        <_>
          5 12 19 12 -1.</_>
        <_>
          5 16 19 4 3.</_></rects>
      <tilted>0</tilted></_>
    <_>
      <rects>
        <_>
          5 13 4 4 -1.</_>
        <_>
          5 13 2 2 2.</_>
        <_>
          7 15 2 2 2.</_></rects>
      <tilted>0</tilted></_>
    <_>
      <rects>
        <_>
          5 14 2 3 -1.</_>
        <_>
          6 14 1 3 2.</_></rects>
      <tilted>0</tilted></_>
    <_>
      <rects>
        <_>
          5 16 2 4 -1.</_>
        <_>
          5 16 1 2 2.</_>
        <_>
          6 18 1 2 2.</_></rects>
      <tilted>0</tilted></_>
    <_>
      <rects>
        <_>
          5 16 6 2 -1.</_>
        <_>
          7 16 2 2 3.</_></rects>
      <tilted>0</tilted></_>
    <_>
      <rects>
        <_>
          5 16 16 4 -1.</_>
        <_>
          5 18 16 2 2.</_></rects>
      <tilted>0</tilted></_>
    <_>
      <rects>
        <_>
          5 18 4 2 -1.</_>
        <_>
          5 19 4 1 2.</_></rects>
      <tilted>0</tilted></_>
    <_>
      <rects>
        <_>
          5 18 13 6 -1.</_>
        <_>
          5 20 13 2 3.</_></rects>
      <tilted>0</tilted></_>
    <_>
      <rects>
        <_>
          5 21 9 3 -1.</_>
        <_>
          5 22 9 1 3.</_></rects>
      <tilted>0</tilted></_>
    <_>
      <rects>
        <_>
          5 22 3 1 -1.</_>
        <_>
          6 22 1 1 3.</_></rects>
      <tilted>0</tilted></_>
    <_>
      <rects>
        <_>
          6 0 16 20 -1.</_>
        <_>
          6 10 16 10 2.</_></rects>
      <tilted>0</tilted></_>
    <_>
      <rects>
        <_>
          6 1 11 9 -1.</_>
        <_>
          6 4 11 3 3.</_></rects>
      <tilted>0</tilted></_>
    <_>
      <rects>
        <_>
          6 5 17 18 -1.</_>
        <_>
          6 14 17 9 2.</_></rects>
      <tilted>0</tilted></_>
    <_>
      <rects>
        <_>
          6 6 10 18 -1.</_>
        <_>
          6 12 10 6 3.</_></rects>
      <tilted>0</tilted></_>
    <_>
      <rects>
        <_>
          6 7 1 2 -1.</_>
        <_>
          6 8 1 1 2.</_></rects>
      <tilted>0</tilted></_>
    <_>
      <rects>
        <_>
          6 8 6 7 -1.</_>
        <_>
          9 8 3 7 2.</_></rects>
      <tilted>0</tilted></_>
    <_>
      <rects>
        <_>
          6 10 11 6 -1.</_>
        <_>
          6 13 11 3 2.</_></rects>
      <tilted>0</tilted></_>
    <_>
      <rects>
        <_>
          6 12 16 2 -1.</_>
        <_>
          6 12 8 1 2.</_>
        <_>
          14 13 8 1 2.</_></rects>
      <tilted>0</tilted></_>
    <_>
      <rects>
        <_>
          6 13 12 10 -1.</_>
        <_>
          10 13 4 10 3.</_></rects>
      <tilted>0</tilted></_>
    <_>
      <rects>
        <_>
          6 13 15 1 -1.</_>
        <_>
          11 13 5 1 3.</_></rects>
      <tilted>0</tilted></_>
    <_>
      <rects>
        <_>
          6 16 1 6 -1.</_>
        <_>
          6 18 1 2 3.</_></rects>
      <tilted>0</tilted></_>
    <_>
      <rects>
        <_>
          6 17 2 2 -1.</_>
        <_>
          6 17 1 1 2.</_>
        <_>
          7 18 1 1 2.</_></rects>
      <tilted>0</tilted></_>
    <_>
      <rects>
        <_>
          6 17 7 3 -1.</_>
        <_>
          6 18 7 1 3.</_></rects>
      <tilted>0</tilted></_>
    <_>
      <rects>
        <_>
          6 18 11 4 -1.</_>
        <_>
          6 20 11 2 2.</_></rects>
      <tilted>0</tilted></_>
    <_>
      <rects>
        <_>
          6 18 11 6 -1.</_>
        <_>
          6 20 11 2 3.</_></rects>
      <tilted>0</tilted></_>
    <_>
      <rects>
        <_>
          6 19 4 2 -1.</_>
        <_>
          6 19 2 1 2.</_>
        <_>
          8 20 2 1 2.</_></rects>
      <tilted>0</tilted></_>
    <_>
      <rects>
        <_>
          6 19 12 1 -1.</_>
        <_>
          10 19 4 1 3.</_></rects>
      <tilted>0</tilted></_>
    <_>
      <rects>
        <_>
          7 4 13 6 -1.</_>
        <_>
          7 6 13 2 3.</_></rects>
      <tilted>0</tilted></_>
    <_>
      <rects>
        <_>
          7 9 12 8 -1.</_>
        <_>
          7 9 6 4 2.</_>
        <_>
          13 13 6 4 2.</_></rects>
      <tilted>0</tilted></_>
    <_>
      <rects>
        <_>
          7 10 12 6 -1.</_>
        <_>
          7 10 6 3 2.</_>
        <_>
          13 13 6 3 2.</_></rects>
      <tilted>0</tilted></_>
    <_>
      <rects>
        <_>
          7 11 8 12 -1.</_>
        <_>
          7 15 8 4 3.</_></rects>
      <tilted>0</tilted></_>
    <_>
      <rects>
        <_>
          7 17 8 4 -1.</_>
        <_>
          7 17 4 2 2.</_>
        <_>
          11 19 4 2 2.</_></rects>
      <tilted>0</tilted></_>
    <_>
      <rects>
        <_>
          7 17 9 6 -1.</_>
        <_>
          7 19 9 2 3.</_></rects>
      <tilted>0</tilted></_>
    <_>
      <rects>
        <_>
          7 17 10 2 -1.</_>
        <_>
          7 18 10 1 2.</_></rects>
      <tilted>0</tilted></_>
    <_>
      <rects>
        <_>
          7 21 8 3 -1.</_>
        <_>
          7 22 8 1 3.</_></rects>
      <tilted>0</tilted></_>
    <_>
      <rects>
        <_>
          7 22 2 2 -1.</_>
        <_>
          8 22 1 2 2.</_></rects>
      <tilted>0</tilted></_>
    <_>
      <rects>
        <_>
          7 22 8 2 -1.</_>
        <_>
          7 23 8 1 2.</_></rects>
      <tilted>0</tilted></_>
    <_>
      <rects>
        <_>
          7 22 10 2 -1.</_>
        <_>
          7 23 10 1 2.</_></rects>
      <tilted>0</tilted></_>
    <_>
      <rects>
        <_>
          8 0 3 1 -1.</_>
        <_>
          9 0 1 1 3.</_></rects>
      <tilted>0</tilted></_>
    <_>
      <rects>
        <_>
          8 3 2 1 -1.</_>
        <_>
          9 3 1 1 2.</_></rects>
      <tilted>0</tilted></_>
    <_>
      <rects>
        <_>
          8 8 3 1 -1.</_>
        <_>
          9 8 1 1 3.</_></rects>
      <tilted>0</tilted></_>
    <_>
      <rects>
        <_>
          8 10 2 1 -1.</_>
        <_>
          9 10 1 1 2.</_></rects>
      <tilted>0</tilted></_>
    <_>
      <rects>
        <_>
          8 10 10 12 -1.</_>
        <_>
          8 14 10 4 3.</_></rects>
      <tilted>0</tilted></_>
    <_>
      <rects>
        <_>
          8 14 6 6 -1.</_>
        <_>
          8 16 6 2 3.</_></rects>
      <tilted>0</tilted></_>
    <_>
      <rects>
        <_>
          8 14 8 9 -1.</_>
        <_>
          8 17 8 3 3.</_></rects>
      <tilted>0</tilted></_>
    <_>
      <rects>
        <_>
          8 16 2 3 -1.</_>
        <_>
          8 17 2 1 3.</_></rects>
      <tilted>0</tilted></_>
    <_>
      <rects>
        <_>
          8 16 2 6 -1.</_>
        <_>
          8 18 2 2 3.</_></rects>
      <tilted>0</tilted></_>
    <_>
      <rects>
        <_>
          8 18 7 3 -1.</_>
        <_>
          8 19 7 1 3.</_></rects>
      <tilted>0</tilted></_>
    <_>
      <rects>
        <_>
          8 22 11 2 -1.</_>
        <_>
          8 23 11 1 2.</_></rects>
      <tilted>0</tilted></_>
    <_>
      <rects>
        <_>
          8 23 16 1 -1.</_>
        <_>
          16 23 8 1 2.</_></rects>
      <tilted>0</tilted></_>
    <_>
      <rects>
        <_>
          9 0 3 17 -1.</_>
        <_>
          10 0 1 17 3.</_></rects>
      <tilted>0</tilted></_>
    <_>
      <rects>
        <_>
          9 0 4 1 -1.</_>
        <_>
          11 0 2 1 2.</_></rects>
      <tilted>0</tilted></_>
    <_>
      <rects>
        <_>
          9 4 3 18 -1.</_>
        <_>
          9 13 3 9 2.</_></rects>
      <tilted>0</tilted></_>
    <_>
      <rects>
        <_>
          9 6 3 9 -1.</_>
        <_>
          10 6 1 9 3.</_></rects>
      <tilted>0</tilted></_>
    <_>
      <rects>
        <_>
          9 6 6 9 -1.</_>
        <_>
          11 6 2 9 3.</_></rects>
      <tilted>0</tilted></_>
    <_>
      <rects>
        <_>
          9 7 8 10 -1.</_>
        <_>
          9 12 8 5 2.</_></rects>
      <tilted>0</tilted></_>
    <_>
      <rects>
        <_>
          9 8 3 4 -1.</_>
        <_>
          10 8 1 4 3.</_></rects>
      <tilted>0</tilted></_>
    <_>
      <rects>
        <_>
          9 9 3 2 -1.</_>
        <_>
          10 9 1 2 3.</_></rects>
      <tilted>0</tilted></_>
    <_>
      <rects>
        <_>
          9 9 3 4 -1.</_>
        <_>
          10 9 1 4 3.</_></rects>
      <tilted>0</tilted></_>
    <_>
      <rects>
        <_>
          9 10 3 1 -1.</_>
        <_>
          10 10 1 1 3.</_></rects>
      <tilted>0</tilted></_>
    <_>
      <rects>
        <_>
          9 10 12 3 -1.</_>
        <_>
          15 10 6 3 2.</_></rects>
      <tilted>0</tilted></_>
    <_>
      <rects>
        <_>
          9 11 2 6 -1.</_>
        <_>
          9 11 1 3 2.</_>
        <_>
          10 14 1 3 2.</_></rects>
      <tilted>0</tilted></_>
    <_>
      <rects>
        <_>
          9 12 2 2 -1.</_>
        <_>
          9 12 1 1 2.</_>
        <_>
          10 13 1 1 2.</_></rects>
      <tilted>0</tilted></_>
    <_>
      <rects>
        <_>
          9 13 2 1 -1.</_>
        <_>
          10 13 1 1 2.</_></rects>
      <tilted>0</tilted></_>
    <_>
      <rects>
        <_>
          9 16 4 6 -1.</_>
        <_>
          9 18 4 2 3.</_></rects>
      <tilted>0</tilted></_>
    <_>
      <rects>
        <_>
          9 16 8 6 -1.</_>
        <_>
          9 16 4 3 2.</_>
        <_>
          13 19 4 3 2.</_></rects>
      <tilted>0</tilted></_>
    <_>
      <rects>
        <_>
          9 17 5 3 -1.</_>
        <_>
          9 18 5 1 3.</_></rects>
      <tilted>0</tilted></_>
    <_>
      <rects>
        <_>
          9 18 12 6 -1.</_>
        <_>
          13 18 4 6 3.</_></rects>
      <tilted>0</tilted></_>
    <_>
      <rects>
        <_>
          9 18 5 6 -1.</_>
        <_>
          9 20 5 2 3.</_></rects>
      <tilted>0</tilted></_>
    <_>
      <rects>
        <_>
          9 18 7 3 -1.</_>
        <_>
          9 19 7 1 3.</_></rects>
      <tilted>0</tilted></_>
    <_>
      <rects>
        <_>
          9 19 7 3 -1.</_>
        <_>
          9 20 7 1 3.</_></rects>
      <tilted>0</tilted></_>
    <_>
      <rects>
        <_>
          9 20 1 3 -1.</_>
        <_>
          9 21 1 1 3.</_></rects>
      <tilted>0</tilted></_>
    <_>
      <rects>
        <_>
          9 20 5 3 -1.</_>
        <_>
          9 21 5 1 3.</_></rects>
      <tilted>0</tilted></_>
    <_>
      <rects>
        <_>
          9 21 3 3 -1.</_>
        <_>
          9 22 3 1 3.</_></rects>
      <tilted>0</tilted></_>
    <_>
      <rects>
        <_>
          9 22 14 2 -1.</_>
        <_>
          9 22 7 1 2.</_>
        <_>
          16 23 7 1 2.</_></rects>
      <tilted>0</tilted></_>
    <_>
      <rects>
        <_>
          9 23 6 1 -1.</_>
        <_>
          11 23 2 1 3.</_></rects>
      <tilted>0</tilted></_>
    <_>
      <rects>
        <_>
          10 0 10 9 -1.</_>
        <_>
          10 3 10 3 3.</_></rects>
      <tilted>0</tilted></_>
    <_>
      <rects>
        <_>
          10 5 6 9 -1.</_>
        <_>
          10 8 6 3 3.</_></rects>
      <tilted>0</tilted></_>
    <_>
      <rects>
        <_>
          10 7 2 2 -1.</_>
        <_>
          10 7 1 1 2.</_>
        <_>
          11 8 1 1 2.</_></rects>
      <tilted>0</tilted></_>
    <_>
      <rects>
        <_>
          10 7 3 3 -1.</_>
        <_>
          11 7 1 3 3.</_></rects>
      <tilted>0</tilted></_>
    <_>
      <rects>
        <_>
          10 8 3 3 -1.</_>
        <_>
          11 8 1 3 3.</_></rects>
      <tilted>0</tilted></_>
    <_>
      <rects>
        <_>
          10 9 3 5 -1.</_>
        <_>
          11 9 1 5 3.</_></rects>
      <tilted>0</tilted></_>
    <_>
      <rects>
        <_>
          10 10 3 1 -1.</_>
        <_>
          11 10 1 1 3.</_></rects>
      <tilted>0</tilted></_>
    <_>
      <rects>
        <_>
          10 10 11 10 -1.</_>
        <_>
          10 15 11 5 2.</_></rects>
      <tilted>0</tilted></_>
    <_>
      <rects>
        <_>
          10 11 2 1 -1.</_>
        <_>
          11 11 1 1 2.</_></rects>
      <tilted>0</tilted></_>
    <_>
      <rects>
        <_>
          10 13 2 2 -1.</_>
        <_>
          10 13 1 1 2.</_>
        <_>
          11 14 1 1 2.</_></rects>
      <tilted>0</tilted></_>
    <_>
      <rects>
        <_>
          10 14 9 6 -1.</_>
        <_>
          10 16 9 2 3.</_></rects>
      <tilted>0</tilted></_>
    <_>
      <rects>
        <_>
          10 16 8 2 -1.</_>
        <_>
          10 16 4 1 2.</_>
        <_>
          14 17 4 1 2.</_></rects>
      <tilted>0</tilted></_>
    <_>
      <rects>
        <_>
          10 17 8 4 -1.</_>
        <_>
          10 17 4 2 2.</_>
        <_>
          14 19 4 2 2.</_></rects>
      <tilted>0</tilted></_>
    <_>
      <rects>
        <_>
          10 17 11 4 -1.</_>
        <_>
          10 19 11 2 2.</_></rects>
      <tilted>0</tilted></_>
    <_>
      <rects>
        <_>
          10 18 3 5 -1.</_>
        <_>
          11 18 1 5 3.</_></rects>
      <tilted>0</tilted></_>
    <_>
      <rects>
        <_>
          10 18 4 6 -1.</_>
        <_>
